tree
version=v4
num_class=1
num_tree_per_iteration=1
label_index=0
max_feature_idx=24
objective=regression
feature_names=year round_number community college_code branch_code closing_rank_lag_1 closing_rank_lag_2 closing_rank_delta_1 closing_rank_ema_3 seats_community seats_total seats_ratio total_applicants community_applicants applicant_ratio community_applicants_lag_1 total_applicants_lag_1 lag_1_applicant_scaled lag_1_community_scaled combo_avg_closing college_avg_closing branch_avg_closing combo_years_of_data seats_per_applicant competition_score
feature_infos=[2020:2025] [1:4] -1:0:2:4:1:3:5 -1:135:34:167:212:207:261:284:88:211:392:0:37:216:174:215:57:338:165:226:177:186:163:65:227:91:222:166:218:393:62:75:245:221:64:254:136:160:133:40:69:415:214:179:33:300:361:11:324:16:113:140:176:210:175:288:295:224:285:164:239:236:302:208:134:15:18:234:357:228:12:257:80:83:219:56:365:201:286:169:326:414:9:153:334:60:63:188:360:99:70:59:246:275:427:237:329:81:193:232:19:28:400:244:363:31:84:93:279:58:371:335:22:55:281:301:116:146:180:199:213:267:23:171:202:372:122:282:351:110:173:184:364:242:38:233:283:43:51:204:280:71:238:205:182:273:229:410:413:289:76:379:306:30:138:181:7:82:114:406:1:272:78:148:395:403:249:386:394:98:158:89:197:260:327:178:2:26:61:126:422:52:157:223:411:190:248:387:137:325:27:5:39:10:49:264:266:356:398:319:294:149:290:85:109:253:14:353:265:144:369:241:240:127:194:405:119:303:24:421:4:198:225:276:330:263:318:376:247:90:305:117:251:366:154:195:268:262:104:111:125:183:293:252:425:3:209:162:299:428:155:412:235:53:115:397:417:418:346:420:378:320:419:278:328:345:359:250:102:79:97:343:139:217:355:47:100:321:352:206:13:170:230:401:243:311:332:142:409:42:200:269:45:407:105:191:259:337:384:424:35:44:258:94:399:143:124:271:151:323:341:67:373:168:304:132:391:192:307:220:120:370:385:297:426:296:367:87:123:313:196:389:362:309:331:274:317:368:308:316:349:129:68:354:256:255:429:25:189:187:374:92:95:147:382:66:333:380:291:315:54:375:388:203:108:185:314:342:46:161:112:298:231:350:402:101:310:96:29:336:416:77:292:36:48:381:17:107:128 -1:32:38:71:39:63:0:20:12:105:4:2:17:14:1:23:85:51:41:9:102:3:19:48:91:111:112:70:113:30:5:53:25:60:43:28:24:35:72:58:88:96:55:90:83:80:29:57:109:78:82:21:15:50:27:37:107:100:31:7:66:103:81:87:54:93:95:69:8:98:89:10:6:34:40:36:104:52:56:59:65:84:73:106:13:67:77:97:46:62:75:94:110:18:22:47:114:49:79:68:33:99:76:26:61:44:42:101:108:11:16:64:86:45:92 [13:197601] [13:176743] [-106405:181489] [39.75:197590] [0:97] [0:285] [0:1] [107115:239299] [496:104215] [0.0044735868967196004:0.61850347757083513] [496:89248] [107115:197601] [14.702466118071641:239299] [13.774629237288137:1150956.2046173897] [57.600000000000001:239286] [13069.850111856824:196052.79999999999] [8342.4301675977658:189769.75] [1:20] [0:0.015080990504561499] [0.0033774121940922:0.70963107219218569]
tree_sizes=5421 5714 5727 5778 5730 5713 5779 5757 5715 5718 5858 5738 5772 5818 5715 5721 5750 5710 5888 5902 5721 5764 5761 5775 5838 5757 5840 5740 5952 6266 5813 5769 5832 6175 5879 6426 6155 6205 6799 5817 5810 6048 7037 5862 6090 5874 6297 7071 6564 5783 6619 5875 6487 6726 6803 6241 6498 6452 6601 6669 5892 6661 7146 6184 6624 6568 6618 5808 6624 7114 6836 6754 6855 5920 6669 6813 6540 5828 7268 5907 5937 7291 6503 6301 6325 5824 6380 7051 6494 7288 6536 6753 6455 6710 6905 5949 7309 6640 6996 6544 5856 6590 6330 6683 7025 6707 6973 6889 7090 7002 7205 6518 6796 6801 5796 6789 6966 6267 6619 5978 6595 7074 6931 7311 5915 5772 6188 5915 6168 6863 6373 6852 6663 7027 6635 6830 6806 5942 6760 7097 6437 6602 6531 6683 6320 6439 7191 6852 5965 6762 6303 5827 6406 6900 6297 6531 6459 7231 6609 6330 6400 6633 6177 6775 7340 6502 5853 6608 6563 6829 6890 5889 6555 7196 6516 6129 6190 5835 6981

Tree=0
num_leaves=63
num_cat=0
split_feature=19 19 19 0 0 19 0 19 19 8 19 8 19 22 0 19 0 22 8 17 18 19 0 22 19 19 18 0 19 0 19 0 19 19 18 19 0 22 11 13 19 13 0 13 19 19 20 20 11 17 20 22 19 0 0 17 16 0 19 19 16 19
split_gain=39634.9 7913.94 5355.1 2540.2 1655.55 1521.07 1006.65 863.583 804.83 706.79 455.519 354.602 238.083 210.637 209.135 179.219 161.717 159.075 158.915 157.593 155.441 143.983 116.629 108.815 86.9016 81.6724 69.9041 61.4895 60.7605 56.0817 54.3802 53.6998 50.663 48.3882 67.5818 47.3389 45.9929 45.6809 45.0871 42.224 41.4618 40.0049 39.428 37.5702 35.1898 32.4622 32.2959 30.9835 36.4448 30.2423 29.3686 26.7831 26.7584 25.6792 22.8018 21.9465 21.1464 20.4925 19.9257 19.5757 19.538 19.1672
threshold=38143.833333333336 92365.125000000015 7966.166666666667 2022.5000000000002 2022.5000000000002 20003.050000000003 2020.5000000000002 1483.9000000000003 119496.66666666667 86387.500000000015 59219.825000000004 45855.125000000007 25892.083333333339 8.5000000000000018 2022.5000000000002 3123.416666666667 2022.5000000000002 5.5000000000000009 152595.75000000003 198158.57815432016 56709.200984003008 13526.583333333334 2020.5000000000002 6.5000000000000009 60122.416666666679 80301.500000000015 237.74544838731336 2024.5000000000002 48191.500000000007 2024.5000000000002 13526.583333333334 2024.5000000000002 116139.1666666667 184611.00000000003 113291.24543879948 65569.666666666686 2020.5000000000002 11.500000000000002 0.26425937974409025 6287.0000000000009 4880.5833333333348 13857.000000000002 2020.5000000000002 13857.000000000002 105867.50000000001 30684.000000000004 94891.949724990802 54527.041286195141 0.25384979862591805 226.79457003501153 31308.747896634621 8.5000000000000018 11427.666666666668 2020.5000000000002 2024.5000000000002 1282.5521662941517 187172.50000000003 2021.5000000000002 53439.583333333336 134192.91666666672 133575.50000000003 109160.63333333336
decision_type=2 2 2 2 2 2 2 2 2 10 2 10 2 2 2 2 2 2 8 10 10 2 2 2 2 2 10 2 2 2 2 2 2 2 10 2 2 2 10 2 2 2 2 2 2 2 2 2 8 8 2 2 2 2 2 10 10 2 2 2 10 2
left_child=2 4 7 9 11 6 13 26 18 23 28 17 16 30 52 36 37 24 44 33 56 -16 43 53 -2 46 49 -18 -6 -23 39 -22 -11 34 -10 -13 -9 -7 41 -4 -24 -15 -27 -17 -5 60 58 -43 -49 -1 -51 -33 -8 59 -35 -28 -12 -34 -19 -3 -14 -20
right_child=1 3 5 8 10 12 14 15 19 32 20 35 45 38 21 22 27 25 61 -21 31 29 40 -25 -26 42 55 -29 -30 -31 -32 51 57 54 -36 -37 -38 -39 -40 -41 -42 47 -44 -45 -46 -47 -48 48 -50 50 -52 -53 -54 -55 -56 -57 -58 -59 -60 -61 -62 -63
leaf_value=10.868728170981912 11.167357416011795 11.205445127407994 11.008337259075676 11.217400933275364 11.172747363040786 11.121059126574197 11.08535201486052 10.967771382669083 11.229611739295063 11.214940848087284 11.194095487924399 11.178833475032651 11.139676259472722 10.986374111801384 11.102933866199262 10.994957964055398 11.132495767799183 11.159091719432034 11.201497798192607 11.246225196643616 11.20332546536202 11.122076571628925 11.046623671436262 11.199576438534939 11.191540329392227 11.185131140643424 10.956482334112154 11.151791725665397 11.186857940214754 11.139812570497368 11.094900749111812 11.204506627069643 11.220641425823878 11.23773768720087 11.237652796518418 11.195082205309276 11.02000820305372 11.097644404735352 10.995092006180936 11.068220740509833 11.071039944475338 11.061513242010452 11.166765391116886 11.044729020492628 11.226648051919213 11.154199784159477 11.155958327713988 11.005535546775349 11.081606806138627 10.956671636534109 10.903607466770019 11.216116883419913 11.101476558039906 11.212310725644869 11.247743814018662 10.9906738569748 11.219046449732303 11.227463476607277 11.166122021170697 11.182343671092859 11.152717191124779 11.21218648897065
leaf_weight=21 654 1244 37 2121 1386 746 325 50 5748 1877 3549 679 869 38 783 91 1170 1585 1399 3906 2918 1269 259 11205 860 556 108 638 1697 687 178 665 1851 1873 4791 1319 268 289 115 144 529 102 616 65 1998 1942 2056 74 20 62 45 1963 1235 2506 818 83 87 2716 2768 99 429 599
leaf_count=21 654 1244 37 2121 1386 746 325 50 5748 1877 3549 679 869 38 783 91 1170 1585 1399 3906 2918 1269 259 11205 860 556 108 638 1697 687 178 665 1851 1873 4791 1319 268 289 115 144 529 102 616 65 1998 1942 2056 74 20 62 45 1963 1235 2506 818 83 87 2716 2768 99 429 599
internal_value=11.193 11.2081 11.1118 11.2204 11.1845 11.124 11.1036 11.0257 11.2318 11.208 11.1971 11.1705 11.1408 11.0484 11.1127 11.0443 11.1303 11.1663 11.2163 11.2374 11.2027 11.1211 11.0552 11.2021 11.1811 11.1633 10.9522 11.1393 11.1805 11.1283 11.0753 11.208 11.2219 11.2348 11.2333 11.1896 11.0118 11.1145 11.0207 11.056 11.063 11.0333 11.1755 11.0157 11.2219 11.1501 11.1611 11.0424 11.0217 10.9236 10.9344 11.2132 11.0981 11.2093 11.2408 10.9713 11.1947 11.2247 11.1636 11.2037 11.144 11.2047
internal_weight=80780 68109 12671 44751 23358 11090 5007 1581 23253 21498 12265 11093 6083 708 4299 1262 2843 9095 6117 17136 9182 2739 944 15054 1514 7581 319 1808 3083 1956 359 5546 6444 13230 10539 1998 318 1035 349 181 788 234 1172 156 4119 3240 6409 196 94 128 107 2628 1560 3849 2691 191 3636 4567 4353 1343 1298 1998
internal_count=80780 68109 12671 44751 23358 11090 5007 1581 23253 21498 12265 11093 6083 708 4299 1262 2843 9095 6117 17136 9182 2739 944 15054 1514 7581 319 1808 3083 1956 359 5546 6444 13230 10539 1998 318 1035 349 181 788 234 1172 156 4119 3240 6409 196 94 128 107 2628 1560 3849 2691 191 3636 4567 4353 1343 1298 1998
is_linear=0
shrinkage=1


Tree=1
num_leaves=63
num_cat=0
split_feature=19 19 19 0 19 0 1 1 0 19 1 19 1 19 0 0 19 0 19 18 0 0 0 0 23 19 19 0 19 18 0 13 19 20 1 0 0 19 0 19 19 13 19 21 20 0 17 23 0 1 19 22 1 21 20 22 8 17 15 0 19 6
split_gain=35779.2 6761.72 5057.78 2292.53 1584.22 1493.16 1188.69 1039.96 915.282 779.384 727.046 329.549 306.536 241.372 221.996 211.417 161.745 152.741 145.597 139.974 122.364 111.477 105.258 103.448 99.4252 98.0955 90.8551 80.9491 67.812 63.0885 58.5199 53.0612 52.8562 52.3255 48.2647 113.188 47.8458 43.8331 41.5086 37.4193 37.0837 33.985 30.4496 29.8189 29.8717 28.7419 27.2937 29.1229 25.8138 25.2627 24.3908 21.6884 20.8896 20.8282 21.074 20.0935 20.0651 19.8067 19.1371 23.4081 18.0287 17.7783
threshold=40465.250000000007 92365.125000000015 7966.166666666667 2022.5000000000002 20561.750000000004 2022.5000000000002 3.5000000000000004 2.5000000000000004 2020.5000000000002 1483.9000000000003 2.5000000000000004 62450.375000000007 1.5000000000000002 28308.600000000002 2024.5000000000002 2022.5000000000002 3123.416666666667 2020.5000000000002 15125.333333333334 56709.200984003008 2024.5000000000002 2020.5000000000002 2020.5000000000002 2024.5000000000002 0.00012490202229240003 63072.433333333334 121653.62500000001 2020.5000000000002 115201.75000000001 237.74544838731336 2024.5000000000002 6287.0000000000009 50440.875000000007 56292.92463490212 1.5000000000000002 2022.5000000000002 2024.5000000000002 128025.1666666667 2020.5000000000002 4880.5833333333348 19485.100000000002 25397.500000000004 11427.666666666668 101619.49536327571 67454.603104697671 2023.5000000000002 226.79457003501153 9.0101266877648341e-05 2021.5000000000002 1.5000000000000002 33058.500000000007 6.5000000000000009 3.5000000000000004 92868.23718098375 79014.08473733475 9.5000000000000018 78451.375000000015 1282.5521662941517 5760.0000000000009 2024.5000000000002 11427.666666666668 21540.500000000004
decision_type=2 2 2 2 2 2 2 2 2 2 2 2 2 2 2 2 2 2 2 10 2 2 2 2 2 2 2 2 2 10 2 2 2 2 2 2 2 2 2 2 2 2 2 2 2 2 8 2 2 2 2 2 2 2 2 2 8 10 10 2 2 8
left_child=2 5 9 6 8 7 21 27 12 29 23 32 24 20 26 49 38 -8 42 58 34 -3 41 -5 31 -9 -12 -2 -19 46 61 -4 -7 -33 35 -6 -21 -16 -11 -24 43 -18 -17 53 -45 -28 -1 -48 -30 60 -15 -38 -27 -26 -55 -35 -34 -31 -13 -60 -10 -20
right_child=1 3 4 10 13 11 17 25 15 16 14 19 -14 50 37 18 22 28 30 36 -22 -23 39 -25 40 52 45 -29 48 57 -32 33 56 55 -36 -37 51 -39 -40 -41 -42 -43 -44 44 -46 -47 47 -49 -50 -51 -52 -53 -54 54 -56 -57 -58 -59 59 -61 -62 -63
leaf_value=-0.30786232948303227 -0.046038029381316847 -0.0099032665842731724 -0.18137927478010007 0.0086677174993280183 -0.088920559987015688 -0.015882278777908633 0.015448906005694719 -0.014220497489616858 -0.10207565532337806 -0.21377127504348759 0.028441069875652217 -0.0018883901566051976 -0.069837198758290878 -0.042318861288279989 0.039546016513010977 -0.091275489098567433 -0.18745088948998401 0.020342633436920159 -0.060289717938837854 0.010693492278929901 -0.038753164711797509 0.0030363730956063906 -0.13886160178534313 0.024848789078313435 -0.17673078642951118 -0.0020802703350220764 0.036436306965408748 -0.032157760335695708 0.026298663941378111 -0.22449587429011308 -0.046255260020729133 -0.11828711337715614 -0.0010114378690130527 -0.13787842631340028 -0.053162783963128561 -0.058596695224482069 0.0092288570623100478 0.050231865621700705 -0.16414628918491192 -0.11566613989200845 -0.12141661906242372 -0.13988844156265259 -0.074480493299927938 -0.19172306855519614 -0.11283535013596219 0.041790528145923551 -0.22655214479991367 -0.28139618087459256 0.032542996417345531 -0.070388353601578746 -0.03342309379570458 0.022271965063164475 0.0065469901275544088 -0.24336415181557336 -0.19063274770975114 -0.19328449848625395 -0.014808353036343576 -0.19201392323137767 0.00398103696152435 0.024934168826017913 -0.088723935185596917 -0.072972216324859798
leaf_weight=21 1396 2349 55 1765 436 1374 4059 1723 322 50 2406 1567 144 1293 1157 463 93 2683 729 2748 749 5712 259 2243 63 2427 4757 4243 2994 108 635 262 1696 30 968 1046 376 5627 268 529 25 63 647 24 24 5298 70 37 3701 155 1907 2092 987 36 40 36 312 83 1651 145 1177 445
leaf_count=21 1396 2349 55 1765 436 1374 4059 1723 322 50 2406 1567 144 1293 1157 463 93 2683 729 2748 749 5712 259 2243 63 2427 4757 4243 2994 108 635 262 1696 30 968 1046 376 5627 268 529 25 63 647 24 24 5298 70 37 3701 155 1907 2092 987 36 40 36 312 83 1651 145 1177 445
internal_value=0.000166296 0.0149341 -0.0748147 0.0262151 -0.0634823 -0.00726936 0.0144454 -0.0207687 -0.0836663 -0.158758 0.0370966 0.00489256 -0.135296 -0.0467269 0.0411313 -0.075323 -0.141108 0.0235519 -0.0672303 0.0101035 -0.0564393 -0.000734277 -0.130719 0.0177231 -0.151138 -0.00449462 0.037169 -0.035594 0.027059 -0.228583 -0.0584831 -0.135931 -0.0083258 -0.12831 -0.0618462 -0.0675179 0.0152317 0.0484094 -0.171949 -0.12329 -0.17861 -0.168243 -0.081486 -0.186256 -0.152279 0.0392575 -0.255745 -0.245517 0.0297505 -0.089605 -0.0370175 0.0202848 0.000413903 -0.197989 -0.215611 -0.1681 -0.00315518 -0.210381 0.00214958 0.00567269 -0.091592 -0.065097
internal_weight=80780 67488 13292 44751 11711 22737 21498 10776 5312 1581 23253 11961 739 6399 19245 4573 1262 13437 2919 8579 3199 8061 944 4008 595 5137 12461 5639 9378 319 1809 383 3382 328 2450 1482 5216 6784 318 788 212 156 1110 187 48 10055 128 107 6695 1654 3200 2468 3414 139 76 66 2008 191 3363 1796 1499 1174
internal_count=80780 67488 13292 44751 11711 22737 21498 10776 5312 1581 23253 11961 739 6399 19245 4573 1262 13437 2919 8579 3199 8061 944 4008 595 5137 12461 5639 9378 319 1809 383 3382 328 2450 1482 5216 6784 318 788 212 156 1110 187 48 10055 128 107 6695 1654 3200 2468 3414 139 76 66 2008 191 3363 1796 1499 1174
is_linear=0
shrinkage=0.05


Tree=2
num_leaves=63
num_cat=0
split_feature=19 19 19 0 19 0 1 1 0 19 19 19 1 19 0 19 0 6 19 17 0 0 0 0 23 19 0 19 17 7 0 14 20 19 1 0 1 0 8 0 0 19 19 14 19 1 15 23 16 1 19 20 0 22 22 17 19 8 19 19 6 19
split_gain=32290.7 6105.6 4564.65 2066.79 1429.76 1342.72 1087.22 884.112 826.042 713.491 703.394 287.624 276.649 217.839 190.804 145.975 139.638 139.571 131.401 129.994 123.152 110.434 101.414 94.9954 89.7312 82.1731 72.7272 64.3666 56.7824 55.4503 52.8142 47.8878 47.2238 44.0292 43.5589 102.152 43.5557 53.8362 39.4428 37.4615 36.5905 33.7709 33.468 30.6819 27.4808 27.0085 26.3443 27.4509 25.3207 22.7996 22.5494 21.4821 21.4007 18.8039 18.1343 18.0829 17.9368 16.6097 16.2709 16.144 16.0449 14.9565
threshold=40465.250000000007 90664.833333333358 7966.166666666667 2022.5000000000002 20561.750000000004 2022.5000000000002 3.5000000000000004 2.5000000000000004 2020.5000000000002 119496.66666666667 1483.9000000000003 61721.600000000006 1.5000000000000002 28308.600000000002 2022.5000000000002 3123.416666666667 2020.5000000000002 9057.0000000000018 15125.333333333334 198158.57815432016 2024.5000000000002 2024.5000000000002 2020.5000000000002 2020.5000000000002 0.00012490202229240003 62450.375000000007 2020.5000000000002 117094.00000000001 226.79457003501153 89578.500000000015 2024.5000000000002 0.057677388612147558 56292.92463490212 49387.833333333336 1.5000000000000002 2022.5000000000002 2.5000000000000004 2023.5000000000002 84253.250000000015 2020.5000000000002 2024.5000000000002 4880.5833333333348 19485.100000000002 0.1376521041408437 11427.666666666668 2.5000000000000004 6287.0000000000009 9.0101266877648341e-05 133575.50000000003 1.5000000000000002 211744.50000000003 75126.059359263774 2021.5000000000002 12.500000000000002 9.5000000000000018 1282.5521662941517 33058.500000000007 78451.375000000015 11427.666666666668 104762.83333333333 21540.500000000004 70717.10000000002
decision_type=2 2 2 2 2 2 2 2 2 2 2 2 2 2 2 2 2 10 2 10 2 2 2 2 2 2 2 2 10 8 2 2 2 2 2 2 2 2 8 2 2 2 2 2 2 2 10 2 10 2 2 2 2 2 2 10 2 8 2 2 8 2
left_child=2 5 10 6 8 7 22 26 12 17 28 33 24 21 49 39 -8 40 44 36 29 34 -3 43 31 -9 -2 -18 46 -13 60 -4 -33 -7 35 -6 -11 -38 61 -12 45 -25 51 -17 -16 -5 47 -1 56 58 -39 53 -29 -26 -34 -30 -15 -35 -10 -19 -20 -22
right_child=1 3 4 9 13 11 16 25 14 19 15 20 -14 48 18 23 27 59 30 -21 38 -23 -24 41 42 -27 -28 52 55 -31 -32 32 54 57 -36 -37 37 50 -40 -41 -42 -43 -44 -45 -46 -47 -48 -49 -50 -51 -52 -53 -54 -55 -56 -57 -58 -59 -60 -61 -62 -63
leaf_value=-0.21380988920436189 -0.043736127806683289 -0.0094314345973349478 -0.17231031764637342 0.0078674664149467055 -0.084474530501650019 -0.015759088666826831 0.01460121408197792 -0.013837576107396853 -0.096971873170840828 0.025785321523660948 -0.2030827145576477 0.0096371295744033317 -0.066345338585476074 -0.04364417403982742 -0.086711716349387527 -0.17857147599314596 0.019847657693530352 0.024892447523032928 -0.0572752308657467 0.048285867502864954 0.014139658649358714 -0.036815505276853157 0.0027887971616415985 -0.13191851897589488 -0.21460446130995658 -0.00010020368948429311 -0.030572698855497078 0.02529267242479661 -0.21338759179509015 -0.00034753925808795509 -0.043942496504370626 -0.11237275634558147 -0.13098450263341269 -0.0018079255123441022 -0.050504644869341836 -0.055666860032036018 0.0344799768268607 0.040449017249753499 0.0020532234109715323 -0.15593897998332978 0.021373877514462861 -0.10988283229460112 -0.11534578728675843 -0.13359391918549171 -0.070756466774244034 0.020723078992767298 -0.29284217466007578 -0.26732638429951028 -0.028462639060499936 -0.066868936823260394 0.050993445903171987 -0.1609655373024218 0.031185790205921066 -0.16778249788928679 -0.18362027307351431 -0.18241323175200497 -0.034465927041242926 -0.014558161026740174 -0.084287738399983672 0.032415474043851387 -0.069323602874627285 0.022609872088984424
leaf_weight=68 1396 2396 55 1880 436 1235 4128 1643 322 702 50 2953 144 884 463 91 3189 1308 729 3906 751 749 5826 259 51 3226 4225 2763 109 2628 635 262 30 1687 968 1046 4879 7103 349 268 1193 529 25 65 647 522 22 37 978 155 546 99 3482 37 36 83 1338 301 1177 1568 445 1703
leaf_count=68 1396 2396 55 1880 436 1235 4128 1643 322 702 50 2953 144 884 463 91 3189 1308 729 3906 751 749 5826 259 51 3226 4225 2763 109 2628 635 262 30 1687 968 1046 4879 7103 349 268 1193 529 25 65 647 522 22 37 978 155 546 99 3482 37 36 83 1338 301 1177 1568 445 1703
internal_value=0.000157981 0.0141874 -0.071074 0.0246804 -0.0603082 -0.0073672 0.0135737 -0.0203321 -0.079483 0.0349295 -0.15082 0.00435002 -0.128531 -0.0443905 -0.0715568 -0.134053 0.0222711 0.0207841 -0.0638688 0.0402711 0.0092301 -0.0536173 -0.000772341 -0.124183 -0.143581 -0.00473576 -0.0338419 0.0256272 -0.217154 0.00493552 -0.0555589 -0.129135 -0.121895 -0.00834454 -0.0587538 -0.064142 0.0379048 0.0385839 0.017781 -0.163352 0.0142162 -0.117126 -0.169679 -0.159831 -0.0774117 0.0106612 -0.243092 -0.232668 -0.0351667 -0.0851247 0.0412017 -0.176943 0.0285785 -0.194918 -0.159695 -0.199998 -0.0381174 -0.00373842 -0.0870124 0.028994 -0.0618421 0.0200177
internal_weight=80780 67488 13292 45391 11711 22097 21784 10490 5312 23607 1581 11607 739 6399 4573 1262 13562 6471 2919 17136 8384 3199 8222 944 595 4869 5621 9434 319 5581 1809 383 328 3223 2450 1482 13230 12528 2803 318 3595 788 212 156 1110 2402 127 105 3200 1654 7649 187 6245 88 66 192 2222 1988 1499 2876 1174 2454
internal_count=80780 67488 13292 45391 11711 22097 21784 10490 5312 23607 1581 11607 739 6399 4573 1262 13562 6471 2919 17136 8384 3199 8222 944 595 4869 5621 9434 319 5581 1809 383 328 3223 2450 1482 13230 12528 2803 318 3595 788 212 156 1110 2402 127 105 3200 1654 7649 187 6245 88 66 192 2222 1988 1499 2876 1174 2454
is_linear=0
shrinkage=0.05


Tree=3
num_leaves=63
num_cat=1
split_feature=19 19 19 0 0 19 0 19 19 8 19 8 19 11 0 19 17 16 8 0 19 0 19 19 18 7 13 0 19 2 0 8 8 0 19 0 19 19 19 19 19 0 13 6 0 11 0 19 16 19 8 17 20 19 16 13 11 19 11 19 19 0
split_gain=29147.6 5822.41 3934.92 1867.05 1205.69 1120.35 741.375 669.245 634.813 533.03 320.547 242.469 174.87 154.463 153.445 131.743 129.591 122.077 120.826 110.27 107.477 85.7333 80.236 58.32 51.5396 49.7892 46.0398 42.0953 41.0734 37.1361 35.9264 34.9924 34.3272 63.9157 70.2022 33.809 33.1471 32.4622 32.3681 30.7626 29.6362 27.9447 27.7568 26.8718 26.109 25.619 24.8972 24.8014 24.2866 22.3705 24.1157 22.1787 22.2253 21.8753 20.2279 19.9876 40.2329 19.7159 18.657 25.3046 18.5557 18.4412
threshold=38143.833333333336 89934.250000000015 7966.166666666667 2022.5000000000002 2022.5000000000002 20003.050000000003 2020.5000000000002 117094.00000000001 1483.9000000000003 86387.500000000015 56854.875000000007 45855.125000000007 25892.083333333339 0.20761973875181425 2022.5000000000002 3123.416666666667 145717.29005360688 133575.50000000003 147996.15625000003 2024.5000000000002 15125.333333333334 2020.5000000000002 76403.933333333349 193311.08333333334 237.74544838731336 89578.500000000015 6287.0000000000009 2024.5000000000002 111447.00000000001 0 2024.5000000000002 84253.250000000015 70316.031250000015 2020.5000000000002 134192.91666666672 2020.5000000000002 46077.083333333336 65569.666666666686 13526.583333333334 6579.2500000000009 66838.166666666672 2022.5000000000002 25397.500000000004 9057.0000000000018 2020.5000000000002 0.029631255487269501 2024.5000000000002 11427.666666666668 133575.50000000003 137976.90000000002 118412.75000000001 226.79457003501153 31308.747896634621 30684.000000000004 108994.00000000001 52252.000000000007 0.26870335820895525 11427.666666666668 0.023952954675846204 53439.583333333336 70151.916666666686 2021.5000000000002
decision_type=2 2 2 2 2 2 2 2 2 10 2 10 2 10 2 2 10 10 8 2 2 2 2 2 10 8 2 2 2 1 2 8 8 2 2 2 2 2 2 2 2 2 2 10 2 10 2 2 10 2 8 8 2 2 10 2 10 2 10 2 2 2
left_child=2 4 8 9 11 6 13 18 24 32 36 22 17 26 57 35 23 41 43 25 47 42 58 49 51 60 38 -22 -11 -24 -18 40 -3 34 -34 -10 -6 -13 -4 -23 -21 45 -17 -5 -31 -7 -19 -16 53 50 -9 -1 -53 -14 -35 -15 -57 -8 59 -2 -12 -30
right_child=1 3 5 7 10 12 14 16 15 28 19 37 48 55 20 21 30 46 -20 31 27 39 29 -25 -26 -27 -28 -29 61 44 -32 -33 33 54 -36 -37 -38 -39 -40 -41 -42 -43 -44 -45 -46 -47 -48 -49 -50 -51 -52 52 -54 -55 -56 56 -58 -59 -60 -61 -62 -63
leaf_value=-0.27782709995905558 -0.026943167372425633 0.002752456906748663 -0.17205868337465369 0.018279461086865584 -0.018698925754958563 -0.060032693308623722 -0.092145817463214597 0.03220954306138555 -0.19292857956886292 0.016343291675366033 0.0035683515116993838 -0.012081513242778067 -0.045706918324645018 -0.18616418490043055 -0.082376127636973343 -0.16919813963674732 0.038567710008093538 -0.047558717034583871 0.0086988665098768261 0.0081450369358055507 -0.059287323878908706 -0.11840164501464506 -0.0021971793197419331 0.042920051345909996 -0.18984402742685449 -0.0011022359161743502 -0.10349142513827447 -0.042455239760418012 0.023202678064788512 -0.010207256553959751 0.045093364098489075 0.00077183101206030019 0.0074100474596540252 0.011764751963941064 -0.0082033745376992959 -0.14814203670665402 -0.0073404608336650017 0.0016925755666175554 -0.11306003243365187 -0.097585622028068267 0.020461929964096754 -0.054072794206894752 -0.1262143231573559 0.026688724302150964 -0.024222578004560735 -0.075821559451803383 -0.032751023992749123 -0.067218644827189741 -0.030143130803196663 0.034167916888741226 0.022877200245134521 -0.20221258728734909 -0.24837447881698607 -0.035561054357720626 0.022919307314880094 -0.095376642704010015 -0.16716398509700647 -0.078304882734893305 -0.026889500265624824 -0.010751797463277668 0.011183963202652513 0.029186733251150981
leaf_weight=21 519 2798 46 1479 1088 561 325 1777 50 1163 1372 679 869 65 463 93 3640 645 1995 643 1056 518 496 1462 191 2756 436 573 2192 562 5015 354 5749 5639 823 268 1568 1156 47 270 2031 656 63 2656 813 474 507 647 1004 4630 1134 62 45 1367 438 25 89 1235 5993 451 1918 3120
leaf_count=21 519 2798 46 1479 1088 561 325 1777 50 1163 1372 679 869 65 463 93 3640 645 1995 643 1056 518 496 1462 191 2756 436 573 2192 562 5015 354 5749 5639 823 268 1568 1156 47 270 2031 656 63 2656 813 474 507 647 1004 4630 1134 62 45 1367 438 25 89 1235 5993 451 1918 3120
internal_value=0.000150082 0.0131047 -0.0694832 0.0233382 -0.00777919 -0.0589627 -0.0764794 0.0330389 -0.143279 0.0128118 0.00328416 -0.0199428 -0.0445446 -0.123889 -0.0686715 -0.12735 0.0379803 -0.0535947 0.018805 0.00775595 -0.0615425 -0.117974 -0.0233781 0.0337805 -0.206297 0.00385525 -0.110304 -0.0533666 0.0248541 -0.0141856 0.0423489 0.0155445 0.007764 0.00887257 0.00545481 -0.155184 -0.0119933 -0.00340421 -0.142242 -0.111269 0.0175002 -0.0621464 -0.151839 0.0236809 -0.0183606 -0.0672635 -0.0410418 -0.0735411 -0.0366034 0.0320086 0.0285741 -0.230847 -0.221626 -0.0395041 0.0125687 -0.164037 -0.151421 -0.0811884 -0.0258482 -0.019415 0.00800809 0.0267174
internal_weight=80780 68109 12671 45710 22399 11090 5007 23788 1581 21922 11730 10669 6083 708 4299 1262 17658 2843 6130 9074 2739 944 8834 9003 319 6046 529 1629 6475 1871 8655 3028 15447 12649 6572 318 2656 1835 93 788 2674 1691 156 4135 1375 1035 1152 1110 3240 7541 2911 128 107 2236 6077 179 114 1560 6963 970 3290 5312
internal_count=80780 68109 12671 45710 22399 11090 5007 23788 1581 21922 11730 10669 6083 708 4299 1262 17658 2843 6130 9074 2739 944 8834 9003 319 6046 529 1629 6475 1871 8655 3028 15447 12649 6572 318 2656 1835 93 788 2674 1691 156 4135 1375 1035 1152 1110 3240 7541 2911 128 107 2236 6077 179 114 1560 6963 970 3290 5312
cat_boundaries=0 1
cat_threshold=42
is_linear=0
shrinkage=0.05


Tree=4
num_leaves=63
num_cat=0
split_feature=1 1 0 0 0 5 1 22 0 0 5 0 11 0 0 20 13 0 10 5 20 0 18 18 11 11 20 6 18 11 20 5 11 0 5 18 5 21 18 10 22 11 0 13 20 20 13 21 6 5 13 20 22 22 20 5 13 18 0 20 20 18
split_gain=24160.6 5241.56 3131.82 2925.75 1856.29 1418.65 1308.7 472.746 424.485 368.17 221.405 207.2 177.112 164.1 144.707 138.781 109.899 109.446 106.725 80.2876 77.8872 68.0017 67.5097 63.4123 62.2047 62.1265 54.0504 51.1413 46.4399 44.5972 44.3742 42.5152 32.1713 31.9566 27.4781 24.204 24.0938 23.8744 21.9916 21.0299 21.8764 20.4682 20.416 19.6936 19.6228 18.324 18.0619 17.521 16.6117 16.3367 15.0562 22.6872 21.2335 13.6518 13.4325 13.2061 12.8253 12.4114 11.8827 11.5375 11.4103 10.6182
threshold=1.5000000000000002 2.5000000000000004 2022.5000000000002 2022.5000000000002 2020.5000000000002 6447.0000000000009 3.5000000000000004 6.5000000000000009 2022.5000000000002 2024.5000000000002 2083.5000000000005 2024.5000000000002 1.0000000180025095e-35 2024.5000000000002 2020.5000000000002 79014.08473733475 13857.000000000002 2020.5000000000002 1.0000000180025095e-35 67152.500000000015 51940.380647445934 2020.5000000000002 88241.399405927543 153371.23862279276 0.037855266300453758 0.029631255487269501 73124.483228181911 322.00000000000006 19505.039141838581 1.0000000180025095e-35 106871.18463898719 13178.000000000002 0.19526212503504348 2021.5000000000002 3390.5000000000005 41739.234902557648 70668.500000000015 94847.808118063753 65070.571092342703 3.5000000000000004 7.5000000000000009 0.32529069767441865 2024.5000000000002 10989.500000000002 110272.72292823171 34127.508728859801 9224.0000000000018 26908.91567352835 1352.5000000000002 1084.0000000000002 52252.000000000007 64970.447348636735 15.500000000000002 6.5000000000000009 77843.650622881978 31729.500000000004 9224.0000000000018 11474.777704896433 2023.5000000000002 87218.436814308676 79014.08473733475 56709.200984003008
decision_type=2 2 2 2 2 8 2 2 2 2 10 2 8 2 2 2 2 2 2 10 2 2 8 10 10 8 2 8 10 8 2 10 8 2 10 8 10 2 8 2 2 8 2 2 2 2 2 2 8 10 2 2 2 2 2 10 2 8 2 2 2 10
left_child=4 2 21 6 16 7 17 10 53 12 18 23 38 31 -8 22 25 -3 27 26 32 -2 61 30 28 37 35 -6 57 -23 -5 45 -18 -16 -12 -14 59 39 -4 47 -41 -34 -9 -17 -13 -10 -28 -1 -29 -20 51 -22 -52 -7 -55 -31 -32 -15 -48 -19 -26 -11
right_child=1 3 9 11 5 8 14 42 13 15 34 44 19 24 33 43 20 36 49 -21 50 29 -24 -25 60 -27 46 48 -30 55 56 -33 41 -35 -36 -37 -38 -39 -40 40 -42 -43 -44 -45 -46 -47 58 -49 -50 -51 52 -53 -54 54 -56 -57 -58 -59 -60 -61 -62 -63
leaf_value=-0.1968158554463203 -0.041958333582942167 -0.0098723837883036031 -0.031856336338660536 0.023751668633264666 -0.2309956741333008 -0.088443553495921215 0.012113748147377534 -0.070841422695267817 -0.075498748665688023 -0.017953162526806992 -0.13050610674252303 0.037059645509172331 -0.020459229773189539 -0.080258813575662752 0.019693937723730345 0.0076606257134537213 -0.09850090810138247 -0.004034614797802559 -0.093777292010919111 0.0079201016980496204 -0.21139779034115019 -0.04232439818232351 0.010154410040400134 0.035892209186964896 -0.030670520206437499 -0.19064703588132506 -0.0063374092489850709 -0.18378498701705148 -0.041720144868777273 -0.031728929027314792 0.026316099723986491 -0.052080810023356551 -0.17695766657590867 0.02543626330903619 -0.10616380895757788 -0.0070940630153109481 0.0053432219159620159 -0.17486523890069552 -0.0096022108096649201 -0.10925663603495246 -0.16827981084585192 -0.12247929606437685 -0.035598809065970974 0.018672626143150683 0.04303424303427783 -0.061944957535850442 -0.0012123075354056069 -0.13934785061412389 -0.15833175936073224 -0.13947278645730787 -0.13241989840018123 -0.15088185819528871 -0.17336288928985596 -0.074327537093879278 -0.084856451889731288 -0.026382958015321173 0.032145686196749949 -0.059807784895639163 0.0040860866725235317 0.0003741806754500661 -0.039541237809054268 -0.0056849770517925727
leaf_weight=21 2159 3880 522 3325 35 371 4772 327 298 274 159 1904 452 99 4562 449 184 2256 53 2223 21 827 893 4025 685 135 1051 97 474 3184 1180 1213 20 5167 428 1352 1835 56 141 73 20 125 47 4240 4940 1528 2578 36 189 31 152 59 40 958 443 1813 4707 296 1795 4336 770 495
leaf_count=21 2159 3880 522 3325 35 371 4772 327 298 274 159 1904 452 99 4562 449 184 2256 53 2223 21 827 893 4025 685 135 1051 97 474 3184 1180 1213 20 5167 428 1352 1835 56 141 73 20 125 47 4240 4940 1528 2578 36 189 31 152 59 40 958 443 1813 4707 296 1795 4336 770 495
internal_value=0.000142564 0.0100913 -0.00867834 0.0198779 -0.0750153 -0.0676358 0.00906819 -0.114317 -0.0586986 0.00378254 -0.132378 0.0343087 -0.00214225 -0.0516884 0.0192456 0.0132178 -0.141611 -0.00292351 -0.160816 -0.000389777 -0.128747 -0.034379 0.000803043 0.0306567 -0.0416868 -0.164284 -0.00294551 -0.173946 -0.0522717 -0.0315693 0.0283692 -0.0593368 -0.112381 0.0227436 -0.112757 -0.0104428 0.000275919 -0.147007 -0.0271236 -0.136607 -0.12195 -0.129994 -0.0664125 0.0176182 0.0413721 -0.0641569 -0.000451958 -0.16052 -0.166964 -0.110641 -0.148543 -0.166767 -0.14095 -0.0799152 -0.0776568 -0.0297893 0.0309772 -0.0649335 0.000962542 -0.00113465 -0.035365 -0.0100562
internal_weight=80780 71337 24448 46889 9443 8501 26808 1366 7135 16465 992 20081 10114 5363 14501 6351 942 12307 405 9451 601 7983 1662 13237 2324 341 7228 321 869 5824 9212 3039 329 9729 587 1804 8427 206 663 150 93 145 374 4689 6844 1826 5424 57 286 84 272 80 192 1772 1401 4997 5887 395 4373 6592 1455 769
internal_count=80780 71337 24448 46889 9443 8501 26808 1366 7135 16465 992 20081 10114 5363 14501 6351 942 12307 405 9451 601 7983 1662 13237 2324 341 7228 321 869 5824 9212 3039 329 9729 587 1804 8427 206 663 150 93 145 374 4689 6844 1826 5424 57 286 84 272 80 192 1772 1401 4997 5887 395 4373 6592 1455 769
is_linear=0
shrinkage=0.05


Tree=5
num_leaves=63
num_cat=0
split_feature=19 19 19 0 19 0 1 1 19 0 19 1 19 0 19 7 19 0 8 17 19 0 0 19 22 19 0 0 19 19 0 13 17 0 19 0 19 10 19 1 1 0 18 19 19 17 0 13 8 13 22 19 8 11 1 7 5 19 8 0 22 19
split_gain=24052.6 4391.44 3487.58 1524.18 992.133 987.411 830.989 764.29 650.884 595.326 426.408 271.19 208.11 186.85 128.25 105.674 105.668 94.0883 92.974 92.7435 84.9831 78.4602 72.2406 70.6855 64.5234 88.3065 60.9984 52.8677 50.792 47.8933 47.6879 42.6102 39.73 39.0588 36.6493 33.3131 29.1992 28.0508 29.8181 26.8008 25.6098 35.9686 22.9203 22.2908 22.0833 20.7649 20.3318 20.2088 20.0525 19.5923 19.5449 18.1537 21.3662 17.7423 16.437 15.8515 15.7489 15.3488 14.8197 14.8097 14.5777 21.4722
threshold=41551.250000000007 94650.500000000015 9085.5000000000018 2022.5000000000002 22039.100000000002 2022.5000000000002 3.5000000000000004 2.5000000000000004 3123.416666666667 2020.5000000000002 121286.66666666667 1.5000000000000002 62450.375000000007 2022.5000000000002 1483.9000000000003 inf 30684.000000000004 2020.5000000000002 153811.71875000003 186779.56114428039 15125.333333333334 2020.5000000000002 2020.5000000000002 64956.250000000007 8.5000000000000018 19485.100000000002 2020.5000000000002 2024.5000000000002 119018.80000000002 6579.2500000000009 2024.5000000000002 13857.000000000002 1282.5521662941517 2024.5000000000002 205061.00000000003 2020.5000000000002 51409.416666666679 8.5000000000000018 18167.983333333337 1.5000000000000002 1.5000000000000002 2022.5000000000002 237.74544838731336 105867.50000000001 79576.750000000015 108368.09705316565 2021.5000000000002 13857.000000000002 22356.875000000004 25397.500000000004 10.500000000000002 165078.50000000003 90116.875000000015 0.063164893617021267 3.5000000000000004 20901.000000000004 77124.500000000015 82313.625000000015 78451.375000000015 2021.5000000000002 12.500000000000002 17539.666666666668
decision_type=2 2 2 2 2 2 2 2 2 2 2 2 2 2 2 8 2 2 8 10 2 2 2 2 2 2 2 2 2 2 2 2 10 2 2 2 2 2 2 2 2 2 8 2 2 10 2 2 8 2 2 2 8 10 2 8 8 2 8 2 2 2
left_child=2 5 8 6 9 7 22 26 14 11 18 24 36 39 32 33 30 -8 43 34 -15 49 -3 -9 31 37 -2 55 -19 -23 40 -4 42 57 45 -16 -7 38 -26 -11 41 -6 -1 -5 -17 51 -18 -39 -29 -10 -49 52 -12 -44 -25 -22 -46 -14 -38 -30 -52 -62
right_child=1 3 4 10 16 12 17 23 21 13 19 -13 15 20 35 44 46 28 -20 -21 27 29 -24 54 25 -27 -28 48 59 -31 -32 -33 -34 -35 -36 -37 58 47 -40 -41 -42 -43 53 -45 56 -47 -48 50 -50 -51 60 -53 -54 -55 -56 -57 -58 -59 -60 -61 61 -63
leaf_value=-0.23851975161453776 -0.038368352955505641 -0.0083706203852196553 -0.12374899363985248 0.019323587964376918 -0.070086087222304638 -0.012108440238500887 0.013133317477012896 -0.010800636512360653 -0.14352952434879837 -0.073190886190443324 0.031020971046560576 -0.054771736428965281 0.0073105769096193044 -0.063795373189607776 -0.17966062925299819 -0.0023082921074620674 -0.034333473840280133 0.017581817677202804 0.010112510521805458 0.039857228899172564 -0.047549506264109899 -0.10744555272396952 0.0021951810626119933 -0.0011110663197877585 -0.14404574607809384 -0.089393079571607637 -0.026190091881548163 -0.033658046572618283 0.022339997272590333 -0.086070078073763379 -0.030768629423065481 -0.078884948925538503 -0.15560783534855038 0.017998645940670934 0.042731398411772474 -0.13471659243106843 -0.00043665875449326813 -0.19273109330850491 -0.075788306444883352 -0.055468439757823944 -0.04077574624191254 -0.046703929330555269 -0.18542369059337083 0.026777853108632611 0.01012198292609775 0.034307233493303627 -0.025396705594647712 -0.10765251465465711 -0.058370299556333084 -0.11247343304513516 -0.1818027250988539 0.032832734268530332 0.023601579101683364 -0.22686034878094993 0.0060791390130864875 -0.057667911535862731 0.0015900343995200522 0.015556034212266985 -0.012649217735245633 0.027395289712703188 -0.16311087691783907 -0.11697640724872288
leaf_weight=29 1367 2283 102 1788 209 1337 3916 1844 122 1650 1992 199 2338 978 49 1652 964 3492 1901 5891 936 539 5552 2448 48 82 4149 762 2568 510 709 110 77 2221 748 260 1545 34 24 245 1191 772 186 2284 966 3587 1873 23 92 87 43 2556 1892 30 1177 660 1229 744 296 3324 75 38
leaf_count=29 1367 2283 102 1788 209 1337 3916 1844 122 1650 1992 199 2338 978 49 1652 964 3492 1901 5891 936 539 5552 2448 48 82 4149 762 2568 510 709 110 77 2221 748 260 1545 34 24 245 1191 772 186 2284 966 3587 1873 23 92 87 43 2556 1892 30 1177 660 1229 744 296 3324 75 38
internal_value=2.25744e-05 0.0123544 -0.0603293 0.02169 -0.0502468 -0.00517487 0.0120338 -0.0160759 -0.123413 -0.0642712 0.0307048 -0.105125 0.00453859 -0.0583001 -0.164854 0.00836716 -0.0352829 0.0196434 0.0192424 0.0348128 -0.051335 -0.102627 -0.000883533 -0.0028307 -0.122432 -0.135118 -0.0292082 -0.0463611 0.0223601 -0.0970533 -0.0420279 -0.10047 -0.186936 0.0129438 0.0320549 -0.141844 -0.00648452 -0.148273 -0.121293 -0.0708996 -0.0457032 -0.0516854 -0.196782 0.0235047 0.00205841 0.0312584 -0.0284334 -0.157393 -0.0363203 -0.130602 -0.150681 0.0295603 0.0274068 -0.191179 0.00122352 -0.0517338 0.00534487 0.00930104 -0.00240022 0.025192 -0.157025 -0.147597
internal_weight=80795 67087 13708 43774 11819 23313 21135 10985 1889 6101 22639 778 12328 5323 631 9150 5718 13300 5973 16666 3428 1258 7835 5469 579 367 5516 2450 9384 1049 2881 212 322 5303 10775 309 3178 285 72 1895 2172 981 245 4072 3847 10027 2837 213 854 209 179 6440 3884 216 3625 1596 2195 3082 1841 5892 156 113
internal_count=80795 67087 13708 43774 11819 23313 21135 10985 1889 6101 22639 778 12328 5323 631 9150 5718 13300 5973 16666 3428 1258 7835 5469 579 367 5516 2450 9384 1049 2881 212 322 5303 10775 309 3178 285 72 1895 2172 981 245 4072 3847 10027 2837 213 854 209 179 6440 3884 216 3625 1596 2195 3082 1841 5892 156 113
is_linear=0
shrinkage=0.05


Tree=6
num_leaves=63
num_cat=1
split_feature=19 19 19 0 19 0 19 0 8 19 5 19 0 19 19 23 6 19 16 6 19 0 19 19 0 16 19 0 17 19 15 0 19 19 6 8 0 19 20 19 11 20 19 19 0 13 20 19 20 16 20 13 8 19 16 6 5 19 11 2 20 19
split_gain=21707.5 3964.04 3147.54 1383.53 895.4 887.924 587.422 537.281 376.715 362.083 199.698 189.888 168.632 120.143 115.746 111.39 98.3011 95.5819 85.9736 80.1135 76.6973 70.8103 56.4826 52.7823 47.7131 43.2611 43.2237 36.4054 35.8564 35.6987 31.3268 30.0651 29.7113 29.0414 27.8199 27.1914 47.4484 56.4221 26.4468 26.3522 24.8415 23.9191 23.8222 20.3162 20.2412 19.5738 20.1368 19.4093 19.077 19.0378 18.4631 18.142 18.0974 17.6431 21.0466 16.4265 15.5549 14.75 13.873 13.8456 17.5586 14.5035
threshold=41551.250000000007 95435.833333333358 9085.5000000000018 2022.5000000000002 22039.100000000002 2022.5000000000002 3123.416666666667 2020.5000000000002 86387.500000000015 121286.66666666667 45450.000000000007 62450.375000000007 2022.5000000000002 83729.800000000017 1483.9000000000003 0.00016264791036155004 99941.500000000015 29412.900000000005 187172.50000000003 9057.0000000000018 15125.333333333334 2020.5000000000002 19485.100000000002 18639.166666666668 2024.5000000000002 133575.50000000003 6579.2500000000009 2024.5000000000002 1282.5521662941517 189474.66666666669 587.00000000000011 2020.5000000000002 69124.916666666672 119018.80000000002 322.00000000000006 70316.031250000015 2020.5000000000002 134192.91666666672 45290.432598518273 51409.416666666679 0.023952954675846204 61918.079712112994 60122.416666666679 79576.750000000015 2024.5000000000002 6287.0000000000009 56292.92463490212 155841.16666666672 69935.928643069303 133575.50000000003 31308.747896634621 13857.000000000002 22356.875000000004 157167.37500000003 108994.00000000001 20490.500000000004 85546.000000000015 82313.625000000015 0.29981273408239706 0 94891.949724990802 61721.600000000006
decision_type=2 2 2 2 2 2 2 2 10 2 10 2 2 2 2 2 8 2 10 10 2 2 2 2 2 10 2 2 10 2 10 2 2 2 8 8 2 2 2 2 10 2 2 2 2 2 2 2 2 10 2 2 8 2 8 8 8 2 10 1 2 2
left_child=2 5 6 8 7 10 14 15 35 19 13 39 -9 40 28 23 27 25 29 44 -14 38 41 45 55 -6 -23 57 34 30 47 -16 -12 -10 -1 -3 37 -37 51 -7 42 -17 -2 -18 -5 -4 -47 -11 -48 -19 -36 -8 -26 54 -38 -22 -45 -13 -43 61 -61 -42
right_child=1 3 4 9 17 11 21 12 33 18 32 16 20 -15 31 22 43 49 -20 -21 24 26 -24 -25 52 -27 -28 -29 -30 -31 -32 -33 -34 -35 50 36 53 -39 -40 -41 59 58 -44 56 -46 46 48 -49 -50 -51 -52 -53 -54 -55 -56 -57 -58 -59 -60 60 -62 -63
leaf_value=-0.23041226714849758 -0.020354911983193044 0.0024225085435775591 -0.12226563554543715 0.010088695699981616 -0.045601455900201038 -0.011503018309661021 -0.12871097007218529 -0.067354615705780746 0.017090476885905242 0.021176609115052467 -0.0090623326362484092 0.0069450480412474747 -0.060605604612937007 -0.0045887826115863376 -0.17067759572243205 -0.18140088410088512 -0.0021928775320764356 -0.030245877071739875 0.039003147852938902 0.024938635322888078 -0.044832340196644005 -0.10207327576094966 -0.08278490483760835 -0.062158632521726646 -0.031975144159606124 -0.032123585313415602 -0.081766573979574098 0.017291811983247217 -0.14782744382883048 0.036542143049969604 0.031535915903221315 -0.1279807594189277 0.0030936821458693296 0.024101369521554991 -0.17290143490543028 0.0068980076842177582 0.0060647485660045028 -0.0069940056661018397 -0.15347094003643311 -0.0022802096613345956 -0.020253269818394589 -0.12648028294768252 -0.0046426336249904328 0.0091329247741021094 0.018449037470355603 -0.086234141411362111 -0.13690991526426272 0.029023091039823493 -0.082656258459274601 -0.02178891084033201 -0.20926294353875249 -0.094061698457773998 -0.055451782744215888 0.0019158547949987528 0.013719262991766261 -0.05511052855804785 0.00097976407711036556 0.014904496665000015 -0.16633968264968307 -0.020644420709222074 -0.026301940187689055 -0.0061268233570046186
leaf_weight=32 537 2621 65 1990 1630 1337 85 1895 2308 1424 795 2338 978 1355 49 33 1652 2195 4471 2656 926 539 50 147 762 938 510 2234 77 2278 6728 260 1367 4103 169 5293 1141 848 56 1841 481 114 438 1168 1138 273 43 1765 26 955 44 68 92 463 4217 670 1172 775 27 3672 2189 292
leaf_count=32 537 2621 65 1990 1630 1337 85 1895 2308 1424 795 2338 978 1355 49 33 1652 2195 4471 2656 926 539 50 147 762 938 510 2234 77 2278 6728 260 1367 4103 169 5293 1141 848 56 1841 481 114 438 1168 1138 273 43 1765 26 955 44 68 92 463 4217 670 1172 775 27 3672 2189 292
internal_value=2.14456e-05 0.0117367 -0.0573129 0.0207028 -0.0477344 -0.00473864 -0.117243 -0.0610577 0.0114758 0.0293314 -0.0150161 0.00439673 -0.0553851 -0.0183059 -0.156612 -0.099869 0.00798922 -0.0335188 0.0330722 0.0185526 -0.0487683 -0.0974956 -0.129622 -0.0878388 -0.044043 -0.0406785 -0.0922006 0.0124216 -0.177589 0.0308977 0.0296012 -0.134751 -0.00137627 0.0215774 -0.186943 0.00703495 0.00804559 0.00497968 -0.124072 -0.00616029 -0.0207486 -0.143081 -0.0132965 0.00205233 0.0131303 -0.0971139 -0.0923337 0.0255194 -0.116467 -0.0276819 -0.180413 -0.113311 -0.0345042 0.01128 0.0120892 -0.0491471 0.00504938 0.0089266 -0.134113 -0.0218439 -0.0227187 -0.0147265
internal_weight=80795 67087 13708 43444 11819 23643 1889 6101 20994 22450 11126 12517 5323 8964 631 778 9339 5718 16666 5784 3428 1258 224 554 2450 2568 1049 5347 322 12195 9917 309 2162 6411 245 14583 11962 6141 209 3178 7609 174 975 3992 3128 407 342 3189 69 3150 213 153 854 5821 5358 1596 2340 3113 141 6634 5861 773
internal_count=80795 67087 13708 43444 11819 23643 1889 6101 20994 22450 11126 12517 5323 8964 631 778 9339 5718 16666 5784 3428 1258 224 554 2450 2568 1049 5347 322 12195 9917 309 2162 6411 245 14583 11962 6141 209 3178 7609 174 975 3992 3128 407 342 3189 69 3150 213 153 854 5821 5358 1596 2340 3113 141 6634 5861 773
cat_boundaries=0 1
cat_threshold=40
is_linear=0
shrinkage=0.05


Tree=7
num_leaves=63
num_cat=0
split_feature=19 19 19 0 0 1 19 1 19 0 19 19 1 19 0 19 0 17 8 6 0 23 0 0 19 0 19 1 19 19 19 8 0 0 5 13 6 19 0 6 0 21 16 19 0 19 0 23 13 17 19 1 23 23 19 19 0 21 1 10 8 17
split_gain=19600.8 3987.19 2574.95 1227.46 795.657 739.793 606.343 554.591 530.149 475.701 472.003 236.456 183.088 107.42 108.321 104.46 91.5322 90.5503 80.3995 79.2344 77.2346 64.5147 63.9063 63.4203 58.8634 57.213 49.5002 49.4116 42.1695 39.3012 39.0094 36.9395 35.5762 34.1978 32.5428 31.9423 30.1662 28.6701 27.1337 25.3093 24.1864 19.3674 19.2893 18.0206 17.883 17.1497 16.3675 16.238 16.2328 15.7971 15.4873 15.2351 13.981 13.7462 13.6131 12.2737 12.2226 11.5114 11.4312 10.8965 10.8689 10.7688
threshold=36792.400000000009 89227.750000000015 9085.5000000000018 2022.5000000000002 2022.5000000000002 3.5000000000000004 19485.100000000002 2.5000000000000004 3123.416666666667 2020.5000000000002 115718.66666666667 56854.875000000007 1.5000000000000002 24965.666666666668 2022.5000000000002 1483.9000000000003 2022.5000000000002 179270.63056567835 144235.00000000003 93181.500000000015 2020.5000000000002 0.00012490202229240003 2020.5000000000002 2020.5000000000002 59219.825000000004 2020.5000000000002 114306.00000000001 1.5000000000000002 14249.900000000003 157167.37500000003 6579.2500000000009 139576.00000000003 2024.5000000000002 2024.5000000000002 1084.0000000000002 6287.0000000000009 23115.500000000004 44906.083333333336 2020.5000000000002 322.00000000000006 2024.5000000000002 101619.49536327571 133575.50000000003 102361.77500000001 2024.5000000000002 79576.750000000015 2021.5000000000002 0.00027140346534815007 13857.000000000002 215178.77120069673 68134.000000000015 2.5000000000000004 0.00016264791036155004 0.00047395611272865002 31990.000000000004 69642.333333333358 2023.5000000000002 92868.23718098375 1.5000000000000002 5.5000000000000009 22356.875000000004 87119.616888804114
decision_type=2 2 2 2 2 2 2 2 2 2 2 2 2 2 2 2 2 10 8 8 2 2 2 2 2 2 2 2 2 2 2 8 2 2 10 2 8 2 2 8 2 2 10 2 2 2 2 2 2 10 2 2 2 2 2 2 2 2 2 2 8 10
left_child=2 4 8 5 7 23 9 25 15 12 18 37 21 14 27 34 58 29 43 32 -7 35 48 -3 -9 -2 -22 -8 -18 31 -24 -12 55 -16 39 -4 44 -6 -17 -1 -31 53 54 -5 -30 -21 -28 -41 -10 -19 -34 -25 -50 57 -15 -13 -20 -23 -11 -37 -35 -53
right_child=1 3 6 10 11 20 13 24 22 16 17 19 -14 42 33 38 28 49 56 45 26 41 30 51 -26 -27 46 -29 36 40 -32 -33 50 60 -36 59 -38 -39 -40 47 -42 -43 -44 -45 -46 -47 -48 -49 52 -51 -52 61 -54 -55 -56 -57 -58 -59 -60 -61 -62 -63
leaf_value=-0.21889165863395021 -0.035333578623356558 -0.0080983883472188541 -0.14187465828398002 0.01548928753227545 -0.016848202141719663 0.01191150882020622 -0.066097951801493762 -0.012536423162781425 -0.13022467488916512 -0.06697027146862676 0.028004201567143144 0.0027912465510710571 -0.050109622966159478 -0.037399163791309288 -0.042331127481396752 -0.16214371919631959 -0.058998880224149133 0.033215125043487906 0.0018673945787724784 -0.0027879945156854186 0.014203656217674554 -0.14307706862688066 -0.096969610906045389 -0.021186829878859323 -0.00025497577570888862 -0.024014423869847045 0.019577493984671596 -0.044418827121901941 -0.045382126272171516 0.029525628700176783 -0.077678245568976678 0.019601812335734631 0.0083879893234771741 -0.024969227628856058 -0.139610947628279 -0.085786254352670385 -0.054498316073033806 -0.0064488509395151609 -0.12158172371295782 -0.16674597966365326 0.037953553104013313 -0.11091946601867675 -0.02579225685481781 0.022121792170548174 -0.0323512504566675 0.0043356414083474846 0.024452979047607661 -0.21301990293321157 -0.0918810230990251 0.038022986050108516 0.017491712410571431 0.00031622094210302225 -0.13913651287555695 -0.13367784869286323 -0.029354240213241012 0.0091143047970798537 0.0098408959487656811 -0.18450904692474165 -0.051245100596758325 -0.10574535137260116 -0.042172888350916343 0.004882715639909465
leaf_weight=32 1491 2408 46 2088 1083 4152 640 1382 117 1284 4284 1283 132 1281 1158 49 802 3775 838 1967 2610 30 539 73 3318 4443 3109 446 667 3674 510 1883 664 531 74 123 559 1708 260 195 1108 40 1031 2010 435 1481 3857 21 72 3121 1576 3984 20 62 892 1910 1127 38 127 154 111 1910
leaf_count=32 1491 2408 46 2088 1083 4152 640 1382 117 1284 4284 1283 132 1281 1158 49 802 3775 838 1967 2610 30 539 73 3318 4443 3109 446 667 3674 510 1883 664 531 74 123 559 1708 260 195 1108 40 1031 2010 435 1481 3857 21 72 3121 1576 3984 20 62 892 1910 1127 38 127 154 111 1910
internal_value=2.03733e-05 0.0105454 -0.057604 0.0189558 -0.00680301 0.0104623 -0.0480107 -0.0166964 -0.111381 -0.0619311 0.0268081 0.00221058 -0.102409 -0.0377269 -0.0447238 -0.148781 -0.0554007 0.0309032 0.0147554 0.00620011 0.0176071 -0.116412 -0.0926208 -0.00124916 -0.00386624 -0.0268585 0.0200766 -0.0571947 -0.0495836 0.0280765 -0.0875906 0.0254387 0.00996246 -0.0371996 -0.16871 -0.10329 -0.0450375 -0.0104841 -0.128014 -0.177393 0.0314784 -0.141344 -0.0314245 0.0187424 -0.0402384 0.000271781 0.022277 -0.171245 -0.117868 0.0353911 0.0147931 0.00151486 -0.102154 -0.150705 -0.0340968 0.0065736 0.00644049 -0.16623 -0.0655549 -0.0968826 -0.0279437 0.00179603
internal_weight=80795 68317 12478 46011 22306 22103 10589 10634 1889 4499 23908 11672 625 6090 2886 631 3874 17845 6063 8881 13728 493 1258 8375 4700 5934 9576 1086 2463 10949 1049 6167 5433 1800 322 323 1661 2791 309 248 4782 170 3204 4098 1102 3448 6966 216 209 6896 2240 5967 92 130 2173 3193 1965 68 1411 277 642 5894
internal_count=80795 68317 12478 46011 22306 22103 10589 10634 1889 4499 23908 11672 625 6090 2886 631 3874 17845 6063 8881 13728 493 1258 8375 4700 5934 9576 1086 2463 10949 1049 6167 5433 1800 322 323 1661 2791 309 248 4782 170 3204 4098 1102 3448 6966 216 209 6896 2240 5967 92 130 2173 3193 1965 68 1411 277 642 5894
is_linear=0
shrinkage=0.05


Tree=8
num_leaves=63
num_cat=0
split_feature=19 19 19 0 0 1 19 19 1 19 0 19 1 19 0 19 22 0 17 18 0 6 0 0 0 19 19 19 19 1 0 19 14 0 17 21 21 6 0 1 20 6 0 19 19 8 0 20 19 8 6 0 20 20 19 20 19 21 14 7 20 19
split_gain=17689.7 3600.29 2323.89 1107.13 702.689 680.672 547.225 478.459 473.265 458.027 429.32 206.206 165.237 97.1972 98.4658 94.2755 87.8688 82.6078 82.2579 76.4151 70.8764 70.389 57.6755 56.401 51.0921 49.8263 46.5132 39.7989 38.4256 37.7719 36.4365 35.4259 34.7633 30.6549 29.4225 27.4379 26.9525 26.6432 24.4882 23.8489 22.7868 22.6233 22.378 20.5961 19.9544 20.4508 17.9352 17.9077 16.7156 16.6035 16.3907 15.8637 15.6639 27.2548 18.8477 15.639 15.6138 15.3585 14.5214 14.0118 13.9788 13.039
threshold=36792.400000000009 87792.000000000015 9085.5000000000018 2022.5000000000002 2022.5000000000002 3.5000000000000004 19485.100000000002 3123.416666666667 2.5000000000000004 115718.66666666667 2020.5000000000002 55271.625000000007 1.5000000000000002 25892.083333333339 2023.5000000000002 1483.9000000000003 8.5000000000000018 2022.5000000000002 145717.29005360688 58093.033876576279 2020.5000000000002 88477.500000000015 2020.5000000000002 2020.5000000000002 2020.5000000000002 55271.625000000007 112049.50000000001 201742.50000000003 12621.500000000002 1.5000000000000002 2022.5000000000002 4880.5833333333348 0.1376521041408437 2024.5000000000002 1282.5521662941517 100982.88171867492 94847.808118063753 23115.500000000004 2020.5000000000002 2.5000000000000004 45290.432598518273 322.00000000000006 2024.5000000000002 44906.083333333336 144344.00000000003 115062.75000000001 2024.5000000000002 61918.079712112994 68134.000000000015 26409.500000000004 45183.000000000007 2021.5000000000002 54527.041286195141 73124.483228181911 18167.983333333337 31308.747896634621 70151.916666666686 94847.808118063753 0.1376521041408437 -209.49999999999997 64736.191935953044 69642.333333333358
decision_type=2 2 2 2 2 2 2 2 2 2 2 2 2 2 2 2 2 2 10 10 2 8 2 2 2 2 2 2 2 2 2 2 2 2 10 2 2 8 2 2 2 8 2 2 2 8 2 2 2 8 10 2 2 2 2 2 2 2 2 10 2 2
left_child=2 4 7 5 8 23 10 15 24 19 12 43 16 14 29 34 32 -12 27 -5 -7 33 40 -3 -2 -10 -22 44 -19 30 -8 -24 57 -13 41 36 52 46 -17 -25 58 -1 -20 -6 45 -11 -30 -37 -35 -16 -21 -28 -18 54 -54 -43 -23 -4 -9 -15 -42 -27
right_child=1 3 6 9 11 20 13 22 25 18 17 21 -14 59 49 38 35 28 42 50 26 56 31 39 -26 61 51 -29 37 -31 -32 -33 -34 48 -36 47 -38 -39 -40 -41 60 55 -44 -45 -46 -47 -48 -49 -50 -51 -52 -53 53 -55 -56 -57 -58 -59 -60 -61 -62 -63
leaf_value=-0.20794707685709002 -0.033581542469034296 -0.0077378391310955258 -0.093991211575010558 0.006274042014286889 -0.01600579220639492 0.01125095873673196 -0.062646325294298075 -0.11576419146621929 -0.014225712276940109 0.025121600051928695 -0.062277151055998375 0.0058021090998024638 -0.04760414170044841 -0.030926225194342762 -0.028976897284821248 -0.15403653346762367 -0.11034047928949198 -0.059964738689521527 0.029842160921158781 0.013897557082292315 0.012643570562022248 -0.0056155875248320329 -0.098975643672441188 -0.020000957172046335 -0.022851712471169277 -0.0048547159027257491 0.018367938128701539 0.036088031483552808 -0.044605316681059312 -0.039888466408035159 -0.044852052167145134 -0.077855526902362013 -0.066213367106737919 0.0072744789910298346 -0.13331456315981879 -0.12286453232169153 -0.19121395463035221 -0.052222731293945661 -0.11550263544687858 0.0017288696791141825 -0.16515373179206141 -0.15594551524467018 0.034986018062512787 -0.0068706596783496016 0.027249363440150828 0.01755110655240728 -0.032674203277791587 -0.071260343029581272 0.016463838032535198 -0.042516166065868582 0.020258038532806496 0.023014923484594215 -0.20278158597648144 -0.12462600950490346 -0.13944153584863828 -0.18941081681034783 0.001909818318631551 -0.13635924670004076 -0.08476456237189911 -0.022271118834250463 -0.1151596944907616 0.0012660336037999549
leaf_weight=32 1485 2432 69 2211 1083 4209 655 85 947 2411 1411 3207 132 2284 1102 49 60 470 3628 1676 2199 975 266 129 4387 1508 3340 891 811 663 513 783 108 739 77 40 21 667 260 5964 27 169 5068 1434 4431 1416 515 29 1498 285 2560 4080 24 88 23 44 2352 31 68 588 29 2057
leaf_count=32 1485 2432 69 2211 1083 4209 655 85 947 2411 1411 3207 132 2284 1102 49 60 470 3628 1676 2199 975 266 129 4387 1508 3340 891 811 663 513 783 108 739 77 40 21 667 260 5964 27 169 5068 1434 4431 1416 515 29 1498 285 2560 4080 24 88 23 44 2352 31 68 588 29 2057
internal_value=1.93547e-05 0.0100181 -0.0547238 0.017842 -0.00682132 0.00981169 -0.0456101 -0.105812 -0.0162083 0.0252313 -0.0588345 0.00181396 -0.0972886 -0.0358406 -0.041808 -0.141342 -0.110592 -0.0526307 0.029358 0.0138087 0.0166624 0.00543413 -0.0879898 -0.00130059 -0.0255652 -0.00403112 0.0190304 0.0260484 -0.0471044 -0.0494203 -0.0548309 -0.0832111 -0.0858826 0.00893572 -0.160275 -0.128625 -0.137393 -0.0440716 -0.121613 0.00126881 -0.111975 -0.168748 0.03284 -0.0108013 0.0249652 0.0223205 -0.0399714 -0.101176 0.0134281 -0.0317589 0.0177415 0.0209232 -0.131597 -0.141044 -0.171785 -0.162859 -0.000295553 -0.107125 -0.101987 -0.0291542 -0.139264 -0.00132305
internal_weight=80795 68317 12478 46645 21672 22353 10589 1889 10384 24292 4499 11288 625 6090 3218 631 493 3874 17845 6447 13828 8771 1258 8525 5872 4512 9619 9149 2463 1831 1168 1049 208 5444 322 285 216 1993 309 6093 209 245 8696 2517 8258 3827 1326 69 2237 1387 4236 7420 195 135 47 213 3327 100 153 2872 56 3565
internal_count=80795 68317 12478 46645 21672 22353 10589 1889 10384 24292 4499 11288 625 6090 3218 631 493 3874 17845 6447 13828 8771 1258 8525 5872 4512 9619 9149 2463 1831 1168 1049 208 5444 322 285 216 1993 309 6093 209 245 8696 2517 8258 3827 1326 69 2237 1387 4236 7420 195 135 47 213 3327 100 153 2872 56 3565
is_linear=0
shrinkage=0.05


Tree=9
num_leaves=63
num_cat=0
split_feature=19 19 19 0 0 1 19 1 19 0 1 1 19 16 0 19 18 0 19 0 19 19 0 22 19 0 19 0 19 19 0 14 18 14 21 0 23 21 0 0 1 0 6 19 14 14 19 21 19 20 0 1 1 0 22 19 0 20 8 20 0 10
split_gain=15967.5 2926.22 2315.03 1024.99 642.748 591.884 591.169 577.77 517.403 377.689 231.37 202.557 146.732 128.716 103.027 85.0836 81.6178 70.113 59.1917 57.83 54.2659 49.1485 49.0354 48.3384 60.2249 44.7346 41.0821 36.2992 32.8599 31.0204 28.6767 28.5883 26.6667 24.8354 27.238 24.2404 22.4307 28.9703 22.1006 21.9185 20.6425 20.5665 19.6379 19.5393 19.0501 17.988 17.9699 16.5264 16.0391 16.4125 15.9234 15.405 14.9371 17.0489 14.5735 14.0137 13.6864 13.5054 13.2789 13.0356 12.8928 12.3681
threshold=41551.250000000007 97684.250000000015 10369.000000000002 2022.5000000000002 2022.5000000000002 2.5000000000000004 22705.750000000004 3.5000000000000004 3123.416666666667 2020.5000000000002 2.5000000000000004 1.5000000000000002 62450.375000000007 133575.50000000003 2024.5000000000002 1483.9000000000003 55357.873210159356 2020.5000000000002 30684.000000000004 2020.5000000000002 69124.916666666672 6579.2500000000009 2020.5000000000002 8.5000000000000018 19485.100000000002 2020.5000000000002 17539.666666666668 2024.5000000000002 122922.50000000001 129120.53333333335 2024.5000000000002 0.1376521041408437 1143.1014235764237 0.1376521041408437 100982.88171867492 2022.5000000000002 0.00018270429088450003 102554.28900770583 2020.5000000000002 2024.5000000000002 1.5000000000000002 2024.5000000000002 322.00000000000006 49387.833333333336 0.20907362993107928 0.1376521041408437 128025.1666666667 94847.808118063753 16971.725000000002 64459.104494108491 2021.5000000000002 3.5000000000000004 1.5000000000000002 2022.5000000000002 8.5000000000000018 52452.583333333336 2023.5000000000002 31308.747896634621 78451.375000000015 101975.47424677813 2020.5000000000002 7.5000000000000009
decision_type=2 2 2 2 2 2 2 2 2 2 2 2 2 10 2 2 10 2 2 2 2 2 2 2 2 2 2 2 2 2 2 2 10 2 2 2 2 2 2 2 2 2 8 2 2 2 2 2 2 2 2 2 2 2 2 2 2 2 8 2 2 2
left_child=2 4 8 7 5 25 9 22 15 11 27 23 43 35 29 32 -14 36 30 -9 55 -19 -3 31 33 -2 -15 -5 -21 -12 52 47 42 -25 44 40 45 -38 -17 -18 -11 -28 -1 -6 -35 61 -16 -4 59 -50 -20 60 53 -8 -41 -7 -31 -44 -45 -46 -22 -10
right_child=1 3 6 10 12 20 18 19 17 13 14 -13 16 26 46 38 39 21 50 28 51 -23 -24 24 -26 -27 41 -29 -30 56 -32 -33 -34 34 -36 -37 37 -39 -40 54 -42 -43 57 58 48 -47 -48 -49 49 -51 -52 -53 -54 -55 -56 -57 -58 -59 -60 -61 -62 -63
leaf_value=-0.1981507924295241 -0.03191878937658988 -0.0072549462665857925 -0.084137104614214475 0.0065003312664522655 -0.010938318451721045 -0.014257324868797128 -0.057506429962813854 0.011176486333396123 -0.11921561637552835 -0.05888333623704857 0.020627111643073577 -0.042661054764695013 0.0011851671051570428 -0.045055870918687645 0.026763546140270753 -0.14633470743286367 0.0077823617998728986 -0.087707208995474073 -0.028326121083155461 0.015414433028737483 -0.006487096284952993 -0.068098908960819257 0.0016012372360088675 -0.15966102065224397 -0.074622943049127408 -0.021489664187996499 -0.037199535484525634 0.017412102773222693 0.021399262745038033 0.024308078387953153 -0.024396919820504556 -0.059687895608204672 -0.12879729020324621 -0.087577499608908385 -0.085638160072267058 -0.047144482270973488 -0.17256388318538668 -0.091827787905931477 -0.10972750439093665 0.0081006676266809248 -0.043833881218854648 -0.024850119447635821 -0.14864004955351728 -0.00091240611986821002 -0.16622037953800628 -0.081180222202902261 0.033758754577263649 -0.13132576218673161 -0.14349712781809473 -0.099570221632719044 -0.02041732918850582 0.0061427394991901661 -0.032987551470811831 -0.038459283304999245 0.016073923238454663 -0.0052570154362855228 0.028236599981167756 -0.17994027679616756 -0.011812350487922462 -0.11925738846713847 0.0019279316581211157 -0.080775139784371411
leaf_weight=31 1367 2202 55 1270 1054 581 144 3752 93 1589 3163 213 3755 1084 1098 49 3283 539 964 4388 626 785 5386 38 88 4149 811 1906 4805 4180 636 93 88 28 56 1025 25 20 260 802 266 577 159 1793 45 92 5603 28 37 50 1873 1504 1136 638 2008 1692 4721 44 331 22 1668 27
leaf_count=31 1367 2202 55 1270 1054 581 144 3752 93 1589 3163 213 3755 1084 1098 49 3283 539 964 4388 626 785 5386 38 88 4149 811 1906 4805 4180 636 93 88 28 56 1025 25 20 260 802 266 577 159 1793 45 92 5603 28 37 50 1873 1504 1136 638 2008 1692 4721 44 331 22 1668 27
internal_value=1.83869e-05 0.010066 -0.0491549 0.0180153 -0.00365174 -0.0122187 -0.0401417 0.00998612 -0.0959975 -0.0507964 0.0255292 -0.0839519 0.00396884 -0.0461316 0.0276415 -0.134275 0.00698345 -0.0807205 -0.0280757 0.0164076 -0.00144701 -0.0760814 -0.000968783 -0.100239 -0.110641 -0.0240743 -0.0377621 0.0130488 0.0185426 0.0248803 -0.0335976 -0.0787252 -0.152261 -0.122125 -0.116132 -0.0533155 -0.10462 -0.136681 -0.115533 0.0105568 -0.0567253 -0.0320658 -0.161085 -0.00537282 -0.125515 -0.097814 0.0326125 -0.100056 -0.132412 -0.118252 -0.0231047 0.00220999 -0.0366485 -0.0419667 0.0137983 -0.00755758 0.0263917 -0.155424 -0.00261103 -0.1508 -0.00036841 -0.110567
internal_weight=80795 67087 13708 42474 24613 11587 11496 20533 2212 6105 21941 753 13026 5352 18765 631 9848 1581 5391 12945 6071 1324 7588 540 364 5516 2472 3176 9193 12064 2554 176 322 276 238 2880 257 45 309 6093 1855 1388 234 3178 182 212 6701 83 154 87 2837 3798 1918 782 2810 2273 8901 203 2124 67 2294 120
internal_count=80795 67087 13708 42474 24613 11587 11496 20533 2212 6105 21941 753 13026 5352 18765 631 9848 1581 5391 12945 6071 1324 7588 540 364 5516 2472 3176 9193 12064 2554 176 322 276 238 2880 257 45 309 6093 1855 1388 234 3178 182 212 6701 83 154 87 2837 3798 1918 782 2810 2273 8901 203 2124 67 2294 120
is_linear=0
shrinkage=0.05


Tree=10
num_leaves=63
num_cat=1
split_feature=1 1 0 0 0 17 1 22 0 0 0 0 11 13 20 0 6 0 17 10 5 11 7 18 18 18 11 3 10 6 20 10 11 20 0 22 17 0 17 11 22 20 18 22 21 21 22 20 18 10 13 20 20 18 5 20 13 11 10 13 11 6
split_gain=13287.9 2841.92 1715.31 1579.4 955.37 845.524 738.515 270.11 251.236 221.078 119.593 103.111 86.8328 80.4633 76.1826 73.9683 73.3092 61.8758 47.8642 43.5033 41.5545 40.9567 37.646 35.5097 35.3233 32.9013 29.771 29.5005 28.1749 27.9142 25.8358 25.5878 23.2423 22.9177 21.36 20.658 19.0647 18.9925 18.2553 18.1683 16.4615 14.7709 13.6048 13.5898 17.0563 22.1886 13.0859 12.8608 12.7423 12.489 12.4653 12.4369 11.7681 11.4508 10.8501 10.5555 16.9862 18.2118 25.4097 10.5392 10.0523 9.83353
threshold=1.5000000000000002 2.5000000000000004 2022.5000000000002 2022.5000000000002 2020.5000000000002 5214.3032135583289 3.5000000000000004 6.5000000000000009 2022.5000000000002 2024.5000000000002 2024.5000000000002 2024.5000000000002 1.0000000180025095e-35 13857.000000000002 80180.983518044915 2020.5000000000002 1352.5000000000002 2020.5000000000002 78194.899249487833 5.5000000000000009 31029.000000000004 0.19857977437550359 320.50000000000006 141173.93530548635 95968.444024948054 13830.953510578545 0.15537260561532409 0 1.0000000180025095e-35 322.00000000000006 45290.432598518273 51.500000000000007 0.21889880952380952 111178.13386243388 2021.5000000000002 7.5000000000000009 2580.8524426885333 2020.5000000000002 87898.748824886497 0.016530054644808705 6.5000000000000009 48951.242110408661 49284.484832337388 8.5000000000000018 26908.91567352835 94663.623258479769 16.500000000000004 111178.13386243388 25986.986410550224 28.500000000000004 31211.000000000004 34127.508728859801 71156.761449524056 41021.837421855736 187.50000000000003 95555.930317084101 52252.000000000007 0.28217396638449271 60.500000000000007 9224.0000000000018 0.040134228187919459 9668.0000000000018
decision_type=2 2 2 2 2 8 2 2 2 2 2 2 8 2 2 2 8 2 10 2 10 10 10 10 8 10 8 9 2 10 2 2 10 2 2 2 10 2 10 8 2 2 8 2 2 2 2 2 10 2 2 2 2 8 10 2 2 10 2 2 10 8
left_child=4 2 20 6 13 7 17 16 40 12 23 25 42 26 24 -8 22 -3 27 35 37 41 29 33 -11 30 31 53 36 -6 -10 43 -23 -5 -17 61 -18 -2 -19 -39 -7 51 -4 44 -1 -46 55 -12 60 -43 -16 -15 -42 -14 -30 56 -34 -58 -59 -29 -21 -13
right_child=1 3 9 10 5 8 15 -9 11 14 47 19 18 21 50 34 28 38 -20 48 -22 32 -24 -25 -26 -27 -28 59 54 -31 -32 -33 46 -35 -36 -37 -38 39 -40 -41 52 49 -44 -45 45 -47 -48 -49 -50 -51 -52 -53 -54 -55 -56 -57 57 58 -60 -61 -62 -63
leaf_value=-0.15754956871271134 -0.031351749838706131 -0.0074216668562810048 -0.024097225168927022 0.017565476329140697 -0.19479188237871445 -0.067620495173279088 0.0092783138674615417 -0.048106089263455942 -0.059498995946846593 -0.0062725837743123547 0.027275520322920029 -0.068158471481553448 -0.017316809398825461 -0.082761814268890788 0.0088910460929513182 0.014372373696937208 -0.11895661092502006 -0.0012960910831694948 0.0061002226120532629 -0.038099435871822546 -0.019423214232072161 -0.14921580565472445 -0.10083704038902566 0.026233261718775748 0.0083062512637242861 -0.039147598775225168 -0.14426283077509314 -0.005197916139296781 -0.059459669120383987 -0.13798585879175287 -0.045717359309002725 -0.067619220087570805 -0.12508883762359621 0.0227665345066074 0.019032443165243537 -0.031519208961649788 -0.09522872141429356 -0.033156895444784257 0.0038721946578882437 -0.023846867249693472 -0.053569055482160503 -0.12244828293720883 -0.0088238097676400888 -0.15573074411262167 -0.094526252342332709 -0.13376633607383287 -0.073263446196462176 0.03206657043294852 -0.022372765397873598 -0.081608661054036566 0.014912800032352609 -0.059548480045050381 -0.062730017411238834 -0.0065590959945171006 -0.090242058528518243 -0.13215694768088204 -0.056873541126648587 -0.12768314895106525 -0.062022626011267956 5.1558275793786798e-05 -0.028255399937055864 -0.047530777994976486
leaf_weight=20 2188 3938 453 3500 28 479 4837 256 457 836 1970 87 337 207 1137 4669 188 5999 2114 351 2070 30 54 4339 826 1472 108 1190 33 95 1329 28 50 5364 5195 158 154 634 2389 3021 943 36 215 22 101 56 33 4847 667 39 3520 80 558 930 216 35 30 41 23 4865 993 172
leaf_count=20 2188 3938 453 3500 28 479 4837 256 457 836 1970 87 337 207 1137 4669 188 5999 2114 351 2070 30 54 4339 826 1472 108 1190 33 95 1329 28 50 5364 5195 158 154 634 2389 3021 943 36 215 22 101 56 33 4847 667 39 3520 80 558 930 216 35 30 41 23 4865 993 172
internal_value=4.70265e-05 0.00748435 -0.00638704 0.0146596 -0.0550884 -0.0499113 0.00677494 -0.0925847 -0.0442111 0.00282723 0.0253039 -0.0388697 -0.00176046 -0.103 0.0101629 0.0143431 -0.107411 -0.00225143 -0.000527188 -0.0310701 -0.0255107 -0.0920998 -0.135639 0.0225271 0.000972974 -0.0446822 -0.122653 -0.00244065 -0.0989569 -0.150917 -0.0492438 -0.112372 -0.108024 0.0207129 0.0168267 -0.0457677 -0.108272 -0.0276674 0.000175897 -0.0254618 -0.0595501 -0.0814543 -0.0191814 -0.118669 -0.114062 -0.108523 -0.102195 0.030682 -0.0280225 -0.101212 0.0134426 -0.0762912 -0.0569747 -0.00934669 -0.0861625 -0.107529 -0.101543 -0.0890185 -0.104086 -0.000978514 -0.0308263 -0.0544598
internal_weight=81012 71383 24336 47047 9629 8690 27027 1024 7666 16423 20020 5686 10104 939 6319 14701 768 12326 9436 2428 7913 604 177 13203 1662 3258 335 7322 591 123 1786 227 242 8864 9864 417 342 5843 8388 3655 1980 362 668 199 177 157 212 6817 2011 75 4657 287 1501 1267 249 179 144 94 64 6055 1344 259
internal_count=81012 71383 24336 47047 9629 8690 27027 1024 7666 16423 20020 5686 10104 939 6319 14701 768 12326 9436 2428 7913 604 177 13203 1662 3258 335 7322 591 123 1786 227 242 8864 9864 417 342 5843 8388 3655 1980 362 668 199 177 157 212 6817 2011 75 4657 287 1501 1267 249 179 144 94 64 6055 1344 259
cat_boundaries=0 14
cat_threshold=20974593 3489660932 151257154 0 1073746112 16384 1098940416 4194304 0 16512 16 524304 2147483648 2048
is_linear=0
shrinkage=0.05


Tree=11
num_leaves=63
num_cat=0
split_feature=19 19 19 0 0 19 1 1 19 0 19 19 1 19 0 19 6 6 19 16 16 19 19 0 0 22 1 0 8 14 0 21 0 0 21 0 19 14 8 20 21 8 19 8 0 0 22 10 0 19 1 19 21 22 1 0 19 14 14 19 19 0
split_gain=13121.1 2594.98 1836.98 830.886 528.309 500.33 471.357 418.164 307.98 289.53 242.693 156.859 107.778 80.0611 71.7782 67.4563 65.6251 61.8667 59.8793 55.577 51.4663 50.1848 48.2715 45.5495 39.3473 38.7781 36.4729 33.5701 32.5655 31.3746 26.5225 26.2628 25.9631 24.2656 24.2652 24.0183 22.7947 21.2143 20.7291 20.5357 20.4967 20.4876 18.9174 16.811 15.4111 15.1281 13.8246 14.3198 11.9677 11.789 11.7365 11.6221 11.418 10.8944 10.5044 10.3793 10.3587 10.2646 10.3208 9.92951 9.87907 9.82242
threshold=38143.833333333336 93931.833333333328 7966.166666666667 2022.5000000000002 2022.5000000000002 19485.100000000002 3.5000000000000004 2.5000000000000004 1483.9000000000003 2020.5000000000002 124489.08333333336 59219.825000000004 1.5000000000000002 25892.083333333339 2022.5000000000002 4880.5833333333348 9057.0000000000018 94768.000000000015 12621.500000000002 133575.50000000003 187172.50000000003 121653.62500000001 59219.825000000004 2020.5000000000002 2020.5000000000002 8.5000000000000018 1.5000000000000002 2020.5000000000002 188.50000000000003 0.1376521041408437 2020.5000000000002 103496.8259663565 2024.5000000000002 2020.5000000000002 94847.808118063753 2024.5000000000002 189474.66666666669 0.20907362993107928 164887.75000000003 36663.040987107808 94847.808118063753 108522.25000000001 49387.833333333336 75227.500000000015 2024.5000000000002 2024.5000000000002 16.500000000000004 5.5000000000000009 2024.5000000000002 167910.33333333334 2.5000000000000004 78334.666666666672 29780.219806763289 8.5000000000000018 3.5000000000000004 2024.5000000000002 33058.500000000007 0.48232603509005489 0.20907362993107928 14249.900000000003 3123.416666666667 2021.5000000000002
decision_type=2 2 2 2 2 2 2 2 2 2 2 2 2 2 2 2 10 8 2 10 10 2 2 2 2 2 2 2 10 2 2 2 2 2 2 2 2 2 8 2 2 8 2 8 2 2 2 2 2 2 2 2 2 2 2 2 2 2 2 2 2 2
left_child=2 4 8 6 7 9 23 24 28 12 16 42 25 14 26 27 44 32 -11 -20 36 41 -9 -3 -2 29 -7 -10 52 34 37 40 51 -23 -4 -16 38 39 -12 -17 46 -8 -6 45 50 -19 47 -27 56 -40 -5 -13 -1 -34 61 -21 -15 58 -49 -33 -29 -24
right_child=1 3 5 10 11 13 21 22 15 18 20 17 -14 48 35 30 -18 43 19 55 -22 33 54 -25 -26 31 -28 60 -30 -31 -32 59 53 -35 -36 -37 -38 -39 49 -41 -42 -43 -44 -45 -46 -47 -48 57 -50 -51 -52 -53 -54 -55 -56 -57 -58 -59 -60 -61 -62 -63
leaf_value=-0.13606167558966012 -0.02878327227711025 -0.0066374664903488178 -0.07993325028837342 0.0052603884757418742 -0.011296032991268119 -0.05333561316361795 0.014870292331353258 -0.010667981311487225 -0.12393430729086202 -0.056294145278961344 0.024887839759169816 0.0041729228526260617 -0.04160455493522542 -0.028916451639416599 -0.033889974348189293 -0.089649652498109009 0.019763301894699964 0.0020751800882786594 -0.048946619811085293 -0.038951332843918308 0.030618496997216395 0.012260409545873784 -0.0034736541033582227 0.0016500269129585453 -0.019305984558108748 -0.079304701902649627 -0.035597934865572604 -0.098632854439995518 -0.12883371485543141 -0.058509294144690985 -0.069376297520535465 -0.049156093120574951 0.0057080990242850752 0.019225667195633879 -0.12706909793380058 -0.022402568832357781 0.02873924821813725 -0.069306652105989908 0.01726755516093707 -0.14709856925266129 -0.14326850225528082 0.0092068120525117311 -0.0034101148352387641 -0.0020376118164413268 0.014351468788809144 0.013280808450218347 -0.071735719951062371 -0.1079140757237162 -0.019183826920062513 0.023190652660757496 0.013262905469061909 0.010576215644189058 -0.17293847258153716 0.014718442327962386 0.0043482465949746772 -0.03024207833897451 -0.022236323068268855 -0.10117030027967233 -0.14448241421649621 -0.090174381973014944 -0.085278761947667731 0.0024656593273758606
leaf_weight=29 1462 2361 97 1632 1517 650 2647 1346 96 1088 6076 2224 140 1423 1290 35 3317 1371 1619 834 4293 1647 1911 5568 4365 33 523 275 217 126 542 25 407 5193 38 703 2252 42 1819 28 39 4025 1525 2177 1290 386 29 35 816 1561 637 1040 76 1909 1128 580 980 65 43 36 279 1095
leaf_count=29 1462 2361 97 1632 1517 650 2647 1346 96 1088 6076 2224 140 1423 1290 35 3317 1371 1619 834 4293 1647 1911 5568 4365 33 523 275 217 126 542 25 407 5193 38 703 2252 42 1819 28 39 4025 1525 2177 1290 386 29 35 816 1561 637 1040 76 1909 1128 580 980 65 43 36 279 1095
internal_value=4.46752e-05 0.00877398 -0.0463409 0.0159318 -0.00451933 -0.0391518 0.00886 -0.0123591 -0.0961272 -0.0512996 0.0225596 0.00254059 -0.080885 -0.0299682 -0.0356137 -0.0852612 0.0147036 0.00570067 -0.0462311 -0.0426213 0.0259356 0.014539 -0.00244389 -0.000817721 -0.0216838 -0.090601 -0.045427 -0.0966377 -0.139894 -0.0764533 -0.073832 -0.102708 0.00908612 0.0175485 -0.0932011 -0.029838 0.0242184 -0.0968322 0.0231418 -0.115183 -0.110044 0.0114537 -0.0073427 0.000898725 0.00998787 0.00453697 -0.103723 -0.108994 -0.0244156 0.020003 0.00750702 0.00621319 -0.162753 0.013135 0.000233809 -0.0353789 -0.0261921 -0.115845 -0.128074 -0.0733636 -0.0919076 -0.00131013
internal_weight=81012 68181 12831 44318 23863 11212 21441 11307 1619 4827 22877 12556 706 6385 3166 1297 6876 9514 4121 3033 16001 13512 5480 7929 5827 566 1173 650 322 261 647 305 5580 6840 135 1993 11708 105 9456 63 244 6672 3042 3934 3559 1757 205 176 3219 3380 2269 3264 105 2316 4134 1414 2403 143 78 61 554 3006
internal_count=81012 68181 12831 44318 23863 11212 21441 11307 1619 4827 22877 12556 706 6385 3166 1297 6876 9514 4121 3033 16001 13512 5480 7929 5827 566 1173 650 322 261 647 305 5580 6840 135 1993 11708 105 9456 63 244 6672 3042 3934 3559 1757 205 176 3219 3380 2269 3264 105 2316 4134 1414 2403 143 78 61 554 3006
is_linear=0
shrinkage=0.05


Tree=12
num_leaves=63
num_cat=0
split_feature=19 19 19 12 1 19 12 19 1 19 12 19 12 1 19 16 17 19 19 8 8 19 17 12 22 19 8 19 13 12 16 8 17 21 21 17 13 21 12 20 8 12 12 1 19 20 1 12 22 19 17 12 22 6 8 12 12 21 19 8 19 19
split_gain=11841.8 2346.46 1657.87 750.309 456.936 451.548 448.36 311.731 291.878 277.952 197.974 120.516 92.131 97.2694 72.2551 66.5278 61.075 60.8794 52.9396 51.3019 46.7074 45.7441 41.7539 36.6674 34.9973 34.2998 29.3904 28.6893 28.3156 26.9093 26.4832 26.344 24.2338 23.7022 22.2256 19.6622 19.1769 18.4983 18.0885 18.5487 16.0402 14.2694 13.7376 32.9168 13.717 12.8526 12.7193 13.8312 12.4767 12.34 12.2776 12.2652 12.1157 12.0527 11.9727 10.9153 10.8008 10.3047 9.83389 9.65691 9.48892 9.34876
threshold=38143.833333333336 87067.500000000015 7966.166666666667 166511.00000000003 3.5000000000000004 19485.100000000002 166511.00000000003 113184.08333333336 2.5000000000000004 1483.9000000000003 133575.50000000003 57563.000000000007 108994.00000000001 1.5000000000000002 25892.083333333339 133575.50000000003 172138.27986226228 4880.5833333333348 118557.66666666667 84253.250000000015 136897.06250000003 15125.333333333334 34741.672168924008 218450.00000000003 8.5000000000000018 55969.666666666679 188.50000000000003 162553.00000000003 13857.000000000002 133575.50000000003 166511.00000000003 135053.00000000003 24258.503615352132 103496.8259663565 92868.23718098375 2580.8524426885333 6572.5000000000009 94847.808118063753 108994.00000000001 36663.040987107808 106668.50000000001 218450.00000000003 166511.00000000003 1.5000000000000002 46077.083333333336 42982.905651046669 2.5000000000000004 133575.50000000003 16.500000000000004 10369.000000000002 208575.99768472833 218450.00000000003 9.5000000000000018 45183.000000000007 56439.500000000007 108994.00000000001 218450.00000000003 29780.219806763289 105867.50000000001 15721.625000000002 74012.200000000012 33058.500000000007
decision_type=2 2 2 2 2 2 2 2 2 2 2 2 2 2 2 10 10 2 2 8 8 2 10 2 2 2 10 2 2 2 10 8 10 2 2 10 2 2 2 2 8 2 2 2 2 2 2 2 2 2 10 2 2 10 10 2 2 2 2 8 2 2
left_child=2 6 9 4 22 10 8 20 32 26 12 44 -4 24 15 42 27 35 40 23 53 49 46 -13 28 -10 57 31 34 -20 -23 -9 55 37 -14 -11 38 48 -19 -40 58 -29 43 -7 -8 -36 -3 -48 -26 -12 -18 -17 54 -5 -25 -2 61 -1 -6 -51 -56 -16
right_child=1 3 5 7 18 14 11 16 25 17 21 19 13 -15 56 51 50 36 29 -21 -22 30 -24 52 33 -27 -28 41 -30 -31 -32 -33 -34 -35 45 -37 -38 -39 39 -41 -42 -43 -44 -45 -46 -47 47 -49 -50 59 -52 -53 -54 -55 60 -57 -58 -59 -60 -61 -62 -63
leaf_value=-0.12925859216985719 -0.019964696210141852 -0.017481940159235747 -0.052255866239252304 0.010667808271415884 0.009199404424834981 -0.050668832513002249 -0.011999613167061864 0.021625355004726683 -0.011633320442859302 -0.10058266259035709 -0.055668840528680735 0.0036213123289697614 -0.068699427272962493 -0.039524327117417546 -0.027470629117193092 -0.029389662230797833 0.025405391730543875 -0.065372541487216954 0.013751018575594673 -0.0035730555650991449 0.0043229164851065864 -0.041669433115356216 0.0026677143101757278 0.01518178418505366 -0.1035438526912582 -0.0011610826384032909 -0.12239203010835956 0.023095769779970299 -0.055583829089762671 0.01960979380917827 -0.029454836640822685 0.015016570698198865 -0.016833977837634198 -0.069695426926749654 -0.13754095070436598 -0.08318951469732494 -0.066053821583927586 -0.13610507746537526 -0.084081457918953328 -0.13719989839527344 0.0080008132739740039 0.030067039621048192 -0.034316392838530996 -0.033818037952714909 -0.0047655887484839366 -0.092055101874398026 -0.0050760709495676019 0.0021873926953427181 -0.068148933659339772 -0.042613122552074972 0.029438563155083003 -0.019560994498484526 0.013740684861409752 0.016080466556235587 -0.005459530712399966 -0.025834904448910869 -0.018224635480574385 -0.16429154833680706 0.016126728225308636 -0.053406639986872256 0.0083747280780235196 -0.02112450715186483
leaf_weight=29 1326 176 828 1806 843 650 1076 4597 1014 322 416 4179 69 140 1423 726 4078 50 4729 1584 1913 1053 4010 241 176 3416 217 3008 126 3347 767 2244 2363 61 25 328 528 39 42 27 3786 971 703 523 1676 41 3668 798 29 774 3512 564 1663 2389 243 1966 816 76 1306 283 253 980
leaf_count=29 1326 176 828 1806 843 650 1076 4597 1014 322 416 4179 69 140 1423 726 4078 50 4729 1584 1913 1053 4010 241 176 3416 217 3008 126 3347 767 2244 2363 61 25 328 528 39 42 27 3786 971 703 523 1676 41 3668 798 29 774 3512 564 1663 2389 243 1966 816 76 1306 283 253 980
internal_value=4.24414e-05 0.00833528 -0.0440238 0.0145236 0.00796529 -0.0371942 -0.00556805 0.0205857 -0.0131686 -0.0913208 -0.0487346 0.00145458 -0.0635707 -0.0768407 -0.0284697 -0.033833 0.0238331 -0.0809982 0.0135444 0.00450514 0.0107976 -0.0418235 -0.00106944 0.00645009 -0.086071 -0.00355811 -0.1329 0.0214211 -0.0726307 0.0161791 -0.0365219 0.0194575 -0.0206973 -0.0975723 -0.0885411 -0.0918058 -0.0701404 -0.104542 -0.0882727 -0.104867 0.00995917 0.024797 -0.0398433 -0.0431556 -0.00759401 -0.109285 -0.00429778 -0.00377821 -0.0985368 -0.048374 0.0272716 -0.0250925 0.0113757 0.0137502 0.00603928 -0.0234704 -0.0231948 -0.154616 0.0134093 -0.045503 0.00159706 -0.0248825
internal_weight=81012 68181 12831 47181 22663 11212 21000 24518 10085 1619 4827 10915 1534 706 6385 3166 18410 1297 14011 8163 6108 3293 8652 6579 566 4430 322 10820 261 8076 1820 6841 5655 305 135 650 647 244 119 69 5935 3979 1876 1173 2752 66 4642 4466 205 1473 7590 1290 2400 4195 737 3292 3219 105 2149 1057 496 2403
internal_count=81012 68181 12831 47181 22663 11212 21000 24518 10085 1619 4827 10915 1534 706 6385 3166 18410 1297 14011 8163 6108 3293 8652 6579 566 4430 322 10820 261 8076 1820 6841 5655 305 135 650 647 244 119 69 5935 3979 1876 1173 2752 66 4642 4466 205 1473 7590 1290 2400 4195 737 3292 3219 105 2149 1057 496 2403
is_linear=0
shrinkage=0.05


Tree=13
num_leaves=63
num_cat=0
split_feature=1 1 17 17 17 20 13 14 17 20 20 13 22 16 1 17 5 8 13 13 14 13 14 13 14 13 17 22 14 17 13 13 1 23 13 22 14 13 13 22 6 13 14 17 16 22 16 11 14 13 13 11 13 14 13 14 1 17 10 21 14 1
split_gain=9787.02 2089.76 793.777 652.949 565.999 403.198 170.176 184.949 152.97 131.086 125.899 103.406 76.6206 95.3076 96.3804 76.3062 68.5555 66.7361 58.1236 69.0923 55.3929 78.5001 51.3712 50.5176 58.4518 71.3826 47.6327 44.9077 41.5135 40.9984 39.9522 38.4005 38.1616 33.6025 33.4296 28.9824 28.8031 27.9142 32.9124 26.9934 26.4969 26.0823 50.4147 25.6633 24.7026 23.3706 22.4843 22.1367 21.2402 20.7866 26.0975 20.5529 20.3395 28.9554 19.8578 19.7773 19.1389 16.0193 15.5214 15.3319 15.3197 29.6086
threshold=1.5000000000000002 2.5000000000000004 125829.34117995357 66142.171375473103 10677.813592987384 34127.508728859801 7682.5000000000009 0.46644536851433654 2580.8524426885333 74994.101841781259 101624.09720993986 69173.000000000015 5.5000000000000009 133575.50000000003 3.5000000000000004 24811.87606677847 142723.50000000003 70316.031250000015 6572.5000000000009 6287.0000000000009 0.20907362993107928 38467.000000000007 0.0062843511428190514 56217.500000000007 0.16122588289154163 46041.500000000007 6534.0648807445314 6.5000000000000009 0.48232603509005489 98881.709079972803 7682.5000000000009 77611.000000000015 3.5000000000000004 3.6725071675475679e-05 62034.500000000007 2.5000000000000004 0.44357941318982941 5103.5000000000009 3164.5000000000005 6.5000000000000009 1352.5000000000002 27194.500000000004 0.13656915302422673 68798.645332959873 133575.50000000003 10.500000000000002 133575.50000000003 0.15537260561532409 0.46644536851433654 6572.5000000000009 3164.5000000000005 0.26405516712958538 27194.500000000004 0.13656915302422673 7682.5000000000009 0.44357941318982941 3.5000000000000004 212001.37114690719 9.5000000000000018 92868.23718098375 0.0062843511428190514 3.5000000000000004
decision_type=2 2 10 10 10 2 2 2 8 2 2 2 2 10 2 10 10 10 2 2 2 2 2 2 2 2 10 2 2 10 2 2 2 2 2 2 2 2 2 2 8 2 2 10 10 2 10 8 2 2 2 8 2 2 2 2 2 10 2 2 2 2
left_child=4 3 10 6 5 8 22 9 27 33 17 18 30 14 31 46 -4 32 19 37 54 45 -2 24 41 -26 39 40 -23 -5 60 43 35 -8 51 -3 -13 38 -7 49 -1 42 -11 -14 -37 -22 -6 58 52 50 -10 -30 53 -32 -20 -25 -55 -18 -21 -53 -12 -62
right_child=1 2 16 29 15 11 7 -9 26 23 12 36 13 -15 -16 -17 57 -19 20 47 21 28 -24 55 25 -27 -28 -29 34 -31 48 -33 -34 -35 -36 44 -38 -39 -40 -41 -42 -43 -44 -45 -46 -47 -48 -49 -50 -51 -52 59 -54 56 -56 -57 -58 -59 -60 -61 61 -63
leaf_value=-0.1248076276828165 -0.0021710391473283783 0.012921722551136178 0.018344124399171196 0.0042760940505368701 -0.043202557496435652 -0.033516397717453184 -0.019964611125168542 -0.020390922667395901 -0.056405304630127988 -0.00056595103580819644 0.017367128714691829 -0.025203484405082632 -0.00040375171616882248 0.018223091572872364 0.011682126579747459 -0.021474654174176541 0.023514835765724232 0.010866238550140466 -0.054994267843118533 -0.12219872890931111 -0.059466750398278236 -0.040981885602272117 -0.023476877396163928 0.0088552561571837909 -0.021868878483846867 -0.0016769052189168851 -0.053935235740116584 -0.038846956253051762 -0.05975802544638649 0.012078785635894825 0.019147926000238957 0.020273528969324803 0.0075234499558031291 -0.0099760266428233334 -0.051998484248052472 -0.0015398560020915349 -0.042456557057168491 -0.051267597011544486 -0.1081070544642862 -0.059456593479810804 -0.097836497567655625 0.0078310019486506934 -0.023225466661371184 0.006762288977727033 0.012499824053012792 -0.11095930645354542 -0.033989115073056346 -0.13227053550072015 0.0076463172940706321 -0.07412054212962059 -0.10069989631460473 -0.066289836406999994 0.021977153046975208 -0.0051237853201421537 -0.03905833675878264 2.7856235043389773e-05 0.012032156443837445 0.027997750673368418 -0.074593495744377833 -0.10118690316660583 -0.002922508781169592 0.011347027780544338
leaf_weight=146 315 411 6114 4184 999 21 1182 2612 41 2219 418 461 4355 2080 5158 1062 4934 2786 246 23 30 407 2778 1140 899 853 376 25 111 2817 1761 290 2316 2927 368 5861 509 308 50 223 242 703 276 1752 331 83 1964 38 541 564 176 49 1973 206 952 1431 771 3343 67 88 542 1104
leaf_count=146 315 411 6114 4184 999 21 1182 2612 41 2219 418 461 4355 2080 5158 1062 4934 2786 246 23 30 407 2778 1140 899 853 376 25 111 2817 1761 290 2316 2927 368 5861 509 308 50 223 242 703 276 1752 331 83 1964 38 541 564 176 49 1973 206 952 1431 771 3343 67 88 542 1104
internal_value=4.03193e-05 0.00642316 0.012576 -0.00547178 -0.0472778 -0.0575514 -0.0106766 -0.0083679 -0.0771042 -0.00566763 0.00826466 -0.0483521 0.0105852 0.00837029 0.0065967 -0.0329739 0.0223594 0.00411113 -0.0531647 -0.0685093 -0.0498315 -0.0577416 -0.021307 -0.00174399 -0.00469725 -0.012038 -0.0691147 -0.1038 -0.0533733 0.00741567 0.0147131 0.00249625 0.00200106 -0.0128494 -0.0615604 6.40881e-05 -0.0342569 -0.0577826 -0.086045 -0.0747994 -0.107985 -0.000675697 -0.00307257 0.00165207 -0.00078935 -0.0972887 -0.0370955 -0.10027 0.0170294 -0.0791803 -0.0923309 -0.0757492 0.0181069 0.015318 -0.0423307 0.00394199 0.00841483 0.0253254 -0.0867593 -0.0887055 0.00881908 0.00664831
internal_weight=81012 71383 47047 24336 9629 5604 17335 14242 1793 11630 32656 3811 20951 13635 11555 4025 14391 11705 2841 507 2334 1136 3093 7521 4950 1752 1380 413 1023 7001 7316 6397 8919 4109 616 6603 970 379 71 1004 388 3198 2495 6107 6192 113 2963 128 5252 781 217 248 4711 2738 1198 2571 977 8277 90 137 2064 1646
internal_count=81012 71383 47047 24336 9629 5604 17335 14242 1793 11630 32656 3811 20951 13635 11555 4025 14391 11705 2841 507 2334 1136 3093 7521 4950 1752 1380 413 1023 7001 7316 6397 8919 4109 616 6603 970 379 71 1004 388 3198 2495 6107 6192 113 2963 128 5252 781 217 248 4711 2738 1198 2571 977 8277 90 137 2064 1646
is_linear=0
shrinkage=0.05


Tree=14
num_leaves=63
num_cat=0
split_feature=19 19 19 0 19 0 1 1 19 0 19 19 0 1 19 0 6 6 0 0 19 0 19 19 0 8 19 0 19 1 22 19 8 0 0 8 0 0 0 8 20 20 19 22 21 19 9 19 22 1 19 6 11 21 0 19 22 8 19 5 0 19
split_gain=9699.03 1696.53 1557.21 636.342 404.553 373.505 352.142 329.275 319.937 207.723 139.763 77.9454 74.0865 116.523 65.9242 51.5169 50.6773 38.5015 38.3184 38.2542 37.7816 35.4021 34.8888 32.8236 30.8892 28.6418 28.3337 25.0923 23.7188 20.5551 19.4722 28.9787 16.6066 16.1543 14.9866 13.7306 15.6157 13.6778 12.99 11.5143 11.4779 24.1094 23.4808 16.5573 11.3335 17.0368 11.2658 11.1119 11.4898 11.0056 10.7073 9.74865 9.70946 9.45364 9.27626 9.17577 17.1428 9.13213 8.82283 8.65251 8.63773 8.47189
threshold=43981.166666666679 97684.250000000015 10369.000000000002 2022.5000000000002 23355.375000000004 2022.5000000000002 3.5000000000000004 2.5000000000000004 3123.416666666667 2022.5000000000002 124489.08333333336 64956.250000000007 2020.5000000000002 1.5000000000000002 1483.9000000000003 2020.5000000000002 105218.00000000001 9057.0000000000018 2020.5000000000002 2024.5000000000002 16971.725000000002 2020.5000000000002 33058.500000000007 69124.916666666672 2020.5000000000002 188.50000000000003 6579.2500000000009 2024.5000000000002 123732.00000000001 2.5000000000000004 8.5000000000000018 19485.100000000002 81394.750000000015 2024.5000000000002 2024.5000000000002 74396.375000000015 2024.5000000000002 2021.5000000000002 2020.5000000000002 19000.500000000004 73124.483228181911 54527.041286195141 18639.166666666668 12.500000000000002 94168.773398740756 15735.16666666667 4.5000000000000009 15735.16666666667 10.500000000000002 1.5000000000000002 52452.583333333336 21048.500000000004 0.19857977437550359 29780.219806763289 2023.5000000000002 13526.583333333334 16.500000000000004 22356.875000000004 108497.00000000001 1084.0000000000002 2024.5000000000002 52452.583333333336
decision_type=2 2 2 2 2 2 2 2 2 2 2 2 2 2 2 2 8 10 2 2 2 2 2 2 2 10 2 2 2 2 2 2 8 2 2 8 2 2 2 8 2 2 2 2 2 2 2 2 2 2 2 8 10 2 2 2 2 8 2 10 2 2
left_child=2 5 8 6 9 7 21 24 14 12 17 32 13 30 25 52 34 60 -8 54 39 -3 33 61 -2 53 -17 51 58 -21 44 40 50 -6 -13 36 -18 -24 -16 -11 41 47 46 -42 -4 -46 -43 -32 -49 -14 -7 -22 -10 -1 -12 -45 -57 -29 -20 -27 -5 -9
right_child=1 3 4 10 22 11 18 23 15 20 19 16 49 -15 38 26 35 -19 28 29 27 -23 37 -25 -26 59 -28 57 -30 -31 31 -33 -34 -35 -36 -37 -38 -39 -40 -41 43 42 -44 55 45 -47 -48 48 -50 -51 -52 -53 -54 -55 -56 56 -58 -59 -60 -61 -62 -63
leaf_value=-0.118190152891751 -0.0251694324333364 -0.0060330120975208559 -0.050675813885370513 0.007400436741540898 -0.026534291719434902 -0.0058072988407551502 0.0085477520867695382 -0.011746002131565819 -0.07996600292912788 -0.035099895139794904 0.018775686087825358 0.006772862199176298 -0.045502841689972706 -0.033266053706165248 -0.11361309377395588 -0.068201615031983451 0.0024390683132467991 0.01749448700031549 0.0082477619622242076 0.01595557222971445 -0.02709510113249284 0.0014259096702675567 -0.021277014614870342 0.0014413156646445112 -0.016262543323433614 -0.11799696677542748 -0.053524504287907462 -0.01796461906289348 0.017033358546986451 0.026275707991816423 -0.1044939806477891 -0.055801280172065253 -0.011510770436904771 -0.017981812507114423 0.012300555959589335 -0.00077351322860288139 0.013822207970948448 -0.014029621069553702 -0.084906523065133535 -0.046242386870311972 -0.040656168431043631 -0.16960738494992256 -0.07955139769322199 -0.063736802159712239 -0.091161483262072907 -0.041381111115217209 -0.11879648801890047 -0.04139171790169633 -0.08483383394363854 -0.035274019621454988 0.00050052101651310683 -0.035174113937325217 -0.10827528954616615 -0.1517452429783972 0.021883430344829306 -0.1196278515427063 -0.064366503393925398 -0.035217722436023315 0.013242931593682651 -0.0970676769551478 0.012896403282648959 -0.0044693748719878169
leaf_weight=29 1302 2264 106 1871 2141 1019 3855 525 225 1057 4521 2914 1618 246 46 554 1291 2997 1189 526 811 5350 997 3870 3857 141 809 709 4586 5833 36 86 497 744 2117 2441 393 1876 275 297 25 20 23 29 55 25 24 23 45 314 1980 692 35 76 5121 36 23 86 3446 76 1157 1680
leaf_count=29 1302 2264 106 1871 2141 1019 3855 525 225 1057 4521 2914 1618 246 46 554 1291 2997 1189 526 811 5350 997 3870 3857 141 809 709 4586 5833 36 86 497 744 2117 2441 393 1876 275 297 25 20 23 29 55 25 24 23 45 314 1980 692 35 76 5121 36 23 86 3446 76 1157 1680
internal_value=3.83034e-05 0.00808556 -0.0371555 0.0140529 -0.0300555 -0.00258607 0.00775632 -0.00922134 -0.0752063 -0.0387211 0.0199676 0.00330555 -0.0491434 -0.0619183 -0.105055 -0.0633808 0.00573058 0.0134769 0.0127339 0.0224116 -0.0309186 -0.000791978 -0.0204448 -0.00133289 -0.0185104 -0.12104 -0.0594901 -0.0270149 0.014484 0.0254221 -0.0745954 -0.0812297 -0.00304561 -0.0243287 0.00909887 0.0016225 0.00509558 -0.0165446 -0.0890202 -0.037544 -0.0889298 -0.0971009 -0.120492 -0.0765646 -0.0613981 -0.0756051 -0.141892 -0.0820319 -0.0701402 -0.0438404 -0.00164275 -0.0308148 -0.0837769 -0.142478 0.0204263 -0.0867659 -0.0980853 -0.019831 0.0119615 -0.110667 0.00950045 -0.00620191
internal_weight=81012 66602 14410 42716 12144 23886 20690 11234 2266 6386 22026 12652 2734 802 643 1623 9156 6025 13076 16001 3652 7614 5758 6075 5159 322 1363 2298 9221 6359 556 370 3496 2885 5031 4125 1684 2873 321 1354 284 171 67 113 186 80 44 104 68 1932 2999 1503 260 105 9642 88 59 795 4635 217 3028 2205
internal_count=81012 66602 14410 42716 12144 23886 20690 11234 2266 6386 22026 12652 2734 802 643 1623 9156 6025 13076 16001 3652 7614 5758 6075 5159 322 1363 2298 9221 6359 556 370 3496 2885 5031 4125 1684 2873 321 1354 284 171 67 113 186 80 44 104 68 1932 2999 1503 260 105 9642 88 59 795 4635 217 3028 2205
is_linear=0
shrinkage=0.05


Tree=15
num_leaves=63
num_cat=0
split_feature=1 1 0 0 0 17 1 0 22 0 0 0 13 11 0 6 0 22 11 17 10 5 7 6 18 18 18 8 8 21 11 0 22 7 22 7 6 11 0 13 22 10 21 13 11 17 11 11 11 13 13 21 10 22 22 11 22 22 0 13 22 11
split_gain=7927.07 1714.65 1039.58 949.225 658.463 485.331 448.976 165.208 154.8 144.723 76.3198 64.8678 59.8323 50.7395 50.1257 46.5248 40.9396 33.7613 31.6587 31.0966 30.7371 29.1051 28.6061 26.8577 25.4218 21.6522 20.3058 20.0053 17.4625 16.5749 15.2223 14.3993 13.2044 12.1042 11.9719 11.5931 11.1956 10.7913 11.7851 10.7222 9.3292 21.132 9.35529 9.2399 8.46244 8.39507 7.53909 7.24131 16.0451 9.31971 16.2763 12.7334 7.8629 8.68398 13.8212 7.10127 11.709 7.00483 6.82634 6.61454 6.54195 6.44542
threshold=1.5000000000000002 2.5000000000000004 2022.5000000000002 2022.5000000000002 2020.5000000000002 5214.3032135583289 3.5000000000000004 2024.5000000000002 6.5000000000000009 2024.5000000000002 2024.5000000000002 2022.5000000000002 13857.000000000002 1.0000000180025095e-35 2020.5000000000002 1352.5000000000002 2020.5000000000002 9.5000000000000018 0.020101010101010102 75067.964601543412 5.5000000000000009 27991.500000000004 320.50000000000006 322.00000000000006 101698.02957600023 153371.23862279276 13830.953510578545 188.50000000000003 1935.0312500000002 26908.91567352835 1.0000000180025095e-35 2021.5000000000002 8.5000000000000018 -8468.4999999999982 6.5000000000000009 25278.500000000004 11882.500000000002 0.026144907723855051 2020.5000000000002 52252.000000000007 7.5000000000000009 23.500000000000004 94847.808118063753 9224.0000000000018 0.30445817700286915 45813.972058068437 0.23420877659574468 0.28009661835748795 0.29442724458204333 25397.500000000004 52252.000000000007 103496.8259663565 16.500000000000004 13.500000000000002 16.500000000000004 0.22168803418803418 12.500000000000002 4.5000000000000009 2024.5000000000002 9224.0000000000018 7.5000000000000009 0.15537260561532409
decision_type=2 2 2 2 2 8 2 2 2 2 2 2 2 8 2 8 2 2 8 10 2 10 10 10 8 10 10 10 10 2 8 2 2 10 2 8 8 8 2 2 2 2 2 2 8 8 10 10 10 2 2 2 2 2 2 10 2 2 2 2 2 10
left_child=4 2 21 6 12 8 16 11 15 13 25 34 18 45 -8 22 -3 30 29 43 32 37 23 -6 35 59 36 -17 -29 -1 -14 -16 -9 -18 -7 -11 60 -2 -39 -32 41 42 -31 -15 61 -4 -22 49 -49 -19 51 55 -52 -54 -55 56 -51 -37 -10 -5 -13 -20
right_child=1 3 9 10 5 7 14 20 58 24 -12 26 17 19 31 27 33 47 44 -21 46 -23 -24 -25 -26 -27 -28 28 -30 40 39 -33 -34 -35 -36 57 -38 38 -40 -41 -42 -43 -44 -45 -46 -47 -48 48 -50 50 52 -53 53 54 -56 -57 -58 -59 -60 -61 -62 -63
leaf_value=-0.1280237281118497 -0.026501925750542433 -0.006091398836470337 -0.019069429176705815 0.013404662188515751 -0.16464099552896289 -0.053085478903755312 0.0069535537931461654 -0.041990393999937585 -0.039949456008348601 0.00078753432802308634 0.023928803188453932 -0.04858537055767341 -0.049367801326362398 -0.0057659825826228417 0.011140250604620046 -0.042236537438554642 -0.0008850976554694959 -0.053380723670125009 -0.11531292952464096 0.0045666194413223745 -0.023570215018134236 -0.015270111650639235 -0.075062724761664867 -0.1073980164527893 0.010355348803276312 0.020481835261402872 -0.030601381931222995 -0.090857485279735958 -0.072046906210200087 -0.074656550272057462 -0.059321659261530095 0.014967088227611447 -0.021697527256661228 0.0037087351155077291 -0.044136581879062775 0.0011361082207164647 -0.036281164430784732 -0.023939237301657396 -0.018715857771832069 -0.092033984009986344 -0.10556323562050239 -0.038319710741440458 -0.1039098446636439 -0.0012814866351829113 -0.10717372044298296 -0.0076425376173350603 -0.017407104378609466 -0.13174522939053449 -0.083836806218194615 -0.095666791427703138 -0.093432959965590784 -0.065917600301856352 -0.048290489362602301 -0.098990099198154879 -0.045677221002988516 -0.087000357575545265 -0.14846685676436341 0.011473746690095911 -0.011302673895640866 0.016739432763278782 -0.032799916447680676 -0.14955153084463543
leaf_weight=21 1000 3878 421 1870 27 504 4854 282 217 1327 6789 346 158 1438 4657 39 6535 33 28 2241 1173 2467 48 85 4225 3964 1484 202 317 75 55 5206 112 1837 1446 232 1325 1776 2755 46 32 30 43 5708 89 260 860 22 85 21 29 22 47 31 20 22 21 558 23 7260 81 27
leaf_count=21 1000 3878 421 1870 27 504 4854 282 217 1327 6789 346 158 1438 4657 39 6535 33 28 2241 1173 2467 48 85 4225 3964 1484 202 317 75 55 5206 112 1837 1446 232 1325 1776 2755 46 32 30 43 5708 89 260 860 22 85 21 29 22 47 31 20 22 21 558 23 7260 81 27
internal_value=1.27648e-05 0.00573997 -0.00500561 0.0113382 -0.0428198 -0.0384277 0.00522705 -0.0342071 -0.0719681 0.00219833 0.0196267 -0.0392458 -0.0821562 -0.00152838 0.0111131 -0.0835884 -0.00184438 -0.0727694 -0.0988075 -0.000572325 -0.0234402 -0.0197864 -0.107357 -0.121198 0.00811453 0.0173961 -0.0349049 -0.076773 -0.0793682 -0.0859875 -0.0590593 0.0131602 -0.0362219 0.00012289 -0.0464495 0.00364241 -0.0385502 -0.0218008 -0.0207632 -0.0742203 -0.0810832 -0.0757902 -0.0853166 -0.00218391 -0.116702 -0.0147067 -0.0209631 -0.0828287 -0.0936871 -0.0781057 -0.0819364 -0.0987326 -0.0705626 -0.0637948 -0.0780831 -0.110013 -0.122067 0.00843788 -0.0372041 0.0160564 -0.0455909 -0.132121
internal_weight=80786 71258 24408 46850 9528 8571 26967 7613 958 16410 19883 5186 957 10068 14717 718 12250 612 345 9387 2427 7998 160 112 6342 13094 3236 558 519 201 259 9863 394 8372 1950 2117 1752 5531 4531 101 180 148 118 7146 144 681 2033 353 107 246 213 86 127 98 51 64 42 790 240 9130 427 55
internal_count=80786 71258 24408 46850 9528 8571 26967 7613 958 16410 19883 5186 957 10068 14717 718 12250 612 345 9387 2427 7998 160 112 6342 13094 3236 558 519 201 259 9863 394 8372 1950 2117 1752 5531 4531 101 180 148 118 7146 144 681 2033 353 107 246 213 86 127 98 51 64 42 790 240 9130 427 55
is_linear=0
shrinkage=0.05


Tree=16
num_leaves=63
num_cat=0
split_feature=19 19 19 0 17 19 1 19 0 0 1 19 0 1 19 1 19 0 11 19 0 0 19 0 19 6 0 5 24 0 16 20 19 19 6 11 19 1 0 5 0 10 0 21 1 21 0 6 20 21 21 10 20 19 19 8 19 0 19 20 1 19
split_gain=7895.18 1637.77 1112.45 511.708 320.75 296.906 287.039 190.864 167.351 125.424 218.133 108.715 60.7954 68.176 51.5371 49.5914 48.548 44.0178 41.5498 32.7565 32.193 31.8308 30.7294 29.6017 29.5784 28.7227 28.038 26.7792 26.1408 25.5597 25.5128 22.0172 21.4936 20.2518 18.6535 15.8434 23.1916 15.2975 13.3771 14.1277 12.3622 12.2176 11.7722 11.7025 11.2128 11.0606 10.2544 9.44171 9.40074 17.8217 17.9015 11.2429 9.12768 8.47135 8.24325 10.8075 7.6143 7.4313 7.36382 7.32748 7.22729 6.98527
threshold=36792.400000000009 98394.916666666672 7966.166666666667 2022.5000000000002 67855.325171587741 18639.166666666668 3.5000000000000004 1483.9000000000003 2020.5000000000002 2022.5000000000002 2.5000000000000004 124822.25000000001 2023.5000000000002 1.5000000000000002 50440.875000000007 1.5000000000000002 66202.750000000015 2020.5000000000002 0.2861692447679709 12621.500000000002 2020.5000000000002 2024.5000000000002 4880.5833333333348 2020.5000000000002 55969.666666666679 9057.0000000000018 2020.5000000000002 187.50000000000003 0.042810061419874958 2020.5000000000002 133575.50000000003 46677.460837496306 4880.5833333333348 123732.00000000001 101196.00000000001 0.16733333333333333 19485.100000000002 2.5000000000000004 2023.5000000000002 51018.500000000007 2022.5000000000002 4.5000000000000009 2024.5000000000002 89681.004233993299 3.5000000000000004 29780.219806763289 2024.5000000000002 86762.500000000015 51940.380647445934 102554.28900770583 92868.23718098375 23.500000000000004 21591.588148148152 27181.850000000002 191463.50000000003 169765.50000000003 71189.47500000002 2023.5000000000002 17539.666666666668 75126.059359263774 1.5000000000000002 108497.00000000001
decision_type=2 2 2 2 10 2 2 2 2 2 2 2 2 2 2 2 2 2 10 2 2 2 2 2 2 10 2 10 2 2 10 2 2 2 8 10 2 2 2 8 2 2 2 2 2 2 2 8 2 2 2 2 2 2 2 8 2 2 2 2 2 2
left_child=2 4 7 6 9 8 26 27 15 10 29 25 13 23 -11 18 47 31 28 -10 -8 57 -19 35 -12 -5 -3 45 41 -2 -21 32 43 61 46 -7 -37 -23 -16 -40 -25 -4 60 -9 -26 -1 -18 -6 58 50 51 -50 -45 -15 55 -39 -41 -13 -30 -51 -14 -22
right_child=1 3 5 11 16 12 20 17 19 14 24 21 42 53 38 -17 34 22 -20 30 33 37 -24 40 44 -27 -28 -29 48 -31 -32 -33 -34 -35 -36 36 -38 54 39 56 -42 -43 -44 52 -46 -47 -48 -49 49 59 -52 -53 -54 -55 -56 -57 -58 -59 -60 -61 -62 -63
leaf_value=-0.10560251998178888 -0.022300686096648346 -0.0053766408973283143 -0.07623019631952048 0.0087449789914773608 -0.00046652140154631742 -0.037024709511024413 0.0077567040667919501 -0.12161116385284593 -0.044650031218057697 -0.0095664145880621151 -0.010627014414890312 0.016983359211718212 -0.024866257014634938 -0.027053217067229896 -0.0014158958407672333 -0.035553853794009285 0.0066371047407072989 -0.071806580648946586 -0.11861687189137393 -0.038833547047870967 0.0074522387130134225 0.014756328269140796 -0.054755608917879207 -0.039008807435008182 -0.0023271744619046248 0.015765044417986301 0.0013155091561498791 -0.099783638166263705 -0.052890694968114008 -0.014769352736147068 -0.028607464433153963 -0.12313714348956158 -0.063048565084765473 0.015576823045502475 0.002588202109059386 -0.099731681873335656 -0.050561119982829465 0.023798522108259709 0.0091779493200149203 -0.004258406669590137 -0.029574766138504294 -0.11897581544471905 -0.016050389387795634 -0.10618969300253825 0.0034108145032287576 -0.13976556648101127 0.011359671738797643 -0.0099440429874291542 -0.096379508271347739 -0.064262350266799328 -0.10090683416889634 -0.052707079710671678 -0.061602290797357767 -0.020761431470999694 0.026956076177449717 0.017136054749087411 0.0034285425316605764 0.019779091011618552 -0.08339064398949797 -0.021974595795784677 -0.016603272475287787 0.011987332890439965
leaf_weight=33 1500 2220 35 2883 1638 64 3816 34 1061 1612 883 4504 923 853 3229 113 2692 532 44 1328 1125 512 525 693 2670 2946 5306 192 197 4525 1128 38 83 4574 1736 38 65 3542 756 499 696 32 1564 22 1250 84 2006 313 20 20 59 56 24 1435 1505 735 909 5033 22 21 371 3462
leaf_count=33 1500 2220 35 2883 1638 64 3816 34 1061 1612 883 4504 923 853 3229 113 2692 532 44 1328 1125 512 525 693 2670 2946 5306 192 197 4525 1128 38 83 4574 1736 38 65 3542 756 499 696 32 1564 22 1250 84 2006 313 20 20 59 56 24 1435 1505 735 909 5033 22 21 371 3462
