tree
version=v4
num_class=1
num_tree_per_iteration=1
label_index=0
max_feature_idx=6
objective=regression
feature_names=aggregate_mark mark_bucket year total_students mark_percentile_hist mark_rank_fraction_hist community
feature_infos=[77:200] [77:200] [2020:2025] [54617:104215] [0.0052829391254471626:99.999899999999997] [5.2829391254471623e-05:0.99999899999999997] none
tree_sizes=2835 2832 2848 2847 2847 2842 2858 2860 2835 2849 2845 2839 2850 2862 2856 2860 2856 2856 2852 2854 2852 2850 2858 2864 2866 2852 2876 2872 2884 2857 2846 2863 2879 2879 2863 2860 2870 2865 2860 2851 2877 2864 2863 2866 2867 2882 2874 2867 2871 2871 2889 2881 2874 2881 2869 2876 2870 2857 2892 2881 2891 2886 2875 2877 2891 2882 2883 2900 2885 2899 2898 2878 2920 2893 2885 2897 2896 2893 2885 2885 2873 2901 2887 2898 2901 2904 2908 2892 2901 2882 2882 2889 2872 2906 2891 2908 2885 2891 2892 2898 2913 2918 2923 2916 2911 2887 2897 2909 2909 2903 2910 2923 2925 2922 2886 2913 2934 2906 2905 2910 2920 2931 2962 2930 2933 2929 2922 2932 2894 2916 2904

Tree=0
num_leaves=31
num_cat=0
split_feature=0 0 0 4 0 0 0 4 4 4 0 4 4 4 4 4 4 4 0 4 3 0 0 4 3 0 3 0 0 0
split_gain=742676 210565 136258 51468.4 26535 25035.5 24639 24428.3 22170.2 10165.6 9234.11 8685.36 8494.28 8351.31 5598.82 4669.65 3293.1 3161.4 2978.18 2956.12 2632.23 2591.89 1898.23 1876.46 1859.72 1673.1 2243.92 1623.92 1488.2 1182.78
threshold=162.50000000000003 123.50000000000001 186.50000000000003 91.107777034888244 146.50000000000003 194.50000000000003 176.50000000000003 35.821054160519189 55.952910058073257 97.875633145247846 86.500000000000014 66.230759045175915 21.121586765554198 84.10432218203627 3.2277490332216021 0.20037028180149011 95.272205053654901 48.693700586962862 181.50000000000003 29.165850900543308 60434.000000000007 171.50000000000003 130.50000000000003 11.316549292928515 85350.000000000015 94.500000000000014 60434.000000000007 155.50000000000003 107.50000000000001 137.50000000000003
decision_type=2 2 2 10 2 2 2 8 8 10 2 10 8 10 10 10 10 10 2 10 2 2 2 8 2 2 2 2 2 2
left_child=1 3 6 10 8 14 12 27 29 16 -1 20 21 25 -4 -7 -5 24 23 -14 -10 -2 -13 -8 -9 -12 28 -6 -27 -3
right_child=2 4 5 9 7 15 18 17 11 -11 13 22 19 -15 -16 -17 -18 -19 -20 -21 -22 -23 -24 -25 -26 26 -28 -29 -30 -31
leaf_value=0.14507918869901398 0.0074329209431094924 0.13389114538338742 -0.13506814024223646 0.13392342694833131 0.061920487701900936 -0.24239349927784218 -0.038685946193476817 -0.028098969713218607 -0.0047004961073470733 0.25057232496281595 0.089229097447090705 0.045900151674280187 -0.049150413536068929 0.093522698748057673 -0.10139023793192417 -0.17491900428495455 0.17567194571378122 -0.0011955625928588192 -0.077695157055058611 -0.030252711185066613 0.018182004647888033 -0.022986020444448856 0.029847983144289322 -0.064296165834116042 -0.01005999677489843 0.05902994046856283 0.067408037384631692 0.03459166442719587 0.029438959931335759 0.094676185105630362
leaf_weight=3109 8871 1807 13539 9879 6684 2234 5908 16950 11111 1686 3705 21527 26731 23469 18957 6183 4356 32128 25658 26250 29133 9058 26051 20327 19856 6126 26222 7255 4890 3858
leaf_count=9 6 10 24 37 8 18 4 26 21 31 8 26 34 52 22 14 27 33 30 26 30 6 29 24 17 12 59 6 9 8
internal_value=-0.00139756 0.0406507 -0.0681242 0.0930035 0.0158808 -0.131346 -0.0470611 -0.000598516 0.0304891 0.157699 0.0777488 0.0255418 -0.0317338 0.0744989 -0.115422 -0.192828 0.146699 -0.0103641 -0.0680055 -0.0397873 0.0118644 -0.00793518 0.0371109 -0.0585289 -0.0183674 0.0635943 0.0610438 0.0476963 0.0458945 0.107185
internal_weight=423518 259802 163716 83442 176360 40913 122803 82873 93487 15921 67521 87822 70910 64412 32496 8417 14235 68934 51893 52981 40244 17929 47578 26235 36806 40943 37238 13939 11016 5665
internal_count=666 458 208 244 214 78 130 90 124 95 149 106 72 140 46 32 64 76 58 60 51 12 55 28 43 88 80 14 21 18
is_linear=0
shrinkage=1


Tree=1
num_leaves=31
num_cat=0
split_feature=0 0 0 4 0 0 0 4 4 4 4 0 4 4 0 4 0 4 2 4 2 4 0 2 2 0 4 2 0 0
split_gain=684641 161641 157643 34840.2 29592.5 29048.8 24855.2 25964.1 13278.8 8145.96 7487.4 6526.97 6459.38 6219.56 5916.85 5687.45 5647.42 5594.8 4674.31 4037.5 3006.58 2503.24 2281.39 2376.78 2155.36 1890.05 1718.3 1466.83 1463.38 1305.42
threshold=156.50000000000003 184.50000000000003 115.50000000000001 92.667374342796265 193.50000000000003 170.50000000000003 135.50000000000003 44.556838652021703 26.061798007920462 67.419368175254661 97.875633145247846 82.500000000000014 75.087187147595316 0.45407752638983895 189.50000000000003 56.518575730820743 178.50000000000003 87.182048330658304 2024.5000000000002 15.157520361052937 2021.5000000000002 33.002150704068846 89.500000000000014 2020.5000000000002 2023.5000000000002 148.50000000000003 95.272205053654901 2024.5000000000002 100.50000000000001 198.50000000000003
decision_type=2 2 2 10 2 2 2 8 8 8 10 2 10 10 2 10 2 10 2 8 2 10 2 2 2 2 10 2 2 2
left_child=2 5 3 11 14 8 9 25 -2 18 26 -1 20 29 -3 24 19 22 -4 -7 -11 -10 -13 28 -9 -8 -5 -17 -24 -6
right_child=1 4 6 10 13 16 7 15 21 12 -12 17 -14 -15 -16 27 -18 -19 -20 -21 -22 -23 23 -25 -26 -27 -28 -29 -30 -31
leaf_value=0.17394201721307886 0.01653096164878164 -0.088674847394013392 0.14022004206377761 0.13518856379622121 -0.19903208438843562 -0.022093603238373245 0.0885954833874944 -0.015024360303620539 -0.038394558800688781 0.0079638295788074954 0.24021585407913226 0.10561771739612925 0.054211064737246233 -0.15205605411569428 -0.12028198735712453 0.010122374901094622 -0.065846176295031436 0.10234251867113298 0.038140459985283932 -0.050452773302526704 0.035428047813740302 -0.020252720440917318 0.070662786165279462 0.079371951985496486 0.0030291044768605978 0.055474525704457232 0.16831147655420506 0.026607357249540442 0.041724495356488707 -0.24812425807713492
leaf_weight=1310 14993 23610 2128 5900 2951 10743 4462 20828 17404 8203 1686 3168 30453 7173 15830 29332 30503 16385 1083 31835 28660 40458 5354 16672 21506 7213 4356 12240 5852 1227
leaf_count=5 11 29 17 24 14 7 9 33 23 15 31 7 40 14 23 33 34 42 1 37 32 40 11 48 19 8 27 11 11 10
internal_value=-0.00167525 -0.0562808 0.0456916 0.100867 -0.117741 -0.0348905 0.0255348 0.0122436 -0.0170167 0.0435476 0.162099 0.0858647 0.0405785 -0.174653 -0.101361 0.0044669 -0.0527089 0.0834321 0.105791 -0.0432974 0.0293165 -0.0257095 0.0734519 0.0697966 -0.00585306 0.0681328 0.149257 0.014976 0.0555506 -0.21345
internal_weight=423518 196727 226791 60683 50791 145936 166108 95581 72855 70527 11942 48741 67316 11351 39440 83906 73081 47431 3211 42578 36863 57862 31046 27878 42334 11675 10256 41572 11206 4178
internal_count=666 242 424 206 90 152 218 113 74 105 82 124 87 38 52 96 78 119 18 44 47 63 77 70 52 17 51 44 22 24
is_linear=0
shrinkage=0.04


Tree=2
num_leaves=31
num_cat=0
split_feature=1 1 1 4 1 1 4 1 4 4 1 4 4 4 4 4 4 4 1 4 2 1 4 1 2 2 2 1 1 4
split_gain=631666 179099 115826 43910.2 22462.9 21323.5 20925.8 20895.4 18922.3 9079.96 8168.95 7375.94 7170.14 6037.6 4813.08 3989.67 2710.93 2606.64 2533.42 2388.36 2256.85 2116.43 1851.66 1692.96 1984.91 1657.04 1645.69 1410.72 1337.45 1303.66
threshold=162.50000000000003 123.50000000000001 186.50000000000003 90.673200504960292 146.50000000000003 194.50000000000003 35.821054160519189 176.50000000000003 55.952910058073257 97.360699709434058 85.500000000000014 66.230759045175915 21.121586765554198 84.918987836508293 3.2277490332216021 0.20037028180149011 48.693700586962862 24.249401758715425 182.50000000000003 94.457199490102184 2020.5000000000002 171.50000000000003 11.316549292928515 93.500000000000014 2020.5000000000002 2023.5000000000002 2024.5000000000002 107.50000000000001 155.50000000000003 99.078740516428169
decision_type=2 2 2 10 2 2 8 2 8 10 2 10 8 10 10 10 10 10 2 10 2 2 8 2 2 2 2 2 2 10
left_child=1 3 7 10 8 14 28 12 -3 19 -1 20 21 23 -4 -7 25 -14 22 -5 -10 -2 -9 -12 27 -8 -13 -25 -6 -11
right_child=2 4 5 9 6 15 16 18 11 29 13 26 17 -15 -16 -17 -18 -19 -20 -21 -22 -23 -24 24 -26 -27 -28 -29 -30 -31
leaf_value=0.13927291118325971 0.0061407746431215039 0.098622221365084389 -0.12495477546924626 0.11788980358628262 0.056771377572608098 -0.22399153201411426 -0.026471762652101771 -0.038272809490257631 -0.0047463602672525749 0.19702053504914996 0.085525546843172859 0.029425701486271671 -0.05298903482838279 0.086176229981701782 -0.093729344186019678 -0.16162291957282066 -0.0013843507764942618 -0.032084120929763704 -0.07403454450417242 0.15109166355708989 0.016441777115096 -0.021346860057235319 -0.061240264246370864 0.055208987932064808 0.062809148356105612 -0.0094441018039233063 0.046344887899432322 0.026851471384122569 0.031969899867009821 0.26453022398446735
leaf_weight=2669 8871 5665 13539 9021 6684 2234 16950 7307 11111 1851 3682 35115 12486 19800 18957 6183 32128 40495 20312 5630 29133 9058 24274 6589 28702 19856 12463 4890 7255 608
leaf_count=8 6 18 24 31 8 18 26 5 21 18 8 42 20 44 22 14 33 40 24 31 30 6 29 13 64 17 13 9 6 18
internal_value=-0.00160824 0.0371703 -0.0631462 0.0854532 0.0143261 -0.121436 -0.000836139 -0.0437265 0.0277668 0.142586 0.0707161 0.0231963 -0.0296115 0.0678419 -0.106739 -0.178176 -0.00987459 -0.0370108 -0.0630142 0.130648 0.0105919 -0.00774639 -0.0559262 0.0595657 0.0571868 -0.0172857 0.0338577 0.0431288 0.0438627 0.213713
internal_weight=423518 259802 163716 83442 176360 40913 82873 122803 93487 17110 66332 87822 70910 63663 32496 8417 68934 52981 51893 14651 40244 17929 31581 43863 40181 36806 47578 11479 13939 2459
internal_count=666 458 208 244 214 78 90 130 124 98 146 106 72 138 46 32 76 60 58 62 51 12 34 94 86 43 55 22 14 36
is_linear=0
shrinkage=0.04


Tree=3
num_leaves=31
num_cat=0
split_feature=0 0 0 5 0 0 5 5 0 5 0 5 5 5 5 0 5 5 0 2 2 5 0 2 0 0 5 0 0 0
split_gain=582143 165058 106757 40467.6 22581.1 20738.5 18036.1 17529.2 17411.9 8419.72 7528.51 7271 5574.95 4577.48 4563.11 4229.15 2890.89 2724.3 2403.66 2379.33 2286.81 2133.59 1666 1773.5 1610.72 1607.85 1392.67 1158.67 1086.28 1043.29
threshold=162.50000000000003 123.50000000000001 187.50000000000003 0.90673200504960294 177.50000000000003 147.50000000000003 0.34491646182401897 0.55265707658427099 195.50000000000003 0.97875633145247842 85.500000000000014 0.66230759045175913 0.84104322182036262 0.023987209813955395 0.21121586765554198 174.50000000000003 0.9527220505365489 0.2424940175871543 183.50000000000003 2021.5000000000002 2020.5000000000002 0.0020037028180149015 94.500000000000014 2020.5000000000002 131.50000000000003 154.50000000000003 0.10619335257662239 107.50000000000001 140.50000000000003 157.50000000000003
decision_type=2 2 2 10 2 2 8 8 2 10 2 10 10 10 8 2 10 10 2 2 2 10 2 2 2 2 8 2 2 2
left_child=1 3 4 10 14 7 29 28 13 16 -1 20 22 -4 15 -2 -5 -16 26 -8 -9 -10 -12 27 -13 -21 -6 -24 -3 -7
right_child=2 5 8 9 18 6 19 11 21 -11 12 24 -14 -15 17 -17 -18 -19 -20 25 -22 -23 23 -25 -26 -27 -28 -29 -30 -31
leaf_value=0.13370199707305669 -0.00039119626796437461 0.11216610615130231 -0.129240254592554 0.11674165388630493 -0.041543294224764722 0.05114051885484542 -0.032859478491609966 -0.0052720038304025253 -0.21550825584983205 0.22175259263207195 0.080498638231302766 0.039440308901118153 0.081260294525584809 -0.096979007911501616 -0.051452170171033811 -0.035720363460451592 0.15520933976186538 -0.030800756561622192 -0.074988792426758058 -0.00051351689568600268 0.015405795447591698 -0.16572419772182936 0.05188754937012835 0.059423258070559863 0.0246949062424957 -0.013806792958229177 -0.061749966512270035 0.025777412398948749 0.077796747633724059 0.028688527767426902
leaf_weight=2669 13481 2438 11170 11068 7066 7213 6669 11620 2149 1686 4145 25195 22280 19018 13671 9068 4356 40495 19791 27144 32468 3836 6126 26222 22383 31397 23971 4890 3711 6122
leaf_count=8 9 11 23 40 5 8 14 22 17 31 9 30 49 23 22 7 27 40 24 27 34 9 12 59 25 31 29 9 7 5
internal_value=-0.00154391 0.0356835 -0.0606204 0.0820351 -0.0434185 0.013753 -0.00155405 0.0260445 -0.121273 0.136883 0.0678874 0.0216588 0.0651282 -0.108916 -0.0297186 -0.0145987 0.127606 -0.036013 -0.0640957 -0.0102219 0.00995588 -0.1836 0.0564429 0.0537653 0.0325034 -0.00764303 -0.0571496 0.0402973 0.0914238 0.040833
internal_weight=423518 259802 163716 83442 127543 176360 78545 97815 36173 17110 66332 91666 63663 30188 76715 22549 15424 54166 50828 65210 44088 5985 41383 37238 47578 58541 31037 11016 6149 13335
internal_count=666 458 208 244 136 214 85 129 72 98 146 111 138 46 78 16 67 62 58 72 56 26 89 80 55 58 34 21 18 13
is_linear=0
shrinkage=0.04


Tree=4
num_leaves=31
num_cat=0
split_feature=0 0 0 4 0 0 4 4 0 4 4 0 4 4 4 4 4 2 0 2 4 0 4 2 0 0 0 2 0 0
split_gain=536503 152117 98501.4 37339.3 20662 19129.3 17778 16130.7 14931.3 7359.95 6972.98 6732.71 6253.72 6087.71 5039.86 3621.22 2355.28 2348.22 2158.76 1988.59 1924.27 1766.02 1592.94 1509.81 1166.49 1054.29 1041.97 2355.18 1038.11 977.971
threshold=162.50000000000003 123.50000000000001 185.50000000000003 91.107777034888244 193.50000000000003 146.50000000000003 35.821054160519189 55.952910058073257 175.50000000000003 97.875633145247846 21.121586765554198 86.500000000000014 66.230759045175915 85.747614439159165 0.45407752638983895 3.2277490332216021 95.272205053654901 2021.5000000000002 179.50000000000003 2023.5000000000002 29.165850900543308 154.50000000000003 12.573598496050833 2024.5000000000002 154.50000000000003 130.50000000000003 96.500000000000014 2020.5000000000002 198.50000000000003 169.50000000000003
decision_type=2 2 2 10 2 2 8 8 2 10 8 2 10 10 10 10 10 2 2 2 10 2 8 2 2 2 2 2 2 2
left_child=1 3 8 11 15 7 24 -3 10 16 29 -1 19 26 28 -4 -5 -8 22 -9 -12 -19 -10 25 -7 -14 -13 -28 -6 -2
right_child=2 5 4 9 14 6 17 12 18 -11 20 13 23 -15 -16 -17 -18 21 -20 -21 -22 -23 -24 -25 -26 -27 27 -29 -30 -31
leaf_value=0.12325261043328954 0.0081235180639200929 0.091026676619042374 -0.11159923854433933 0.11369408695619831 -0.17684103810314564 0.054304005069435321 -0.030774628306272204 0.0021292604913617924 -0.027852608411415077 0.21288249039565116 -0.041302872164280399 0.073265724854250036 0.03483162681196901 0.082697426567384172 -0.13443270200534993 -0.083725800928862212 0.14900096693643197 0.0002758445141009888 -0.061894798537600673 0.020113693637468014 -0.025748992606026783 -0.013254520683207777 -0.051996440627151932 0.0431638307593602 0.030773269597698969 0.020856872756038657 0.036473652612595331 0.05867645035993551 -0.22061929990337842 -0.012287281850079502
leaf_weight=3109 7365 5665 10913 9879 2951 5709 7178 23123 6020 1686 24703 4654 15331 18045 7173 23552 4356 30359 29923 17121 26250 31397 15974 12463 8230 19784 10080 31633 1227 7665
leaf_count=9 5 18 19 37 14 7 15 35 4 31 31 11 19 41 14 27 27 30 34 16 26 31 19 13 7 23 19 69 10 5
internal_value=-0.00148216 0.0342562 -0.0581956 0.0787537 -0.107967 0.0132029 -0.000789069 0.0256063 -0.0388542 0.133858 -0.0262275 0.0657605 0.0213863 0.0629855 -0.154774 -0.0925516 0.124498 -0.00912 -0.0549019 0.00978038 -0.0332898 -0.00660305 -0.045388 0.0312032 0.0404108 0.0269582 0.055314 0.0533111 -0.189698 -0.00228558
internal_weight=423518 259802 163716 83442 45816 176360 82873 93487 117900 15921 65983 67521 87822 64412 11351 34465 14235 68934 51917 40244 50953 61756 21994 47578 13939 35115 46367 41713 4178 15030
internal_count=666 458 208 244 84 214 90 124 124 95 67 149 106 140 38 46 64 76 57 51 57 61 23 55 14 42 99 88 24 10
is_linear=0
shrinkage=0.04


Tree=5
num_leaves=31
num_cat=0
split_feature=0 0 0 4 0 4 0 4 0 4 4 0 4 4 0 0 4 0 4 4 3 3 3 4 0 3 0 3 4 3
split_gain=468224 149876 87125 28437.2 24589.6 16205.7 15726 15317.6 11342 7062.59 6922.99 6859.47 5922.2 5551.38 4641.38 4182.2 3265.31 2935.02 2584.49 2290.9 1959.34 1717.12 1675.69 1558.52 1429.37 2858.1 1446.29 1373.59 1226.05 960.846
threshold=164.50000000000003 119.50000000000001 187.50000000000003 91.691880149089897 142.50000000000003 38.163452350935707 175.50000000000003 59.988262752042424 195.50000000000003 20.649890912157129 69.966440180002863 83.500000000000014 85.747614439159165 98.601275371032003 151.50000000000003 158.50000000000003 2.3987209813955395 182.50000000000003 0.20037028180149011 95.272205053654901 85350.000000000015 70010.500000000015 60434.000000000007 12.573598496050833 91.500000000000014 60434.000000000007 104.50000000000001 77611.000000000015 24.249401758715425 77611.000000000015
decision_type=2 2 2 10 2 8 2 8 2 8 10 2 10 10 2 2 10 2 10 10 2 2 2 8 2 2 2 2 10 2
left_child=1 3 6 11 7 15 9 -3 16 -2 20 -1 24 19 22 -6 -4 23 -10 -5 -9 -16 -7 -8 -13 26 -26 -12 -11 -14
right_child=2 4 8 13 5 14 17 10 18 28 27 12 29 -15 21 -17 -18 -19 -20 -21 -22 -23 -24 -25 25 -27 -28 -29 -30 -31
leaf_value=0.13671323372849875 -0.0033287377449198745 0.10168439909628521 -0.11848854223376135 0.1097003153545673 0.050077467027601304 -0.020538748001316779 -0.033220972963172828 0.0072569678205732851 -0.20153814279958451 -0.048349861880051359 0.024491219124635727 0.081861333816999449 0.06792444997725218 0.22317067695265055 -0.035055183220803844 0.014695386768184396 -0.090678283982511931 -0.066776566089381456 -0.14487737307172391 0.14288902992048189 0.024153507288551857 -0.011459409100063087 0.0067609486061788009 -0.052852579241546217 0.053357561581995359 0.062403183003507542 0.026609611592567299 0.041294815668735212 -0.030759594694777955 0.088124864989838264
leaf_weight=2227 16793 4456 11509 8125 10920 3987 8769 25098 1916 7764 10273 3174 5055 952 5546 10470 16354 21031 3930 5636 19522 44762 36823 24682 5987 22764 7035 32118 34565 14792
leaf_count=7 11 19 24 30 13 8 6 38 17 13 15 7 17 21 12 8 20 25 9 36 19 45 38 30 12 56 13 36 35 30
internal_value=0.00139502 0.0317907 -0.0563212 0.0798379 0.0139482 0.00142581 -0.0395646 0.0293513 -0.112793 -0.0252781 0.0256469 0.0678046 0.0651951 0.129756 -0.00592958 0.0327586 -0.102165 -0.0550677 -0.163448 0.123293 0.0146495 -0.0140606 0.00409386 -0.0477063 0.0561351 0.0538534 0.0389073 0.0372226 -0.033986 0.0829799
internal_weight=427035 279722 147313 75747 203975 112508 113604 91467 33709 59122 87011 61034 58807 14713 91118 21390 27863 54482 5846 13761 44620 50308 40810 33451 38960 35786 13022 42391 42329 19847
internal_count=670 480 190 229 251 124 120 127 70 59 108 142 135 87 103 21 44 61 26 66 57 57 46 36 88 81 25 51 48 47
is_linear=0
shrinkage=0.04


Tree=6
num_leaves=31
num_cat=0
split_feature=0 0 0 4 0 4 4 0 0 4 0 4 4 4 0 4 4 4 0 4 2 0 0 2 0 2 2 4 0 2
split_gain=431651 142108 76403 26207.7 24321.7 14541.9 14212.5 12783.1 10501.3 7817.71 6321.69 6293.62 5457.9 5116.15 5109.23 3451.49 3325.66 2153.78 2124.68 2081.58 1967.39 1653.19 1510.81 1361.61 1320.88 2814.77 1314.6 1308.43 1160.22 1053.02
threshold=165.50000000000003 119.50000000000001 187.50000000000003 91.691880149089897 145.50000000000003 36.539152725230174 57.069209930098289 176.50000000000003 194.50000000000003 69.966440180002863 83.500000000000014 19.671777602366731 85.747614439159165 98.601275371032003 163.50000000000003 0.20037028180149011 43.000560807999214 96.058847362529292 182.50000000000003 3.2277490332216021 2020.5000000000002 133.50000000000003 153.50000000000003 2024.5000000000002 92.500000000000014 2020.5000000000002 2024.5000000000002 24.249401758715425 105.50000000000001 2023.5000000000002
decision_type=2 2 2 10 2 8 8 2 2 10 2 8 10 10 2 10 10 10 2 10 2 2 2 2 2 2 2 10 2 2
left_child=1 3 7 10 6 14 -3 11 19 20 -1 -2 24 17 22 -10 29 -5 -9 -4 -8 -22 -6 -18 -12 28 -11 -13 -26 -7
right_child=2 4 8 13 5 16 9 18 15 26 12 27 -14 -15 -16 -17 23 -19 -20 -21 21 -23 -24 -25 25 -27 -28 -29 -30 -31
leaf_value=0.13124470582712805 -0.0062086937576488243 0.087385402855404151 -0.10621353107916438 0.1083899554102554 0.054544677331901166 -0.027516868380688737 -0.00027209844159573851 -0.04722090846980196 -0.19315922193322282 0.031418684309190384 0.076804496363589644 -0.046174987229505388 0.079660654364469743 0.21424384117126466 -0.0027916074356252808 -0.13283018609606501 -0.0073521927438763551 0.14347509053990348 -0.064105503970515246 -0.083269459159769785 0.050039847913638566 0.015366335144268663 0.029496115854217964 0.0068686230475858935 0.048947052431778167 0.059907055494341652 0.047232598368810524 -0.030642914526254245 0.024603230719300581 -0.011297923671686241
leaf_weight=2227 16885 5745 13605 9850 6066 15395 13473 27538 2001 30824 3648 12132 19847 952 6676 6277 39138 3911 21031 11826 2322 41917 10559 14864 6035 22764 11567 30479 6513 10968
leaf_count=7 11 19 24 39 8 26 25 30 18 38 8 18 47 21 5 14 43 27 25 14 6 43 9 12 12 56 13 31 12 9
internal_value=0.00133922 0.0296904 -0.0557058 0.0766444 0.0127149 -0.00105639 0.0262022 -0.0393057 -0.108282 0.0226909 0.0650924 -0.0268757 0.0625872 0.124566 0.0267663 -0.147413 -0.00912328 0.118361 -0.0545322 -0.095544 0.0131106 0.0171863 0.0386356 -0.00343793 0.0538897 0.0515224 0.0357337 -0.0350651 0.0363115 -0.0207692
internal_weight=427035 285261 141774 75747 209514 103666 105848 108065 33709 100103 61034 59496 58807 14713 23301 8278 80365 13761 48569 25431 57712 44239 16625 54002 38960 35312 42391 42611 12548 26363
internal_count=670 485 185 229 256 112 144 115 70 125 142 60 135 87 22 32 90 66 55 38 74 49 17 55 88 80 51 49 24 35
is_linear=0
shrinkage=0.04


Tree=7
num_leaves=31
num_cat=0
split_feature=0 0 0 5 0 0 0 5 5 5 5 0 5 5 2 5 5 0 5 5 2 5 0 5 2 0 2 0 5 0
split_gain=398158 103370 97250.4 21991.2 19665 14367.4 12658.7 19625.4 10790.1 9130.13 6161.33 5555.01 4715.04 4162.83 4146.23 3116.32 2622.54 2465.73 2673.97 1984.92 1707.46 1636.58 1505.04 1393.73 1367.35 1346.34 2359.67 1267.47 1261.88 1178.75
threshold=155.50000000000003 182.50000000000003 117.50000000000001 0.91691880149089888 191.50000000000003 169.50000000000003 135.50000000000003 0.45946430775775476 0.26996665116566604 0.64146095077239462 0.0020037028180149015 82.500000000000014 0.98601275371031993 0.86829449268954895 2022.5000000000002 0.5320146515380485 0.043745178453895833 175.50000000000003 0.16517730240768105 0.96058847362529287 2024.5000000000002 0.75087187147595325 195.50000000000003 0.12573598496050833 2024.5000000000002 90.500000000000014 2020.5000000000002 148.50000000000003 0.38672535432418709 102.50000000000001
decision_type=2 2 2 10 2 2 2 8 8 8 10 2 10 10 2 10 10 2 8 10 2 10 2 8 2 2 2 2 10 2
left_child=2 5 3 11 16 8 9 27 -2 -4 -6 -1 19 25 -11 -9 -3 18 -7 -5 28 -16 -12 -19 -17 -13 29 -8 -10 -27
right_child=1 4 6 12 10 17 7 15 20 14 22 13 -14 -15 21 24 -18 23 -20 -21 -22 -23 -24 -25 -26 26 -28 -29 -30 -31
leaf_value=0.13393557282692251 0.016753217412977767 -0.089472688539389986 0.11607457723872795 0.10405435615965558 -0.18029798059905092 -0.010332186426361595 0.070811490618596318 -0.0077122742538905378 -0.031584430218718047 0.015317012971254002 -0.10523669942943077 0.079733658535532451 0.20567409118684399 0.07926521377539493 0.03003884039572367 0.0052324423093659386 -0.064511279479978242 -0.030292333132430294 -0.035836920850449275 0.13773608877542409 -0.0087698706334968929 0.04536534473738417 -0.13376907278745229 -0.048857043527260509 0.019304226978852108 0.05266478022550472 0.060515281381571841 0.045004612972861846 -0.017107510974952906 0.027819256187670949
leaf_weight=1783 17532 8922 2055 9850 2462 9255 6100 26597 18093 20047 11959 3167 952 15905 23842 43423 27467 8769 22731 3911 17334 20936 3930 24682 14819 5399 21391 6080 20604 7038
leaf_count=6 13 15 15 39 21 6 13 35 26 33 20 7 21 39 25 48 30 6 26 27 13 25 9 30 13 11 55 7 23 13
internal_value=0.00128565 -0.041098 0.0364832 0.0761726 -0.0876569 -0.0227626 0.0196785 0.0104488 -0.0106336 0.0330674 -0.121417 0.0644926 0.119583 0.062152 0.030436 0.00363222 -0.0706314 -0.0363977 -0.0284572 0.113627 -0.0192029 0.0372048 -0.112294 -0.0439904 0.00881284 0.0547946 0.0524598 0.0579292 -0.0238763 0.0386049
internal_weight=427035 193740 233295 69396 54740 139000 163899 97019 73563 66880 18351 54683 14713 52900 64825 84839 36389 65437 31986 13761 56031 44778 15889 33451 58242 36995 33828 12180 38697 12437
internal_count=670 238 432 218 95 143 214 116 75 98 50 131 87 125 83 96 45 68 32 66 62 50 29 36 61 86 79 20 49 24
is_linear=0
shrinkage=0.04


Tree=8
num_leaves=31
num_cat=0
split_feature=0 0 0 4 0 0 4 0 4 4 4 2 0 4 4 4 2 0 0 2 4 0 4 0 2 0 2 0 0 0
split_gain=367247 101020 83708.3 20349.9 17300.4 15856.7 16585.4 10575 9064.69 6111.86 5199.18 5102.29 4886.37 5177.82 3865.44 3754.66 2875.32 2565.7 2175.77 2098.44 1892.55 1841.24 1650.82 1367.7 1315.03 1240.78 2174.67 1221.4 1173.67 1090.43
threshold=159.50000000000003 117.50000000000001 186.50000000000003 92.994217122208752 173.50000000000003 139.50000000000003 41.087389068527983 193.50000000000003 24.249401758715425 64.146095077239465 73.358492832294601 2023.5000000000002 82.500000000000014 86.829449268954889 0.20037028180149011 98.601275371032003 2020.5000000000002 180.50000000000003 149.50000000000003 2022.5000000000002 13.825480718324149 189.50000000000003 30.530147899650675 166.50000000000003 2022.5000000000002 90.500000000000014 2020.5000000000002 150.50000000000003 91.500000000000014 101.50000000000001
decision_type=2 2 2 10 2 2 8 2 8 8 10 2 2 10 10 10 2 2 2 2 8 2 10 2 2 2 2 2 2 2
left_child=1 3 4 12 8 9 27 21 23 11 19 -3 -1 25 -9 24 -8 20 -18 -11 -6 -4 -10 -2 -5 -14 29 -7 -26 -27
right_child=2 5 7 15 17 6 16 14 22 10 -12 -13 13 -15 -16 -17 18 -19 -20 -21 -22 -23 -24 -25 28 26 -28 -29 -30 -31
leaf_value=0.12857815511963439 0.017741173363574649 0.10105145556055858 -0.070322293575930214 0.096353173678101298 -0.022228082549248948 0.05993710667369552 -0.021814876786207429 -0.17730509196879213 -0.03424747148383081 0.006714587108271235 0.038148602331310441 0.020739946749072313 0.076544310097292401 0.078312289013996436 -0.11746581009403569 0.19744712180450183 0.008236115727020708 -0.054920130550775631 -0.0052153682539234662 0.024608606900112472 -0.043391928613036493 -0.091658725578797937 -0.019663176889915538 -0.0030714350555142537 0.14516666901137204 0.05174013470747732 0.058094669862948436 0.036004174495338569 0.11125415331111606 0.027504353565665239
leaf_weight=1783 9506 3340 11355 3987 9004 5965 9279 2133 18663 17673 34385 2038 3167 18956 9079 952 39926 24335 37133 25784 27132 15046 37110 10782 2794 4904 21391 7971 3929 7533
leaf_count=6 7 19 15 19 6 10 19 19 25 30 43 2 7 48 19 21 41 28 37 26 32 22 37 7 22 10 55 8 16 14
internal_value=0.00123422 0.0320163 -0.0434668 0.0731257 -0.0289109 0.016469 0.00575689 -0.0963037 -0.016215 0.0293763 0.026527 0.0706173 0.0633905 0.0613131 -0.12885 0.121321 -0.000778885 -0.0448799 0.00175415 0.0173315 -0.0381185 -0.082482 -0.0245434 0.00668037 0.114554 0.0526029 0.0503614 0.0462481 0.125348 0.0370607
internal_weight=427035 252890 174145 69396 136532 183494 100274 37613 76061 83220 77842 5378 57734 55951 11212 11662 86338 60471 77059 43457 36136 26401 55773 20288 10710 36995 33828 13936 6723 12437
internal_count=670 453 217 218 142 235 115 75 76 120 99 21 140 134 38 78 97 66 78 56 38 37 62 14 57 86 79 18 38 24
is_linear=0
shrinkage=0.04


Tree=9
num_leaves=31
num_cat=0
split_feature=1 1 1 4 4 1 4 1 4 4 4 1 2 1 4 4 2 1 2 2 1 2 1 1 1 4 1 1 2 1
split_gain=338555 89983.8 80135.4 18767.8 13692.9 13413 15849.1 13203.7 7612.51 5632.69 4791.57 4787.69 4702.27 4254.79 4072.87 3370.72 2463.62 2221.68 1933.92 1738.21 1535.69 1866.32 1491.18 1416.45 1280.75 1535.31 1260.47 1155.23 1151.46 1067.53
threshold=158.50000000000003 117.50000000000001 184.50000000000003 91.691880149089897 1.9373990399113621 139.50000000000003 42.44555576458459 173.50000000000003 24.249401758715425 64.146095077239465 73.358492832294601 81.500000000000014 2023.5000000000002 197.50000000000003 97.360699709434058 86.829449268954889 2021.5000000000002 189.50000000000003 2022.5000000000002 2020.5000000000002 89.500000000000014 2020.5000000000002 150.50000000000003 165.50000000000003 179.50000000000003 13.825480718324149 166.50000000000003 101.50000000000001 2022.5000000000002 93.500000000000014
decision_type=2 2 2 10 10 2 8 2 8 8 10 2 2 2 10 10 2 2 2 2 2 2 2 2 2 8 2 2 2 2
left_child=1 3 7 11 13 9 -7 8 26 12 18 -1 -3 -4 28 20 -8 -6 -11 -10 -13 27 -18 -21 25 -9 -2 -22 -5 -30
right_child=2 5 4 14 17 6 16 24 19 10 -12 15 -14 -15 -16 -17 22 -19 -20 23 21 -23 -24 -25 -26 -27 -28 -29 29 -31
leaf_value=0.1341154987942024 0.017031526090018807 0.097009397952142584 -0.10866832338455967 0.083262095936094224 -0.061657858815448212 0.04686466138623132 -0.020348488445924812 -0.019715591270344297 -0.043226855698155715 0.0064460037171871019 0.036622657712642684 0.077696178180998263 0.019910348998903645 -0.17453803164560466 0.15647488564288178 0.072962113956953886 0.0066916446264991174 -0.083892537986555049 0.023624262891124945 -0.013340165275070067 0.050695901406162584 0.055770883496427011 -0.0050237531050116614 -0.026063371408525892 -0.048208524977538421 -0.040529572583890713 -0.0029485777166950704 0.026404179763338191 0.13005924670542296 0.099230734800681092
leaf_weight=1339 9506 3340 14130 4043 18772 13183 8842 7519 5534 17673 34385 3153 2038 1765 2531 15905 43559 11654 25784 27887 5362 21391 28928 28114 21182 23062 10782 7533 2679 5460
leaf_count=5 7 19 35 17 21 18 18 5 13 30 43 7 2 14 34 39 44 15 26 27 11 55 29 28 24 27 7 14 17 19
internal_value=0.00118485 0.0315731 -0.0405578 0.0702006 -0.0858934 0.0164909 0.00617964 -0.0248376 -0.0148353 0.0282012 0.0254659 0.0594106 0.0677926 -0.115983 0.110303 0.0575354 -0.000415192 -0.0701744 0.0166382 -0.0218409 0.0509817 0.048525 0.00201628 -0.0197276 -0.0406485 -0.035412 0.00641316 0.0365052 0.100711 0.109378
internal_weight=427035 247128 179907 69396 46321 177732 94512 133586 81823 83220 77842 54683 5378 15895 14713 53344 81329 30426 43457 61535 37439 34286 72487 56001 51763 30581 20288 12895 12182 8139
internal_count=670 447 223 218 85 229 109 138 82 120 99 131 21 49 87 126 91 36 56 68 87 80 73 55 56 32 14 25 53 36
is_linear=0
shrinkage=0.04


Tree=10
num_leaves=31
num_cat=0
split_feature=0 0 0 4 0 0 4 0 4 4 4 0 4 4 4 0 0 2 4 0 2 2 2 4 0 4 2 2 0 2
split_gain=321180 77056.9 76107.3 16515.9 13431.6 12704 13645.9 11460.7 10244.5 8070.31 4564.86 4187.21 3968.17 3506.37 3122.28 2804.48 2214.35 2067.02 1945.99 1280.19 1532.44 1259.04 1258.87 1174.24 1118.77 1116.02 1086.81 939.185 930.899 879.739
threshold=158.50000000000003 115.50000000000001 184.50000000000003 92.667374342796265 193.50000000000003 139.50000000000003 42.44555576458459 171.50000000000003 63.56766250074903 25.69482819224336 75.087187147595316 81.500000000000014 97.360699709434058 87.182048330658304 0.20037028180149011 189.50000000000003 178.50000000000003 2023.5000000000002 15.157520361052937 90.500000000000014 2020.5000000000002 2024.5000000000002 2020.5000000000002 54.665031061887255 149.50000000000003 10.217424132221167 2022.5000000000002 2022.5000000000002 165.50000000000003 2022.5000000000002
decision_type=2 2 2 10 2 2 8 2 8 8 10 2 10 10 10 2 2 2 8 2 2 2 2 10 2 8 2 2 2 2
left_child=1 3 7 11 15 8 24 9 -3 28 22 -1 26 19 -6 -4 18 23 -9 -13 -21 -11 -10 -8 -7 -18 -5 -12 -2 -15
right_child=2 5 4 12 14 6 17 16 10 21 27 13 -14 29 -16 -17 25 -19 -20 20 -22 -23 -24 -25 -26 -27 -28 -29 -30 -31
leaf_value=0.12875088353402764 0.019021703272566602 0.094306945126732045 -0.062142134654152213 0.08264973389037554 -0.16307870472039537 0.058899923952623834 -0.014229014880146757 -0.015179116452282882 0.0060555530329873602 -0.02462174467498493 0.02578788561698718 0.071786846589435183 0.15979952085986215 0.056831318825434227 -0.11110251496211521 -0.084703861529155364 -0.032130581046547542 0.0067251023400316948 -0.035216634698372488 0.035864777666719479 0.054405827530775587 -0.011337988150564993 0.021543003570065791 0.00012533329852869985 0.035077827131734608 -0.049511834244237038 0.10991131967528882 0.041949253240485575 0.00099808419014345198 0.07678643513195621
leaf_weight=1339 9159 3622 21183 3672 2418 4926 17086 10743 10471 38360 7683 3614 2155 4856 7861 15098 8398 38253 27880 12376 16834 16253 42402 19553 8770 19955 6449 22906 9181 12992
leaf_count=5 7 21 27 17 19 9 26 7 19 48 12 8 34 16 17 22 6 34 31 24 46 12 49 23 9 25 30 28 6 29
internal_value=0.0007096 0.0313123 -0.0386674 0.0687825 -0.0829664 0.0176 0.00693505 -0.0239274 0.0284492 -0.0129588 0.0255912 0.0589327 0.110514 0.0570877 -0.123329 -0.071531 -0.0358748 0.000221506 -0.0296432 0.0493288 0.0465502 -0.0206685 0.0184759 -0.00656858 0.0436459 -0.0443636 0.100021 0.03789 0.00999908 0.0713571
internal_weight=426448 239959 186489 64287 46560 175672 88588 139929 87084 72953 83462 52011 12276 50672 10279 36281 66976 74892 38623 32824 29210 54613 52873 36639 13696 28353 10121 30589 18340 17848
internal_count=666 439 227 209 85 230 101 142 129 73 108 128 81 123 36 49 69 83 38 78 70 60 68 49 18 31 47 40 13 45
is_linear=0
shrinkage=0.04


Tree=11
num_leaves=31
num_cat=0
split_feature=0 0 0 4 0 4 0 0 4 4 4 0 4 4 4 4 0 3 0 3 4 3 3 0 4 0 3 3 4 3
split_gain=295999 71018.6 70140.5 14455 12546.3 12576 12378.5 10623.2 9269.16 5507.28 4808.16 3541.5 3977.8 3065.21 2877.5 2645.27 2060.55 1904.96 1555.63 1151.04 1108.78 1421.27 1091.84 1595.75 1082.18 1040.87 991.681 898.314 815.936 794.876
threshold=158.50000000000003 114.50000000000001 184.50000000000003 93.590783887856858 139.50000000000003 42.44555576458459 193.50000000000003 174.50000000000003 63.56766250074903 24.249401758715425 75.087187147595316 82.500000000000014 88.286465247460754 97.360699709434058 0.20037028180149011 4.3745178453895841 168.50000000000003 85350.000000000015 165.50000000000003 60434.000000000007 23.362422837730509 70010.500000000015 77611.000000000015 96.500000000000014 54.665031061887255 150.50000000000003 77611.000000000015 77611.000000000015 55.26570765842709 77611.000000000015
decision_type=2 2 2 10 2 8 2 2 8 8 10 2 10 10 10 10 2 2 2 2 8 2 2 2 10 2 2 2 10 2
left_child=1 3 7 11 8 25 15 9 28 16 19 -1 22 29 -8 -4 -2 24 -11 -10 21 -9 23 -13 -7 -6 -12 -14 -3 -5
right_child=2 4 6 13 5 17 14 20 10 18 26 12 27 -15 -16 -17 -18 -19 -20 -21 -22 -23 -24 -25 -26 -27 -28 -29 -30 -31
leaf_value=0.1140497536480059 0.012837749474822588 0.080996256257158755 -0.081563176890122657 0.083037782817793601 0.054890118416715705 -0.01365985401059347 -0.15655556242558658 -0.025470271027512301 0.0062688027999642437 -0.01434261839013988 0.025144104232723501 0.06048057520725636 0.058364660328259377 0.15340753927916773 -0.10665841269896482 -0.059621970114072761 -0.010518806608810641 0.0064560983356324953 -0.026699065715140673 0.020780847658758612 -0.056840789781043947 -0.040592437067005528 0.05804720053357687 0.036023990928156037 0.00012031995383807779 0.032539310627846263 0.041121374046963019 0.079388483858656614 0.12832244873046875 0.10929740922563187
leaf_weight=1783 12559 2892 14961 2924 5736 17086 2418 14531 11015 31492 8269 6030 4593 2155 7861 21320 11649 38253 33797 42432 4398 31503 12772 14614 19553 7960 25031 11136 730 4995
leaf_count=6 9 13 25 14 10 26 19 10 20 34 13 17 16 34 17 24 8 34 38 50 10 33 21 42 23 8 31 28 8 25
internal_value=0.000681216 0.0300598 -0.0371207 0.0673315 0.0173548 0.00665765 -0.0796478 -0.0229703 0.027841 -0.0146969 0.0252233 0.0586715 0.0566623 0.111111 -0.118396 -0.0686697 0.00159847 0.000212646 -0.020739 0.01779 -0.0376522 -0.035819 0.0488548 0.0431676 -0.00630584 0.0419 0.0371539 0.0732494 0.0905347 0.0996013
internal_weight=426448 239959 186489 61002 178957 88588 46560 139929 90369 89497 86747 50928 49145 10074 10279 36281 24208 74892 65289 53447 50432 46034 33416 20644 36639 13696 33300 15729 3622 7919
internal_count=666 439 227 203 236 101 85 142 135 89 114 130 124 73 36 49 17 83 72 70 53 43 80 59 49 18 44 44 21 39
is_linear=0
shrinkage=0.04


Tree=12
num_leaves=31
num_cat=0
split_feature=0 0 0 4 0 0 0 4 4 4 0 4 0 4 4 0 2 0 4 2 2 4 4 2 2 4 4 2 4 2
split_gain=272959 68185.6 62094.1 17220.6 11408.1 8958.75 8508.67 10243.6 9856.22 4951.93 4531.38 4373.03 3186.62 2651.9 2617.98 2441.9 1710.33 1527.14 1548.75 4061.39 1439.97 1359 1326.07 1154.64 1114.46 1033.4 1001.27 1260.61 953.471 923.824
threshold=159.50000000000003 120.50000000000001 184.50000000000003 89.663164811682464 193.50000000000003 175.50000000000003 143.50000000000003 38.672535432418712 58.969554386603825 96.058847362529292 84.500000000000014 24.249401758715425 171.50000000000003 0.20037028180149011 70.96102828335718 189.50000000000003 2022.5000000000002 98.500000000000014 81.676819296877525 2021.5000000000002 2024.5000000000002 26.061798007920462 99.078740516428169 2024.5000000000002 2022.5000000000002 84.918987836508293 7.2973348149512054 2021.5000000000002 51.412475284179251 2024.5000000000002
decision_type=2 2 2 10 2 2 2 8 8 10 2 8 2 10 10 2 2 2 8 2 2 10 10 2 2 10 10 2 10 2
left_child=1 3 5 10 15 11 8 -8 -3 24 -1 12 -2 -6 23 -4 17 -12 19 -19 28 -13 -11 -10 -5 -18 -7 -28 -9 -16
right_child=2 6 4 9 13 26 7 20 14 22 16 21 -14 -15 29 -17 25 18 -20 -21 -22 -23 -24 -25 -26 -27 27 -29 -30 -31
leaf_value=0.10350057028953302 0.0082513093382681653 0.075871364364280561 -0.057162025090413744 0.064423087639656915 -0.15029334005982153 -0.055973880669823388 0.036022900267312218 -0.013653700687355989 0.0093234548498277569 0.11911479658462676 0.054932244395332418 -0.033293038728089377 -0.01884730466234167 -0.10239207655126972 0.023479661529438204 -0.078214838106532125 0.045516250610351562 0.15940917437766497 0.029608623949477515 0.02788463909364618 0.0064755911579622407 -0.018536218193046353 0.18544626444036311 0.023612368313021315 0.086875851278367597 0.060870249029741974 -0.024357704821928047 -0.039915025578134637 -0.001820106010661556 0.038905302706441984
leaf_weight=2227 17196 5109 21183 5185 2418 4204 13067 18689 37769 3913 6631 12633 11645 7861 27308 15098 16160 546 19149 1204 18633 47639 550 11899 11129 12392 11664 29186 26120 8041
leaf_count=7 12 21 27 21 19 9 15 26 50 31 20 20 9 17 34 22 22 19 37 2 15 47 17 11 37 22 8 31 29 9
internal_value=0.000653967 0.0280992 -0.0366612 0.0586849 -0.0764619 -0.0228492 0.013583 0.00377283 0.021911 0.0899536 0.047543 -0.0154997 -0.00269018 -0.11366 0.0186683 -0.065923 0.0453209 0.0382071 0.0329004 0.0689203 -0.00286964 -0.0216292 0.127289 0.0127467 0.0797398 0.0521801 -0.0373859 -0.0354729 -0.00675568 0.0269886
internal_weight=426448 245721 180727 79086 46560 134167 166635 76509 90126 20777 58309 89113 28841 10279 85017 36281 56082 27530 20899 1750 63442 60272 4463 49668 16314 28552 45054 40850 44809 35349
internal_count=666 445 221 235 85 136 210 85 125 106 129 88 21 36 104 49 122 78 58 21 70 67 48 61 58 44 48 39 55 43
is_linear=0
shrinkage=0.04


Tree=13
num_leaves=31
num_cat=0
split_feature=1 1 1 4 4 1 1 4 4 4 1 4 4 1 4 1 1 2 2 4 2 1 4 2 2 2 1 2 1 4
split_gain=251559 62839.8 57225.9 15930.1 10549.7 8256.51 7841.59 9440.51 9083.49 5281.44 3799.69 3483.09 3432.78 2728.26 2425.63 2246.06 1814.59 1331.25 1272.88 1020.16 1009.82 1001.44 982.19 962.551 813.899 808.082 789.118 1525.33 784.315 751.068
threshold=159.50000000000003 120.50000000000001 184.50000000000003 92.078861255502048 1.3226208620340427 174.50000000000003 143.50000000000003 38.672535432418712 58.969554386603825 24.249401758715425 84.500000000000014 97.360699709434058 85.747614439159165 197.50000000000003 69.230259920783269 190.50000000000003 167.50000000000003 2023.5000000000002 2024.5000000000002 28.457507110889228 2024.5000000000002 179.50000000000003 13.206683224155835 2024.5000000000002 2022.5000000000002 2022.5000000000002 92.500000000000014 2020.5000000000002 105.50000000000001 9.4096126426056568
decision_type=2 2 2 10 10 2 2 8 8 8 2 10 10 2 10 2 2 2 2 10 2 2 8 2 2 2 2 2 2 8
left_child=1 3 5 10 13 9 8 -8 -3 16 -1 24 26 -4 20 -6 -2 -9 19 -11 -10 22 -7 -16 -5 -14 -12 28 -28 -23
right_child=2 6 4 11 15 21 7 17 14 18 12 -13 25 -15 23 -17 -18 -19 -20 -21 -22 29 -24 -25 -26 -27 27 -29 -30 -31
leaf_value=0.099360547830130305 0.013453959358584218 0.072836510028641249 -0.096149222812421872 0.0720944371832625 -0.055252213818728572 -0.017323287861053308 0.034581983867997629 -0.0086284278152315864 0.0079772306589243943 -0.03438931161692408 0.057293800473115247 0.14182948232416212 0.046811920140392135 -0.14554069741876466 0.021665104693561213 -0.078032200389296216 -0.0085299750882940895 0.0029612536930450606 -0.011583571342572775 -0.020521265131011927 0.022024006749121951 -0.029977185721371372 -0.034233180274459568 0.036431313581366954 0.094155102290292877 0.064190370375595038 0.037071663545909343 0.043801901392889669 0.017844269745344143 -0.045740884471102236
leaf_weight=2227 11065 5109 10499 4086 24203 7569 13067 31290 33337 11804 3651 2155 5955 2157 31740 9701 13143 32152 17520 30203 10855 6962 20065 9085 7753 15230 6537 24431 7061 15836
leaf_count=7 8 21 29 19 27 5 15 42 45 20 8 34 19 14 39 15 9 28 13 33 10 5 23 10 34 31 13 57 13 20
internal_value=0.000627808 0.0269752 -0.0351948 0.0563375 -0.0734034 -0.0219352 0.0130397 0.00362192 0.0210345 -0.0142344 0.0480136 0.0950554 0.0461946 -0.104567 0.0179216 -0.0617703 0.00151845 -0.00275485 -0.0206407 -0.0244182 0.0114276 -0.0347213 -0.0296015 0.0249511 0.0865413 0.0593054 0.0395307 0.0378253 0.0270875 -0.040927
internal_weight=426448 245721 180727 79086 46560 134167 166635 76509 90126 83735 65092 13994 62865 12656 85017 33904 24208 63442 59527 42007 44192 50432 27634 40825 11839 21185 41680 38029 13598 22798
internal_count=666 445 221 235 85 136 210 85 125 83 148 87 141 43 104 42 17 70 66 53 55 53 28 49 53 50 91 83 26 25
is_linear=0
shrinkage=0.04


Tree=14
num_leaves=31
num_cat=0
split_feature=0 0 0 4 0 0 4 4 0 4 0 4 4 4 0 0 2 4 0 2 4 2 4 0 2 2 4 2 0 2
split_gain=231925 60188.4 50484.5 14751.7 9845.1 8022.69 9221.59 8371.35 6932.85 4270.64 3862.58 3748.84 3107.05 2244.15 1395.67 1365.63 1361.61 1320.19 1301.98 1177.2 1171.31 1095.94 1006.2 1004.25 980.828 955.033 916.928 1061.53 824.195 784.834
threshold=160.50000000000003 120.50000000000001 184.50000000000003 89.663164811682464 192.50000000000003 143.50000000000003 38.672535432418712 58.969554386603825 175.50000000000003 96.058847362529292 81.500000000000014 22.678872490947061 0.45407752638983895 70.96102828335718 189.50000000000003 168.50000000000003 2024.5000000000002 84.918987836508293 91.500000000000014 2020.5000000000002 99.078740516428169 2020.5000000000002 51.412475284179251 165.50000000000003 2023.5000000000002 2022.5000000000002 7.2973348149512054 2021.5000000000002 103.50000000000001 2024.5000000000002
decision_type=2 2 2 10 2 2 8 8 2 10 2 8 10 10 2 2 2 10 2 2 10 2 10 2 2 2 10 2 2 2
left_child=1 3 8 10 14 7 -7 -3 11 25 -1 15 -6 24 -4 -2 22 18 -12 28 -11 -13 -8 -23 -9 -5 -10 -28 -20 -15
right_child=2 5 4 9 12 6 16 13 26 20 17 21 -14 29 -16 -17 -18 -19 19 -21 -22 23 -24 -25 -26 -27 27 -29 -30 -31
leaf_value=0.11092441433485629 0.0097480437165458483 0.069923050067130316 -0.052541971199911927 0.059360469453934882 -0.13039370457588534 0.032074074937641604 -0.013161439961095547 0.0063888665224893053 -0.05226392838526181 0.11001424553995696 0.059609591213099632 -0.038091011975201455 -0.087424361355342789 0.021673871279635888 -0.069689968835463662 -0.00983904559652456 0.0055646942191375304 0.05139646268229054 0.038016687081379556 0.041602802135470907 0.17235523314042525 -0.011507982147774369 -0.0015500972822285722 -0.02273688441375097 0.017646512519132823 0.080145325864225792 -0.022445544751746826 -0.036721672225928099 0.018424402339898633 0.03589183862878529
leaf_weight=1339 10068 5109 21183 5185 3708 14345 21997 26138 4204 3913 4065 5057 9831 27308 11838 13113 19977 17346 5958 21487 550 20087 26120 34858 23530 11129 11664 29186 8114 8041
leaf_count=5 7 21 27 21 23 16 30 38 9 31 9 12 19 34 16 9 16 37 12 51 17 19 29 35 23 37 8 31 15 9
internal_value=0.000602696 0.0251876 -0.0347916 0.054084 -0.0704673 0.0119445 0.00292662 0.0201932 -0.0218385 0.0830246 0.0437717 -0.0149938 -0.0991926 0.0172047 -0.0586895 -0.00133196 -0.00321372 0.0421933 0.0381645 0.035713 0.117697 -0.0202718 -0.0068583 -0.0186318 0.0117221 0.0735394 -0.034476 -0.0326454 0.0267197 0.0249081
internal_weight=426448 251651 174797 79086 46560 172565 82439 90126 128237 20777 58309 83183 13539 85017 33021 23181 68094 56970 39624 35559 4463 60002 48117 54945 49668 16314 45054 40850 14072 35349
internal_count=666 451 215 235 85 216 91 125 130 106 129 82 42 104 43 16 75 124 87 78 48 66 59 54 61 58 48 39 27 43
is_linear=0
shrinkage=0.04


Tree=15
num_leaves=31
num_cat=0
split_feature=0 0 0 0 5 5 0 5 5 2 2 0 0 0 0 5 2 2 5 2 2 0 5 0 2 0 0 5 0 0
split_gain=220885 56907 51055.7 10712.4 10705.2 8546.55 8280.69 7874.38 5543.87 2828.79 2588.97 2481.18 2240.06 2014.75 2001.21 1975.16 3534.39 1907.74 1751.72 1676.93 1805.7 1649.88 1438.97 1112.48 923.776 922.357 888.547 844.341 784.189 697.73
threshold=156.50000000000003 185.50000000000003 113.50000000000001 172.50000000000003 0.92667374342796272 0.010542470921871178 132.50000000000003 0.45121350814015043 0.26996665116566604 2020.5000000000002 2020.5000000000002 81.500000000000014 197.50000000000003 142.50000000000003 166.50000000000003 0.70961028283357186 2023.5000000000002 2022.5000000000002 0.98601275371031993 2020.5000000000002 2021.5000000000002 190.50000000000003 0.30530147899650678 99.500000000000014 2022.5000000000002 122.50000000000001 91.500000000000014 0.89005754136077708 180.50000000000003 149.50000000000003
decision_type=2 2 2 2 10 10 2 8 8 2 2 2 2 2 2 10 2 2 10 2 2 2 10 2 2 2 2 10 2 2
left_child=2 3 4 8 11 12 9 29 14 -4 -9 -1 -3 -12 -2 16 -11 23 24 -5 -21 -7 -10 -13 -6 -17 -26 -19 -22 -8
right_child=1 5 6 19 18 21 7 10 22 15 13 17 -14 -15 -16 25 -18 27 -20 20 28 -23 -24 -25 26 -27 -28 -29 -30 -31
leaf_value=0.10427564062195055 0.016077320324727789 -0.091316083530263423 0.0068795194605411319 -0.05633095623913674 0.071062141343827892 -0.053062214221919854 0.049684636428467759 -0.013113212362527955 -0.027405453366629983 0.10263011621064014 0.01421435321660206 0.051344891281775829 -0.13222047901355471 0.0014747672973392059 -0.0061662360831547351 0.034749427621195372 0.023220745503661121 0.051103585405697628 0.13927817204998938 -0.020303841712768146 -0.030647649422132568 -0.071756999006689651 -0.013484340178395858 0.032864567628986374 0.11202099426290102 0.023990504828029155 0.084615795305477859 0.067748725712763802 -0.042139924060611053 0.030406449696635876
leaf_weight=1321 12938 8774 9330 4315 3987 17696 5598 11123 16045 1642 37616 8714 2834 42084 12948 22641 1976 13295 1113 18833 23113 13178 45769 12968 2967 29181 5229 7700 16130 6482
leaf_count=4 10 26 17 12 19 20 11 22 25 17 41 28 17 42 9 31 2 23 19 13 24 20 46 37 24 35 21 19 18 7
internal_value=0.000273936 -0.0311714 0.0271913 -0.0196031 0.05979 -0.0720428 0.0160523 0.00899995 -0.0105897 0.0272567 0.00496452 0.0502851 -0.101303 0.00748747 0.00495125 0.030686 0.05926 0.0486139 0.0912428 -0.0322727 -0.0304852 -0.0610417 -0.0170978 0.0402918 0.0868544 0.0286911 0.0945366 0.0572083 -0.0353713 0.0393402
internal_weight=417540 192573 224967 150091 57294 42482 167673 102903 87700 64770 90823 43998 11608 79700 25886 55440 3618 42677 13296 62391 58076 30874 61814 21682 12183 51822 8196 20995 39243 12080
internal_count=659 240 419 157 194 83 225 123 90 102 105 111 43 83 19 85 19 107 83 67 55 40 71 65 64 66 45 42 42 18
is_linear=0
shrinkage=0.04


Tree=16
num_leaves=31
num_cat=0
split_feature=0 0 0 4 0 4 0 4 4 4 2 0 0 2 0 4 2 4 0 2 4 2 0 4 2 2 0 4 2 0
split_gain=203619 51094.8 48379.4 10468.7 9344.08 7876.5 7410.15 7061.78 4737.43 2570.05 2409.1 2357.52 2104.63 1849.42 1810.1 1764.3 3124.03 1614.39 1520.53 1472.88 1405.5 1472.33 1151.53 999.541 963.39 959.213 1100.58 896.933 851.352 818.885
threshold=157.50000000000003 185.50000000000003 114.50000000000001 92.667374342796265 173.50000000000003 1.0542470921871179 132.50000000000003 44.556838652021703 26.061798007920462 56.518575730820743 2020.5000000000002 81.500000000000014 196.50000000000003 2022.5000000000002 167.50000000000003 70.96102828335718 2023.5000000000002 98.601275371032003 190.50000000000003 2023.5000000000002 5.6293682638154445 2021.5000000000002 99.500000000000014 34.996963846118284 2024.5000000000002 2020.5000000000002 148.50000000000003 89.005754136077698 2022.5000000000002 91.500000000000014
decision_type=2 2 2 10 2 10 2 8 8 10 2 2 2 2 2 10 2 10 2 2 10 2 2 10 2 2 2 10 2 2
left_child=2 4 3 11 8 12 10 -8 14 25 -4 -1 -3 22 -2 16 -12 28 -7 23 -6 -22 -13 -10 -11 -9 -27 -15 -5 -30
right_child=1 5 6 17 20 18 7 9 19 24 15 13 -14 27 -16 -17 -18 -19 -20 -21 21 -23 -24 -25 -26 26 -28 -29 29 -31
leaf_value=0.10010460901946212 0.013423751491919735 -0.083116038025275271 0.0062295422563255036 0.068219656464686987 -0.05491717481237697 -0.050939727286533676 0.035949565003320222 -0.013060910869547597 -0.029844111098428314 0.0066856399269159261 0.09740469033513241 0.049291095781796898 -0.11777433591197198 0.048316995639192548 -0.0075852365638763687 0.026890580406754429 0.022291914596248734 0.13370704649165205 -0.068886718564736202 -0.01061010018514291 -0.020548336991771846 -0.034728361819967794 0.030813491356226491 -0.015897876036732709 0.01846034099714745 0.023392983288123302 -0.0021362970560786709 0.065038775396966314 0.10754015586655027 0.081231161859118037
leaf_weight=1321 13363 6874 8774 3987 3937 17696 12918 11566 16666 39351 1606 8714 4734 15391 12892 49112 1976 1113 13178 29106 17292 36331 14174 16230 15496 3032 24814 7700 2967 5229
leaf_count=4 10 20 16 19 11 20 18 23 28 44 16 28 23 26 9 62 2 19 20 24 12 39 40 19 14 5 24 19 24 21
internal_value=0.000262979 -0.0305577 0.0255791 0.0562346 -0.019311 -0.0691611 0.0145643 0.00821444 -0.0111337 0.0044134 0.0256359 0.0474198 -0.0972505 0.0459061 0.0031077 0.0288673 0.0559689 0.087593 -0.0586001 -0.0171643 -0.0318493 -0.0301557 0.0378484 -0.0229634 0.0100124 -0.00337829 0.000643448 0.0538931 0.0833802 0.0907552
internal_weight=417540 188299 229241 60596 145817 42482 168645 107177 88257 94259 61468 47300 11608 45979 26255 52694 3582 13296 30874 62002 57560 53623 22888 32896 54847 39412 27846 23091 12183 8196
internal_count=659 235 424 200 152 83 224 128 90 110 96 117 43 113 19 80 18 83 40 71 62 51 68 47 58 52 29 45 64 45
is_linear=0
shrinkage=0.04


Tree=17
num_leaves=31
num_cat=0
split_feature=0 0 0 0 4 4 0 4 4 0 3 3 0 0 0 4 3 3 4 0 4 4 3 0 3 4 4 0 0 3
split_gain=187710 48313.5 43383.7 9116.39 9083.94 7258.98 7010.85 6721.73 4052.42 2440.25 2410.72 2195.37 2105.88 1951.82 1787.67 1684.42 3010.4 1620.58 1512.79 1402.47 1385.74 1295.3 1356.9 988.05 871.228 714.365 690.87 688.754 644.875 618.43
threshold=156.50000000000003 185.50000000000003 113.50000000000001 173.50000000000003 92.667374342796265 1.0542470921871179 132.50000000000003 45.121350814015052 26.996665116566604 168.50000000000003 60434.000000000007 60434.000000000007 81.500000000000014 197.50000000000003 141.50000000000003 70.96102828335718 85350.000000000015 77611.000000000015 97.144450972744977 191.50000000000003 30.530147899650675 5.6293682638154445 70010.500000000015 91.500000000000014 96731.500000000015 89.005754136077698 99.078740516428169 122.50000000000001 149.50000000000003 96731.500000000015
decision_type=2 2 2 2 10 10 2 8 8 2 2 2 2 2 2 10 2 2 10 2 10 10 2 2 2 10 10 2 2 2
left_child=2 3 4 8 12 13 10 28 9 -2 -4 -9 -1 -3 -13 16 -12 23 -6 -7 -10 -5 -23 -14 27 -19 -20 -17 -8 -16
right_child=1 5 6 21 18 19 7 11 20 -11 15 14 17 -15 29 24 -18 25 26 -21 -22 22 -24 -25 -26 -27 -28 -29 -30 -31
leaf_value=0.096100429965184558 0.012504215599500428 -0.084038591874007196 0.0062965562080391484 -0.052720487447810827 0.076291678815114297 -0.050211634844335579 0.046285827571300578 -0.012066247541034414 -0.025710819025623145 -0.010563024059509459 0.094687123083748867 0.01390280838943137 0.055974811986974765 -0.12222068652016392 -0.0015628360839452912 0.029220428299448892 0.021400239149085905 0.047126760860814687 0.099810766993669753 -0.068280554549071698 -0.01239664672979583 -0.019726403523395934 -0.033339227770522679 0.033277251326644025 0.035676884803415229 0.062437224628398943 0.15098496433227293 0.018615903813849539 0.027752209468889812 0.008218442050467659
leaf_weight=1321 15991 8774 9330 3937 9967 20546 5598 11123 17211 13560 1642 33701 3700 2834 30296 18236 1976 13295 2833 10328 45769 17292 36331 17982 12404 7700 496 21182 6482 15703
leaf_count=4 12 26 17 11 46 24 11 22 27 10 17 37 12 17 33 25 2 23 24 16 46 12 39 53 15 19 13 26 7 13
internal_value=0.000252459 -0.0287354 0.0250662 -0.0180763 0.055116 -0.0663947 0.0147982 0.00830909 -0.0103011 0.0019194 0.0251078 0.00458069 0.0463604 -0.0933604 0.00690395 0.0282735 0.0546609 0.0448208 0.0840893 -0.0562561 -0.0160351 -0.0305753 -0.0289495 0.0371506 0.0264313 0.0527419 0.107435 0.0235219 0.0363409 0.00177627
internal_weight=417540 192573 224967 150091 57294 42482 167673 102903 92531 29551 64770 90823 43998 11608 79700 55440 3618 42677 13296 30874 62980 57560 53623 21682 51822 20995 3329 39418 12080 45999
internal_count=659 240 419 157 194 83 225 123 95 22 102 105 111 43 83 85 19 107 83 40 73 62 51 65 66 42 37 51 18 46
is_linear=0
shrinkage=0.04


Tree=18
num_leaves=31
num_cat=0
split_feature=1 1 1 4 1 1 4 1 4 4 1 1 1 4 2 4 2 4 2 2 1 2 1 1 1 2 1 2 2 4
split_gain=173238 46036.1 38986.9 9828.93 7844.51 6704.16 5888.12 5695.84 3248.13 2491.76 2431.78 2388.33 2110.95 2079.63 1952.43 1615.14 1611.97 1396.7 1370.12 1316.96 1093.53 752.051 676.391 665.325 657.614 646.346 818.043 619.989 598.897 584.429
threshold=160.50000000000003 116.50000000000001 187.50000000000003 92.667374342796265 177.50000000000003 135.50000000000003 41.087389068527983 196.50000000000003 67.419368175254661 24.249401758715425 147.50000000000003 172.50000000000003 83.500000000000014 87.182048330658304 2022.5000000000002 1.9373990399113621 2024.5000000000002 97.360699709434058 2021.5000000000002 2020.5000000000002 152.50000000000003 2021.5000000000002 198.50000000000003 128.50000000000003 181.50000000000003 2022.5000000000002 96.500000000000014 2022.5000000000002 2024.5000000000002 99.078740516428169
decision_type=2 2 2 10 2 2 8 2 8 8 2 2 2 10 2 10 2 10 2 2 2 2 2 2 2 2 2 2 2 10
left_child=1 3 4 12 9 8 20 15 16 11 19 -2 -1 25 -10 -4 -3 27 -11 -8 -7 -12 -9 -16 -6 26 -14 -5 -20 -19
right_child=2 5 7 17 24 6 10 22 14 18 21 -13 13 -15 23 -17 -18 29 28 -21 -22 -23 -24 -25 -26 -27 -28 -29 -30 -31
leaf_value=0.080619147798495897 0.0050604120606419093 0.081551553470954996 -0.073424339215888007 0.059567402758811325 -0.028902362718236749 0.03872828919477455 -0.010168161133450987 -0.099484658705056503 0.0091468690963384999 -0.03543982628612851 -0.019926344593845839 -0.016716174184200135 0.04378455274267104 0.051688960108205124 0.02813479643398176 -0.054559258161362874 0.021247666800121193 0.097196487935598819 -0.01954895524183187 0.0096470489019146368 0.018177005419026036 -0.0037605011589032784 -0.13336136427659256 0.018143545750044 -0.038306412785245179 0.041316972048726919 0.02520138713299306 0.080552065638267029 -0.0098873992938359034 0.14494556446229256
leaf_weight=2209 17469 2055 11656 3291 22254 7058 6118 3434 21313 7043 5217 14958 5150 17954 25239 19259 1083 2369 33018 43693 10029 39210 1300 18466 25566 14242 14354 7140 14897 496
leaf_count=6 12 16 27 15 24 11 12 12 35 17 11 12 14 45 30 24 1 21 37 47 9 39 11 19 30 22 42 34 11 13
internal_value=0.000242361 0.0216847 -0.030717 0.0499235 -0.0209056 0.011111 0.00506208 -0.0679287 0.0209913 -0.0137781 0.00114492 -0.00498474 0.0423265 0.0406903 0.0190729 -0.061672 0.0607392 0.0807257 -0.0189665 0.00721326 0.026666 -0.00565883 -0.108788 0.0239133 -0.03393 0.0348387 0.0301082 0.0739314 -0.0165451 0.105463
internal_weight=417540 246686 170854 67205 135205 179481 111325 35649 68156 87385 94238 32427 53909 51700 65018 30915 3138 13296 54958 49811 17087 44427 4734 43705 47820 33746 19504 10431 47915 2865
internal_count=659 442 217 212 143 230 129 74 101 89 109 24 129 123 84 51 17 83 65 59 20 50 23 49 54 78 56 49 48 34
is_linear=0
shrinkage=0.04


Tree=19
num_leaves=31
num_cat=0
split_feature=1 1 1 4 1 1 4 1 4 1 4 4 2 1 4 4 4 1 4 2 2 1 4 2 4 2 1 1 4 1
split_gain=159928 47556.2 30783.8 9058.34 8287.25 5249.28 5108.6 5029 5019.98 2983.57 2603.93 2310.24 2026.26 1945.45 1932.21 1488.52 1299.61 1110.29 992.049 940.237 762.071 745.027 657.594 644.7 641.739 624.031 623.362 614.708 605.605 565.672
threshold=164.50000000000003 116.50000000000001 187.50000000000003 92.667374342796265 139.50000000000003 196.50000000000003 63.56766250074903 177.50000000000003 34.996963846118284 147.50000000000003 41.087389068527983 20.649890912157129 2022.5000000000002 83.500000000000014 87.892285001107879 1.9373990399113621 96.59899316776729 128.50000000000003 21.121586765554198 2024.5000000000002 2022.5000000000002 96.500000000000014 99.078740516428169 2021.5000000000002 42.44555576458459 2022.5000000000002 198.50000000000003 183.50000000000003 55.26570765842709 172.50000000000003
decision_type=2 2 2 10 2 2 8 2 8 2 8 8 2 2 10 10 10 2 10 2 2 2 10 2 10 2 2 2 10 2
left_child=1 3 7 13 6 15 28 11 -6 10 -10 29 -8 -1 20 -4 -5 -14 -13 24 21 -15 25 -12 -11 -18 -7 -9 -3 -2
right_child=2 4 5 16 8 26 12 27 9 19 23 18 17 14 -16 -17 22 -19 -20 -21 -22 -23 -24 -25 -26 -27 -28 -29 -30 -31
leaf_value=0.077394380202494145 0.00074247047516670596 0.05918762757842716 -0.070487365565565091 0.068995969917896374 0.021357739516666956 -0.095505272627015692 0.0073208289165660892 -0.02920756587513984 0.042573973352133296 -0.016883775057115122 -0.010763769598038035 -0.035585806564245807 0.027009404932594398 0.04203317026675326 0.051397235483582882 -0.052376887916039262 0.070660670140683265 0.015765199945287113 -0.018424115623586711 0.00096566255265158763 0.040420329538117833 0.024381217128320067 0.13914773802603445 0.0063767932608637511 -0.0066745360736152962 0.10396071597961314 -0.12802690852238582 -0.038684493940378213 0.10094591281838612 -0.01207964646628691
leaf_weight=2209 12185 2327 11656 9094 17920 3434 26274 30839 3107 14913 4021 6265 25239 5150 14587 19259 1542 31696 38557 16886 17086 14877 496 27680 29024 2164 1300 16981 730 10042
leaf_count=6 8 10 27 41 17 12 44 33 6 23 8 14 30 14 39 24 7 32 39 13 27 43 13 28 32 22 11 21 8 7
internal_value=0.000232667 0.018819 -0.0327399 0.0479266 0.00902919 -0.0652116 0.0183752 -0.0226625 0.00192894 -0.00171176 0.00762773 -0.0155943 0.0165094 0.0406334 0.0390627 -0.0592052 0.0774967 0.0207497 -0.0208229 -0.0070566 0.0342147 0.0289205 0.0958941 0.00420266 -0.0101397 0.0901052 -0.104436 -0.0325728 0.0691593 -0.00505047
internal_weight=417540 267022 150518 67205 199817 35649 86266 114869 113551 95631 34808 67049 83209 53909 51700 30915 13296 56935 44822 60823 37113 20027 4202 31701 43937 3706 4734 47820 3057 22227
internal_count=659 463 196 212 251 74 124 122 127 110 42 68 106 129 123 51 83 62 53 68 84 57 42 36 55 29 23 54 18 15
is_linear=0
shrinkage=0.04


Tree=20
num_leaves=31
num_cat=0
split_feature=1 1 1 1 1 4 1 4 4 2 1 4 4 1 4 2 2 4 2 4 2 2 1 2 2 4 1 2 1 2
split_gain=139756 38342 30355.6 8893.31 6820.37 5823.24 5750.29 4485.82 4280.1 2456.05 1810.5 1783.38 1774.65 1589.17 1378.07 2749.91 1353.96 1314.05 1204.86 1102.47 1098.47 937.945 816.343 752.928 660.61 652.131 605.172 592.558 581.279 575.551
threshold=152.50000000000003 181.50000000000003 108.50000000000001 192.50000000000003 129.50000000000003 49.943453906034357 168.50000000000003 93.590783887856858 29.987902051230098 2020.5000000000002 80.500000000000014 0.20037028180149011 62.593666295995696 188.50000000000003 72.848499563436164 2023.5000000000002 2022.5000000000002 33.584952456878952 2021.5000000000002 98.601275371032003 2024.5000000000002 2021.5000000000002 94.500000000000014 2023.5000000000002 2024.5000000000002 99.078740516428169 196.50000000000003 2022.5000000000002 118.50000000000001 2024.5000000000002
decision_type=2 2 2 2 2 8 2 10 8 2 2 10 10 2 10 2 2 8 2 10 2 2 2 2 2 10 2 2 2 2
left_child=2 6 7 13 9 -6 8 10 -2 -4 -1 -5 23 -3 15 -11 22 18 -8 27 28 -10 -12 -7 -14 -21 -13 -9 -16 -23
right_child=1 3 4 11 5 12 17 19 21 14 16 26 24 -15 20 -17 -18 -19 -20 25 -22 29 -24 -25 -26 -27 -28 -29 -30 -31
leaf_value=0.1037855593216612 0.012171909057351833 -0.036094286295442479 0.0083641046097088709 -0.11041912563876125 0.040358307943324921 -0.0045536372906343258 -0.010154366125100948 0.060669350275322199 -0.023944923636839564 0.10000708104693701 0.048808230039571694 -0.066776615822855864 0.0085983059258716091 -0.051249002781854534 0.02989219600833792 0.022526247207432581 0.054238930505715766 -0.041462538358177231 -0.022761405319053449 0.091985038623475179 0.036998621091725442 -0.0110376650962727 0.030778185016569173 0.0057462975743781085 0.020132253793569709 0.16511525397426571 -0.089329798185150758 0.082417663574218758 0.019995865825320921 -0.0026636679939803852
leaf_weight=866 17941 31195 11539 2273 8447 24918 16593 3254 6790 1260 6444 8908 31199 17162 15449 1752 14308 4631 45086 456 13506 39414 10672 20863 10660 341 2421 5220 24646 19694
leaf_count=4 14 37 21 18 17 39 11 17 15 18 22 17 35 22 24 2 35 12 46 4 18 43 34 19 10 16 6 32 31 15
internal_value=-0.000250572 -0.0230356 0.0232328 -0.04951 0.0155049 0.00864001 -0.0121108 0.0537716 -0.00514923 0.0251836 0.0467301 -0.0780838 0.00558291 -0.0414727 0.0286118 0.0549385 0.0451577 -0.0209128 -0.0193698 0.0782966 0.0271324 -0.00986499 0.0375663 0.000140178 0.0115356 0.123274 -0.0715962 0.0740664 0.023809 -0.00824756
internal_weight=417908 212108 205800 61959 164239 96087 150149 41561 83839 68152 32290 13602 87640 48357 56613 3012 31424 66310 61679 9271 53601 65898 17116 45781 41859 797 11329 8474 40095 59108
internal_count=654 256 398 100 234 120 156 164 87 114 95 41 103 59 93 20 91 69 57 69 73 73 56 58 45 20 23 49 55 58
is_linear=0
shrinkage=0.04


Tree=21
num_leaves=31
num_cat=0
split_feature=0 0 0 0 4 0 4 4 4 0 4 4 2 2 2 2 0 0 2 0 4 2 0 2 4 4 0 2 2 4
split_gain=128947 38998.9 23898.5 8209.61 6528.7 5363.41 4793.28 4728.8 3717.19 2264.74 2095.31 1937.68 1437.85 1919.54 1136.4 1040.99 1008.35 849.57 783.756 1433.93 923.102 2213.17 667.38 644.22 623.441 601.004 530.973 474.929 454.215 411.57
threshold=163.50000000000003 116.50000000000001 188.50000000000003 141.50000000000003 89.663164811682464 179.50000000000003 36.539152725230174 61.319774130364394 0.80175544388405207 80.500000000000014 73.358492832294601 96.058847362529292 2020.5000000000002 2021.5000000000002 2020.5000000000002 2023.5000000000002 149.50000000000003 197.50000000000003 2022.5000000000002 97.500000000000014 82.955832623020271 2021.5000000000002 192.50000000000003 2024.5000000000002 98.601275371032003 99.078740516428169 172.50000000000003 2024.5000000000002 2024.5000000000002 53.201465153804854
decision_type=2 2 2 2 10 2 8 8 10 2 10 10 2 2 2 2 2 2 2 2 8 2 2 2 10 10 2 2 2 10
left_child=1 4 5 7 9 12 -5 29 17 -1 15 -6 -2 26 -8 -9 -16 -4 19 -11 21 -21 -10 -15 -13 -26 -14 -12 -18 -3
right_child=2 3 8 6 11 -7 14 10 22 18 27 24 13 23 16 -17 28 -19 -20 20 -22 -23 -24 -25 25 -27 -28 -29 -30 -31
leaf_value=0.09963413498418161 -0.034106604158731062 0.053275711842680797 -0.074863549677402622 0.021150147468747934 0.056475747472126615 -0.03286867731511077 -0.016223121530927906 0.0051268255640556648 -0.047489072842795514 0.044320188060623107 0.019766848662378735 0.079389790698365797 0.0028214886666258591 -0.020950508729229291 0.0046983830658004974 0.016181975811616952 -0.0073644069916700885 -0.10252288523299917 0.040098956049422617 0.14971750359786185 0.020105515113798621 0.017891300534739078 -0.062606545942234137 -0.012014347183802799 0.088305635954204362 0.15851064329622777 -0.0098824016555252043 0.030629719896647815 0.00082865002896657177 0.086362062196473827
leaf_weight=866 6071 3215 5946 15129 15278 42187 9593 31485 15617 6969 27844 3753 10430 36054 26545 24029 35988 2534 19847 304 14806 618 6667 20106 456 341 10628 8377 15485 740
leaf_count=4 15 12 18 15 56 49 20 49 19 21 36 27 7 41 28 24 39 14 33 14 29 1 12 15 4 16 7 10 12 7
internal_value=-0.000240549 0.0169285 -0.0289949 0.0082109 0.0442828 -0.0212487 0.000358888 0.0166414 -0.0605892 0.0355966 0.0147951 0.0632997 -0.0153631 -0.0138894 -0.00323143 0.009912 -0.00163398 -0.0831287 0.0342931 0.0292162 0.0225237 0.0613568 -0.052012 -0.0177512 0.0862131 0.118343 -0.00359018 0.0222792 -0.00489963 0.0594663
internal_weight=417908 261668 156240 198430 63238 125476 102740 95690 30764 43410 91735 19828 83289 77218 87611 55514 78018 8480 42544 22697 15728 922 22284 56160 4550 797 21058 36221 51473 3955
internal_count=654 457 197 252 205 134 114 138 63 102 119 103 85 70 99 73 79 32 98 65 44 15 31 56 47 20 14 46 51 19
is_linear=0
shrinkage=0.04


Tree=22
num_leaves=31
num_cat=0
split_feature=0 0 0 0 0 0 4 4 4 0 0 2 4 4 2 4 2 2 0 4 2 2 2 0 2 4 2 4 2 0
split_gain=119077 29170.5 28779.9 6236.34 5805.51 4967.15 4840.92 4286.28 3167.59 2086.07 1689.59 1675.57 1565.03 1373.8 1193.05 1182.17 2172.21 1157.62 1066.24 928.996 772.816 711.773 705.952 639.823 751.231 580.466 564.125 553.885 550.82 514.683
threshold=156.50000000000003 112.50000000000001 185.50000000000003 170.50000000000003 129.50000000000003 192.50000000000003 93.590783887856858 45.121350814015052 26.061798007920462 140.50000000000003 80.500000000000014 2020.5000000000002 0.20037028180149011 88.286465247460754 2020.5000000000002 72.848499563436164 2023.5000000000002 2020.5000000000002 178.50000000000003 98.601275371032003 2021.5000000000002 2023.5000000000002 2024.5000000000002 87.500000000000014 2020.5000000000002 0.061530656017366993 2021.5000000000002 99.078740516428169 2022.5000000000002 196.50000000000003
decision_type=2 2 2 2 2 2 10 8 8 2 2 2 10 10 2 10 2 2 2 10 2 2 2 2 2 10 2 10 2 2
left_child=1 6 3 8 11 -4 10 -6 -2 17 -1 -3 25 23 -5 16 -13 -9 26 28 -11 -10 -17 -12 -25 -7 -16 -21 -8 -14
right_child=2 4 5 14 7 12 19 9 21 20 13 15 29 -15 18 22 -18 -19 -20 27 -22 -23 -24 24 -26 -27 -28 -29 -30 -31
leaf_value=0.095648772479755506 0.007721818121977423 0.0064659319232605742 -0.042821866094561283 -0.04260090646723947 0.030743480475552112 -0.12956203224049609 0.055522167062788709 -0.0058210136894473021 -0.016162515717192471 -0.012862702966495479 0.050454138295726758 0.090697746024226519 -0.061477949727421981 0.048812460052638784 -0.0086105886514130838 0.020608189877753334 0.020977918372306649 0.013262742322188104 -0.027136591885162181 0.084773408320912139 0.00094847137059994352 -0.007351106600541767 0.032189939416874147 0.023481494747642568 0.038089379115612235 -0.087308243099490895 -0.020151886233707166 0.15217021712809364 0.076490561474328755 -0.082276743936519015
leaf_weight=866 17904 9362 29756 4810 10624 806 3254 5870 27668 7381 3157 1208 8908 14997 9192 35440 1752 38069 33073 456 53245 31218 11045 10618 11997 1467 25783 341 5220 2421
leaf_count=4 13 17 38 13 16 12 17 11 39 15 7 16 17 44 6 47 2 45 33 4 54 26 14 21 37 6 26 16 32 6
internal_value=-0.000230927 0.0195489 -0.0232796 -0.0149654 0.0117569 -0.0519755 0.0461819 0.00653631 -0.00701159 0.00407681 0.0403613 0.0219828 -0.0720001 0.0391869 -0.0233485 0.0249208 0.0494311 0.0107133 -0.0219876 0.0723219 -0.00073299 -0.0114912 0.0233601 0.0335856 0.0312308 -0.102291 -0.0171186 0.113609 0.0684387 -0.0659226
internal_weight=417908 224902 193006 149648 173996 43358 50906 115189 76790 104565 41635 58807 13602 40769 72858 49445 2960 43939 68048 9271 60626 58886 46485 25772 22615 2273 34975 797 8474 11329
internal_count=654 419 235 156 237 79 182 141 78 125 113 96 41 109 78 79 18 56 65 69 69 65 61 65 58 18 32 20 49 23
is_linear=0
shrinkage=0.04


Tree=23
num_leaves=31
num_cat=0
split_feature=0 0 0 0 0 0 4 4 4 4 4 2 0 2 4 2 4 0 2 4 2 0 2 2 4 2 2 4 2 2
split_gain=109823 30091.3 23876.7 6980.92 5384.11 4531.76 4457.52 3527.83 3311.23 1985.35 1812.7 1804.18 1412.05 1096.05 1051.07 979.718 856.163 790.29 774.174 754.653 692.626 691.219 597.181 514.691 510.46 507.636 495.882 898.821 2529.25 467.924
threshold=152.50000000000003 181.50000000000003 108.50000000000001 191.50000000000003 126.50000000000001 168.50000000000003 49.943453906034357 93.590783887856858 29.987902051230098 0.45407752638983895 62.593666295995696 2020.5000000000002 80.500000000000014 2022.5000000000002 33.584952456878952 2021.5000000000002 98.601275371032003 188.50000000000003 2021.5000000000002 0.061530656017366993 2024.5000000000002 88.500000000000014 2024.5000000000002 2024.5000000000002 99.078740516428169 2022.5000000000002 2024.5000000000002 75.736061505448149 2022.5000000000002 2024.5000000000002
decision_type=2 2 2 2 2 2 8 10 8 10 10 2 2 2 8 2 10 2 2 10 2 2 2 2 10 2 2 10 2 2
left_child=2 5 7 17 11 8 -6 12 -2 19 22 -4 -1 21 15 -7 25 -3 -10 -5 -12 -14 -8 -17 -18 -9 27 28 -13 -20
right_child=1 3 4 9 6 14 10 16 18 -11 20 26 13 -15 -16 23 24 -19 29 -21 -22 -23 -24 -25 -26 -27 -28 -29 -30 -31
leaf_value=0.091822817231986598 0.010673561167952197 -0.031976879816289168 0.0082256268143980401 -0.11826311521120481 0.036407851350932656 -0.0088656099043925279 -0.0017254094979223492 0.053301280372774373 -0.021501112206168311 -0.057081198315399054 0.0086128025133170669 0.097224698280646338 0.048637544059805582 0.048217420740636792 -0.036934321796217071 -0.023403245783683264 0.08138247573584842 -0.043627132825586515 -0.0097556124059203168 -0.079146322160319707 0.019216002934184392 0.029026524244529974 0.0094416134219955806 -0.014470798220345025 0.1460834080872298 0.073430939889958996 0.034128881899800123 0.022750534134294519 0.017605301633239607 -0.0022050588419319497
leaf_weight=866 17941 31195 9857 1001 8447 16593 38131 3254 6790 12752 38518 1003 3657 14308 4631 29089 456 13283 39414 3728 13247 13459 9589 15997 341 5220 11851 31840 1756 19694
leaf_count=4 14 37 18 13 17 11 55 17 15 22 44 16 10 35 12 34 4 16 43 12 13 46 8 12 16 32 16 45 2 15
internal_value=-0.00022169 -0.0204198 0.0205955 -0.0438735 0.0137418 -0.0107417 0.00851076 0.0476799 -0.00456151 -0.0652902 0.0061421 0.0237688 0.0414354 0.0400468 -0.0185555 -0.0171756 0.0694291 -0.0354561 -0.00870932 -0.0874263 0.0113262 0.0332166 0.000518526 -0.0202339 0.109065 0.0657012 0.0270672 0.0246484 0.0465499 -0.00723987
internal_weight=417908 212108 205800 61959 164239 150149 107932 41561 83839 17481 99485 56307 32290 31424 66310 61679 9271 44478 65898 4729 51765 17116 47720 45086 797 8474 46450 34599 2759 59108
internal_count=654 256 398 100 234 156 137 164 87 47 120 97 95 91 69 57 69 53 73 25 57 56 63 46 20 49 79 63 18 58
is_linear=0
shrinkage=0.04


Tree=24
num_leaves=31
num_cat=0
split_feature=0 0 0 4 0 4 4 4 0 0 4 2 2 2 2 0 2 0 0 0 2 2 0 0 2 0 4 2 2 2
split_gain=101475 30714.6 18777.9 6831.97 4652.9 4069.89 3761.53 3635.18 3088.45 1935.76 1660.02 1336.65 1109.06 1428.69 1067.35 942.054 931.717 876.224 799.4 715.652 673.996 517.473 511.695 506.095 458.993 433.091 408.799 549.5 411.497 375.77
threshold=163.50000000000003 121.50000000000001 186.50000000000003 89.367831899960706 141.50000000000003 59.988262752042424 36.539152725230174 1.0542470921871179 177.50000000000003 85.500000000000014 96.058847362529292 2021.5000000000002 2020.5000000000002 2021.5000000000002 2020.5000000000002 197.50000000000003 2020.5000000000002 100.50000000000001 149.50000000000003 191.50000000000003 2024.5000000000002 2022.5000000000002 112.50000000000001 82.500000000000014 2024.5000000000002 130.50000000000003 19.332571013703323 2021.5000000000002 2024.5000000000002 2024.5000000000002
decision_type=2 2 2 10 2 8 8 10 2 2 10 2 2 2 2 2 2 2 2 2 2 2 2 2 2 2 8 2 2 2
left_child=1 3 8 9 5 -3 -6 15 12 -1 -5 -7 -2 -14 17 -4 -8 -11 -18 -9 25 -12 -16 -23 -15 -13 27 -10 -29 -20
right_child=2 4 7 10 6 11 16 19 26 14 21 20 13 24 22 -17 18 -19 29 -21 -22 23 -24 -25 -26 -27 -28 28 -30 -31
leaf_value=0.059342940723266215 -0.029687454365239507 0.053170625899663863 -0.063351990009644088 0.049527973001855352 0.018791375130905463 -0.0017811537319587869 -0.014571008426758118 -0.038093716432590269 -0.0178587223109338 0.030378190627334538 0.061168023358327786 0.015152826771193274 -0.0017314386191785017 -0.017692494293332837 0.036347002711128194 -0.091392152962387313 0.0042773441552532042 0.011300670852750924 -0.0065104215023477066 -0.051767109569555894 0.019802824728940804 0.13359174534894419 0.02694349005765128 0.081593392258698716 -0.0096340824490262662 0.007378166102770603 -0.038480372668044716 -0.031984983492107544 -0.022146601371067429 0.00094163334889299521
leaf_weight=3142 5711 3886 7874 16321 15129 10873 9593 19012 12251 6191 1935 20457 18151 32058 15394 2534 26545 10196 35988 9035 18609 345 23231 2270 17473 26078 3908 16806 11427 15485
leaf_count=9 14 18 23 58 15 20 20 22 9 13 16 25 12 36 45 14 28 19 39 14 19 11 41 20 13 29 9 22 9 12
internal_value=-0.000212823 0.0150179 -0.025721 0.0358521 0.00600349 0.013243 0.000373187 -0.0499902 -0.0177974 0.0288062 0.0554843 0.0112019 -0.01276 -0.0113317 0.0270621 -0.0701788 -0.00280734 0.0185081 -0.00136089 -0.0424984 0.0133688 0.0768497 0.0306913 0.0884536 -0.0148497 0.0107959 -0.0261258 -0.0249332 -0.028003 -0.00426857
internal_weight=417908 261668 156240 79025 182643 79903 102740 38455 117785 58154 20871 76017 73393 67682 55012 10408 87611 16387 78018 28047 65144 4550 38625 2615 49531 46535 44392 40484 28233 51473
internal_count=654 457 197 232 225 111 114 73 124 127 105 93 75 61 118 37 99 32 79 36 73 47 86 31 49 54 49 40 31 51
is_linear=0
shrinkage=0.04


Tree=25
num_leaves=31
num_cat=0
split_feature=0 0 0 4 0 4 4 0 0 4 0 2 0 2 2 2 2 0 0 4 0 0 2 2 4 2 0 4 0 0
split_gain=97398.6 24708.3 18388.3 5119.59 3753.28 4123.14 3967.84 3610.15 3234.29 1820.23 1343.63 1322.09 1048.46 988.372 976.1 952.019 921.427 802.947 761.173 742.849 689.9 681.536 672.022 647.074 599.58 569.359 539.919 427.513 410.576 368.822
threshold=161.50000000000003 117.50000000000001 186.50000000000003 93.838258852521577 138.50000000000003 41.087389068527983 64.146095077239465 175.50000000000003 194.50000000000003 21.951127267801116 106.50000000000001 2022.5000000000002 80.500000000000014 2024.5000000000002 2020.5000000000002 2020.5000000000002 2022.5000000000002 198.50000000000003 153.50000000000003 99.078740516428169 191.50000000000003 149.50000000000003 2024.5000000000002 2021.5000000000002 76.037353230444452 2022.5000000000002 91.500000000000014 99.598018992766143 91.500000000000014 180.50000000000003
decision_type=2 2 2 10 2 8 8 2 2 8 2 2 2 2 2 2 2 2 2 10 2 2 2 2 10 2 2 10 2 2
left_child=1 3 7 10 6 18 -3 9 20 -2 12 -8 -1 21 -12 -9 26 -10 -6 25 -4 -7 -11 -17 -13 -5 -14 -21 -27 -25
right_child=2 4 8 19 5 13 11 15 17 22 14 24 16 -15 -16 23 -18 -19 -20 27 -22 -23 -24 29 -26 28 -28 -29 -30 -31
leaf_value=0.08266263021613067 0.00018363051958028293 0.059015905079912334 -0.03780513530586934 0.048777098172429034 0.029556953985900414 0.0010571521233052428 0.0052738218114430011 -0.043002081817802067 -0.064872415539895367 -0.016806609103652736 0.010226410784747484 0.014065195531015625 0.043137396303688728 0.0066122110884570505 0.029921159824651704 -0.015450046879957815 0.046780917963124641 -0.10015054992032264 0.013040314357915646 0.086313338572995266 -0.050806487547415673 -0.0074521555300072276 -0.0074523081452916307 -0.021348561483368958 0.023597721977043472 0.080396752409577277 0.026984687958350299 0.16118387843024803 0.058588124399092528 -0.029319348843373453
leaf_weight=848 19309 3169 22740 3483 8553 32107 22673 3834 6341 40740 4931 35504 4617 24336 21947 15364 10416 1233 9339 439 9161 28364 17595 19181 15025 2746 11705 169 2779 18009
leaf_count=3 13 20 28 17 13 40 37 11 18 51 9 37 15 20 45 11 28 10 8 6 17 35 13 20 18 24 39 12 12 20
internal_value=-0.000228721 0.0161081 -0.0231229 0.0374236 0.00848042 0.00348658 0.0151958 -0.016056 -0.0471176 -0.0104616 0.0326729 0.0132988 0.0388744 -0.00019475 0.026308 -0.0237594 0.0374856 -0.0706155 0.0209358 0.0643311 -0.0415387 -0.00293415 -0.0139852 -0.0223555 0.0168997 0.0614428 0.0315538 0.107124 0.0694273 -0.0252084
internal_weight=416657 243150 173507 64080 179070 102699 76371 134032 39475 77644 54464 73202 27586 84807 26878 56388 26738 7574 17892 9616 31901 60471 58335 52554 50529 9008 16322 608 5525 37190
internal_count=650 438 212 210 228 116 112 139 73 77 139 92 85 95 54 62 82 28 21 71 45 75 64 51 55 53 54 18 36 40
is_linear=0
shrinkage=0.04


Tree=26
num_leaves=31
num_cat=0
split_feature=0 0 0 5 0 5 2 2 0 5 0 0 5 2 2 0 2 2 2 2 2 0 0 0 0 2 2 5 0 0
split_gain=89762.6 22810.7 16946.6 5828.64 3327.11 3036.33 2442.56 4879.86 2963.34 1677.53 1644.82 1529.34 1477.29 967.039 877.381 870.606 628.693 619.336 596.344 551.986 539.845 518.059 468.477 453.924 421.091 375.622 366.3 346.461 341.885 311.683
threshold=161.50000000000003 122.50000000000001 186.50000000000003 0.89663164811682461 175.50000000000003 0.01322620862034043 2020.5000000000002 2021.5000000000002 141.50000000000003 0.21951127267801115 144.50000000000003 87.500000000000014 0.9527220505365489 2020.5000000000002 2020.5000000000002 197.50000000000003 2024.5000000000002 2024.5000000000002 2021.5000000000002 2022.5000000000002 2024.5000000000002 85.500000000000014 191.50000000000003 102.50000000000001 111.50000000000001 2022.5000000000002 2024.5000000000002 0.2845750711088923 133.50000000000003 167.50000000000003
decision_type=2 2 2 10 2 10 2 2 2 8 2 2 10 2 2 2 2 2 2 2 2 2 2 2 2 2 2 10 2 2
left_child=1 3 4 11 9 15 28 10 16 29 -8 -1 25 23 -6 -4 -9 27 -16 -14 -10 -21 -7 -13 -15 -5 -20 -11 -3 -2
right_child=2 6 5 12 14 22 7 8 20 17 -12 13 19 24 18 -17 -18 -19 26 21 -22 -23 -24 -25 -26 -27 -28 -29 -30 -31
leaf_value=0.050472887141576564 0.0067370575966879146 0.0014248000008719309 -0.056953201662854558 0.034094559053131315 -0.041281998404998861 -0.035171223911333503 0.045587107739672214 0.0093581643122007414 -0.0027527637922374294 -0.021130203453011948 0.019912307418795242 0.024603666515734285 0.053749661817959038 0.033844830751419072 -0.014832045742075632 -0.083874977458045008 0.018155283460868768 -0.0071542158590253355 -0.027079462739145407 0.10368970839288148 0.0048929145493410023 0.068789262377982732 -0.046809388703982588 0.010179602666083521 0.025138887063855649 0.048303457563658836 -0.018727052095164915 -0.013410743239399225 -0.011124017228627896 -0.0037602868141778699
leaf_weight=4005 7241 4900 8686 4207 3834 20778 5479 42345 43671 14374 14713 5862 2779 13440 15364 2468 18755 17595 24369 903 22332 2762 7543 8630 26253 10180 12821 26366 11934 12068
leaf_count=10 5 9 22 18 11 24 21 49 47 22 16 12 19 43 11 15 19 13 30 20 18 18 12 16 47 32 10 29 24 8
internal_value=-0.000219573 0.0154638 -0.022198 0.0331207 -0.0154138 -0.0452329 0.00696279 0.00861243 0.00571054 -0.0100431 0.026879 0.0266208 0.0512776 0.0248578 -0.022809 -0.0629101 0.0120585 -0.0134258 -0.0214613 0.067194 -0.000165862 0.0773882 -0.0382709 0.0160141 0.0280867 0.0441485 -0.0242 -0.0161343 -0.00747134 0.000176285
internal_weight=416657 243150 173507 79021 134032 39475 164129 147295 127103 77644 20192 58190 20831 54185 56388 11154 61100 58335 52554 6444 66003 3665 28321 14492 39693 14387 37190 40740 16834 19309
internal_count=650 438 212 235 139 73 203 170 133 77 37 128 107 118 62 37 68 64 51 57 65 38 36 28 90 50 40 51 33 13
is_linear=0
shrinkage=0.04


Tree=27
num_leaves=31
num_cat=0
split_feature=0 0 0 5 0 0 5 5 5 2 0 0 5 0 2 2 0 5 2 0 0 2 2 0 5 5 2 0 5 5
split_gain=82725.2 21024 15621.1 4377.34 3612.3 3222.5 3491.19 3454.2 2520.49 1148.08 1071.4 955.396 938.038 986.148 892.725 871.403 772.86 696.423 691.348 683.288 678.448 644.506 589.784 531.781 525.935 504.469 483.826 468.938 401.323 383.429
threshold=161.50000000000003 117.50000000000001 187.50000000000003 0.93590783887856832 177.50000000000003 138.50000000000003 0.4108738906852798 0.64146095077239462 0.0080175544388405209 2022.5000000000002 106.50000000000001 80.500000000000014 0.21951127267801115 173.50000000000003 2020.5000000000002 2022.5000000000002 151.50000000000003 0.99078740516428165 2022.5000000000002 198.50000000000003 151.50000000000003 2024.5000000000002 2022.5000000000002 192.50000000000003 0.74322921863764302 0.050822505378174725 2021.5000000000002 92.500000000000014 0.2845750711088923 0.99598018992766146
decision_type=2 2 2 10 2 2 8 8 10 2 2 2 8 2 2 2 2 10 2 2 2 2 2 2 10 10 2 2 10 10
left_child=1 3 4 10 12 7 20 -3 19 -9 11 -1 13 -2 -8 -12 -16 22 27 -4 -7 28 -5 -10 -11 -6 -27 -13 -14 -19
right_child=2 5 8 17 25 6 14 9 23 24 15 18 21 -15 16 -17 -18 29 -20 -21 -22 -23 -24 -25 -26 26 -28 -29 -30 -31
leaf_value=0.077337206939481332 0.0025771348875664774 0.054917215989492937 -0.060294470863088326 0.043389721833504334 -0.036836211451364682 0.029220736549658011 -0.011973408935069001 0.004783416873896721 -0.036223001062765693 0.01227031285493896 0.015438255370299981 0.039026772443249612 -0.020788362605951939 -0.012284801076435132 0.0046454004226197934 0.030136743220124083 -0.0035566979676745036 0.080014614374599585 0.042472448250147801 -0.092789528035382762 0.013160596596616904 -0.0068680473169368522 0.063448120361165469 -0.049000917363247999 0.02059305151991957 -0.015933089287035244 -0.025252592702983617 0.024327288386854492 -0.012874313478340359 0.15091990284665802
leaf_weight=848 14923 3169 6459 3849 4447 6771 9196 22673 19995 30209 10765 5107 16775 13703 44086 16113 31525 439 9937 1233 11121 17595 6004 7048 20320 12251 32712 10849 26366 169
leaf_count=3 10 20 20 18 11 11 19 37 24 31 29 17 26 11 45 25 31 6 26 10 10 13 38 13 24 9 36 36 29 12
internal_value=-0.00021079 0.0148453 -0.0213101 0.0345074 -0.0153054 0.00780918 0.00318189 0.0140317 -0.0452998 0.0122617 0.0298897 0.0355584 -0.0105066 -0.00453714 -0.000205587 0.0242498 0.00122564 0.0581762 0.0341901 -0.0655033 0.0192384 -0.0133201 0.0556125 -0.0395532 0.0156173 -0.0239844 -0.0227133 0.0290321 -0.0159516 0.0997235
internal_weight=416657 243150 173507 64080 138772 179070 102699 76371 34735 73202 53619 26741 89362 28626 84807 26878 75611 10461 25893 7692 17892 60736 9853 27043 50529 49410 44963 15956 43141 608
internal_count=650 438 212 210 145 228 116 112 67 92 136 82 89 21 95 54 76 74 79 30 21 68 56 37 55 56 45 53 55 18
is_linear=0
shrinkage=0.04


Tree=28
num_leaves=31
num_cat=0
split_feature=1 1 1 4 1 2 2 1 1 1 4 1 4 4 1 2 1 2 4 2 4 2 2 2 1 1 2 2 1 1
split_gain=76239.5 19441.2 14437.8 4964.07 3888.89 2105.43 4179.63 2559.39 1655.74 1424.48 1345.99 1328.51 1298.44 1195.68 684.797 658.493 651.631 609.169 497.074 472.898 472.307 465.363 440.776 431.745 398.087 363.725 361.174 356.889 317.171 288.992
threshold=161.50000000000003 122.50000000000001 182.50000000000003 89.663164811682464 192.50000000000003 2020.5000000000002 2021.5000000000002 142.50000000000003 172.50000000000003 145.50000000000003 21.951127267801116 84.500000000000014 96.59899316776729 0.45407752638983895 188.50000000000003 2020.5000000000002 98.500000000000014 2024.5000000000002 26.061798007920462 2021.5000000000002 0.061530656017366993 2024.5000000000002 2022.5000000000002 2023.5000000000002 94.500000000000014 111.50000000000001 2022.5000000000002 2024.5000000000002 130.50000000000003 131.50000000000003
decision_type=2 2 2 10 2 2 2 2 2 2 8 2 10 10 2 2 2 2 8 2 10 2 2 2 2 2 2 2 2 2
left_child=1 3 8 11 14 29 9 17 10 -7 -2 -1 22 20 -4 16 -13 28 19 -10 -6 -9 -5 -12 -24 -17 -14 -21 -8 -3
right_child=2 5 4 12 13 6 7 21 18 -11 23 15 26 -15 -16 25 -18 -19 -20 27 -22 -23 24 -25 -26 -27 -28 -29 -30 -31
leaf_value=0.052141344582162255 0.0024740495472788961 0.002750105679745706 -0.027331149420803513 0.032669717291987033 -0.099860870912297436 0.040999675433988608 0.012554062208854876 -0.0030517348000761802 -0.0099491210682503828 0.017855177506062473 -0.015519483100170496 0.028060088051607309 0.055233985524495439 -0.049065571459074704 -0.037583597200770973 0.031332210642950879 0.010717024921636014 0.016626637191300826 -0.029812925285378884 -0.021789846601904386 -0.067126641617771002 0.0042519735518127414 0.059497848011817206 -0.0078773752110223062 0.042496850765554255 0.023240986941987136 0.079458605638465407 -0.013520625461717685 0.0056267887082467232 -0.0098154821789495621
leaf_weight=2665 14923 3775 26511 5111 997 6094 16922 40898 13404 14098 21344 5126 1875 9449 17178 13440 10706 19897 4825 22737 2410 21190 2936 26531 8835 26253 2074 13198 28196 13059
leaf_count=7 10 7 32 22 13 22 21 44 9 15 30 11 15 18 22 43 20 20 11 27 8 17 15 22 26 47 29 10 31 26
internal_value=-0.000202358 0.0142514 -0.0204577 0.0305521 -0.0370527 0.00640337 0.00793494 0.00524931 -0.0124349 0.0248402 -0.00801494 0.0245537 0.0473084 -0.0563906 -0.0313623 0.0232296 0.0163323 0.0107962 -0.0175594 -0.0163611 -0.0767058 -0.000559054 0.0424784 -0.0112844 0.0467374 0.0259807 0.0679567 -0.0187528 0.00822494 -0.00699767
internal_weight=416657 243150 173507 79021 56545 164129 147295 127103 116962 20192 62798 58190 20831 12856 43689 55525 15832 65015 54164 49339 3407 62088 16882 47875 11771 39693 3949 35935 45118 16834
internal_count=650 438 212 235 93 203 170 133 119 37 62 128 107 39 54 121 31 72 57 46 21 61 63 52 41 90 44 37 52 33
is_linear=0
shrinkage=0.04


Tree=29
num_leaves=31
num_cat=0
split_feature=1 1 1 4 1 2 2 1 1 1 4 1 4 4 1 2 2 4 2 1 2 4 2 4 2 2 2 4 4 1
split_gain=70262.4 17917 13305.9 4584.65 3584 1940.37 3851.95 2358.74 1525.93 1312.83 1240.46 1239.85 1101.94 1034.43 631.109 561.41 556.956 1111.15 1914.03 913.193 701.999 458.104 435.823 435.278 428.879 414.174 397.896 347.579 348.498 337.909
threshold=161.50000000000003 122.50000000000001 182.50000000000003 90.673200504960292 192.50000000000003 2020.5000000000002 2021.5000000000002 142.50000000000003 172.50000000000003 148.50000000000003 21.951127267801116 80.500000000000014 0.45407752638983895 96.59899316776729 188.50000000000003 2024.5000000000002 2024.5000000000002 78.395073137231364 2023.5000000000002 106.50000000000001 2022.5000000000002 26.061798007920462 2021.5000000000002 0.061530656017366993 2024.5000000000002 2022.5000000000002 2023.5000000000002 99.078740516428169 99.598018992766143 137.50000000000003
decision_type=2 2 2 10 2 2 2 2 2 2 8 2 10 10 2 2 2 8 2 2 2 8 2 10 2 2 2 10 10 2
left_child=1 3 8 11 14 -3 9 15 10 29 -2 -1 23 25 -4 -8 17 18 -13 -19 -21 22 -10 -6 -9 -5 -12 -15 -29 -7
right_child=2 5 4 13 12 6 7 24 21 -11 26 16 -14 27 -16 -17 -18 19 -20 20 -22 -23 -24 -25 -26 -27 -28 28 -30 -31
leaf_value=0.072158063357731075 0.0023750874172272811 -0.0067177606849810915 -0.026237903707349665 0.031663128458945006 -0.095866433988244029 0.048726804907375132 0.007895941034879523 -0.002929665407252327 -0.0095511562765196022 0.015558171999629965 -0.014898704002643455 0.10736044050548771 -0.04710294864205207 0.060175997914757001 -0.036080253761852005 0.015961571232472233 0.032060977109850279 0.028030218644575638 0.015759652043989811 0.010411460210426628 0.022389273857142997 -0.02862040889127267 -0.018002663874171682 -0.064441576945831164 0.0040818946310910145 0.046636559689452517 -0.0075622801068796876 0.074266958041180248 0.14186529972144132 0.03093727015866421
leaf_weight=848 14923 16834 26511 4266 997 2465 45118 40898 13404 12161 21344 649 9449 3341 17178 19897 10027 17468 834 15109 16248 4825 35935 2410 21190 9623 26531 439 169 5566
leaf_count=3 10 33 32 18 13 14 52 44 9 12 30 17 18 26 22 20 15 51 1 27 23 11 37 8 17 36 22 6 12 11
internal_value=-0.000194264 0.0136814 -0.0196394 0.0293301 -0.0355706 0.00614723 0.00761754 0.00503933 -0.0119375 0.0238466 -0.00769434 0.0241277 -0.0541349 0.0471737 -0.0301078 0.0103643 0.0234526 0.0217369 0.0558466 0.0207009 0.0166179 -0.016857 -0.0157066 -0.0736375 -0.000536692 0.0420375 -0.0108331 0.0652384 0.0930566 0.0363975
internal_weight=416657 243150 173507 79021 56545 164129 147295 127103 116962 20192 62798 61183 12856 17838 43689 65015 60335 50308 1483 48825 31357 54164 49339 3407 62088 13889 47875 3949 608 8031
internal_count=650 438 212 235 93 203 170 133 119 37 62 137 39 98 54 72 134 119 18 101 50 57 46 21 61 54 52 44 18 25
is_linear=0
shrinkage=0.04


Tree=30
num_leaves=31
num_cat=0
split_feature=1 1 4 1 4 1 1 4 4 1 4 2 4 1 2 2 1 1 2 1 2 2 2 1 4 4 4 2 2 1
split_gain=64507 19585.6 10446.5 3896.75 3583.73 2699.7 2213.61 2042.38 1634.98 1749.25 1931.74 983.637 950.049 1034.05 831.318 669.022 635.562 493.936 483.651 460.411 421.52 393.932 324.132 488.576 340.233 306.09 1784.72 269.482 258.176 253.477
threshold=165.50000000000003 115.50000000000001 4.3745178453895841 137.50000000000003 94.457199490102184 179.50000000000003 196.50000000000003 63.56766250074903 33.002150704068846 152.50000000000003 44.556838652021703 2022.5000000000002 88.286465247460754 82.500000000000014 2021.5000000000002 2024.5000000000002 192.50000000000003 129.50000000000003 2022.5000000000002 85.500000000000014 2021.5000000000002 2024.5000000000002 2022.5000000000002 98.500000000000014 83.711206547268731 83.424142068659378 82.955832623020271 2022.5000000000002 2021.5000000000002 177.50000000000003
decision_type=2 2 10 2 10 2 2 8 8 2 8 2 10 2 2 2 2 2 2 2 2 2 2 2 8 10 10 2 2 2
left_child=1 4 6 7 12 14 16 -3 -5 10 -10 -9 13 -1 -4 -12 29 -13 -6 -20 -11 -16 23 -15 25 26 -25 -14 -18 -2
right_child=2 3 5 8 18 -7 -8 11 9 20 15 17 27 22 21 -17 28 -19 19 -21 -22 -23 -24 24 -26 -27 -28 -29 -30 -31
leaf_value=0.058877441034228442 -0.025544382384257464 0.050693389822422774 -0.0032975907338200598 0.013031917672238887 0.043731867655317842 -0.023929011007545551 -0.068538003270974576 0.0049108846599175337 0.028291632034642526 -0.016507291210509575 -0.00069083708991503595 0.017646333481147927 0.027107548234303273 0.028103299767256326 -0.0160880660987942 0.008845107099537744 -0.059075025732397 0.009928218737454482 0.08655141891858506 0.057134062437798568 -0.0047411793920058105 -0.0086636299480291092 0.026935691399773067 0.13611374932366449 0.012609631604948487 0.011562020864082858 0.010025607685180246 0.03818404872789518 -0.042779821401216743 -0.036207304761263936
leaf_weight=1292 4839 2175 16844 16596 3266 41792 4310 25430 4836 5477 41971 31886 4874 6555 33462 16360 1963 22720 1087 3925 44073 17370 14776 259 12122 614 586 12598 7497 13570
leaf_count=4 12 15 11 15 21 45 21 43 9 12 51 38 19 19 38 14 8 23 20 24 43 13 24 14 23 1 1 34 14 25
internal_value=8.4501e-05 0.0114324 -0.0218249 0.00563917 0.0312118 -0.0159354 -0.0418604 0.0124482 0.0013103 -0.000415548 0.0039978 0.0114089 0.0274338 0.0237369 -0.010999 0.00198369 -0.0377347 0.014435 0.0557092 0.0635141 -0.00604174 -0.013551 0.0224364 0.0191348 0.0148061 0.0330552 0.0486727 0.0350941 -0.0461612 -0.0334044
internal_weight=415125 273478 141647 211524 61954 109468 32179 82211 129313 112717 63167 80036 53676 36204 67676 58331 27869 54606 8278 5012 49550 50832 34912 20136 13581 1459 845 17472 9460 18409
internal_count=654 467 187 263 204 107 80 119 144 129 74 104 139 86 62 65 59 61 65 44 55 51 82 58 39 16 15 53 22 37
is_linear=0
shrinkage=0.04


Tree=31
num_leaves=31
num_cat=0
split_feature=1 1 4 1 4 1 1 4 4 1 4 2 4 1 2 2 1 1 1 2 2 2 1 2 1 4 4 1 2 2
split_gain=59449.6 18050.1 9627.5 3591.24 3302.76 2488.05 2060.51 1882.26 1506.79 1612.11 1780.29 906.52 875.565 952.981 766.143 616.571 478.119 470.295 455.414 446.413 388.472 363.048 354.946 298.72 450.881 339.944 283.094 304.155 258.836 250.792
threshold=165.50000000000003 115.50000000000001 4.3745178453895841 137.50000000000003 94.457199490102184 179.50000000000003 194.50000000000003 63.56766250074903 33.002150704068846 152.50000000000003 44.556838652021703 2022.5000000000002 88.286465247460754 82.500000000000014 2021.5000000000002 2024.5000000000002 198.50000000000003 82.500000000000014 128.50000000000003 2022.5000000000002 2021.5000000000002 2024.5000000000002 178.50000000000003 2022.5000000000002 94.500000000000014 83.711206547268731 0.80175544388405207 190.50000000000003 2023.5000000000002 2021.5000000000002
decision_type=2 2 10 2 10 2 2 8 8 2 8 2 10 2 2 2 2 2 2 2 2 2 2 2 2 8 10 2 2 2
left_child=1 4 6 7 12 14 22 -3 -5 10 -10 -9 13 -1 -4 -12 -8 -6 -13 -19 -11 -16 -2 24 -15 -26 27 -24 -21 -7
right_child=2 3 5 8 17 29 16 11 9 20 15 18 -14 23 21 -17 -18 19 -20 28 -22 -23 26 -25 25 -27 -28 -29 -30 -31
leaf_value=0.056522342575592896 -0.024893564971554025 0.048665654184626435 -0.0031656871660676882 0.012510640844720677 0.07871632644240123 -0.016387768863970954 -0.053182543533083326 0.0047144492806011984 0.027159967540807229 -0.015847000141572143 -0.00066320363710249881 0.017269283530889187 0.033690375705341717 0.029425567673759225 -0.015444543565012878 0.0084913025648494806 -0.080124583866957824 0.036893655282479745 0.0099463286669749136 0.076511641487772661 -0.004551532148051732 -0.0083170846995088508 -0.038216648968040383 0.025858264090760565 0.033386153606603339 0.013215824664421392 -0.03312329063204178 -0.057847986072560122 0.05271352783069605 -0.024430147174253871
leaf_weight=1292 5199 2175 16844 16596 1034 7578 7255 25430 4836 5477 41971 29166 17472 4564 33462 16360 1233 2673 25440 914 44073 17370 4668 14776 1477 14095 12093 1731 3657 34214
leaf_count=4 13 15 11 15 20 6 22 43 9 12 51 35 53 12 38 14 10 12 26 9 43 13 12 24 17 29 17 6 24 39
internal_value=8.11211e-05 0.0109751 -0.0209519 0.00541361 0.0299633 -0.0152979 -0.040186 0.0119503 0.00125789 -0.000398926 0.00383789 0.0109526 0.0263364 0.0227874 -0.0105591 0.00190435 -0.0570962 0.0534808 0.0138576 0.0498788 -0.00580007 -0.013009 -0.0341274 0.021539 0.0183694 0.015129 -0.0367235 -0.0435271 0.0574721 -0.0229719
internal_weight=415125 273478 141647 211524 61954 109468 32179 82211 129313 112717 63167 80036 53676 36204 67676 58331 8488 8278 54606 7244 49550 50832 23691 34912 20136 15572 18492 6399 4571 41792
internal_count=654 467 187 263 204 107 80 119 144 129 74 104 139 86 62 65 32 65 61 45 55 51 48 82 58 46 35 18 33 45
is_linear=0
shrinkage=0.04


Tree=32
num_leaves=31
num_cat=0
split_feature=0 0 5 5 0 0 0 5 5 0 0 2 0 2 2 0 2 2 2 2 0 0 0 5 2 5 2 0 2 2
split_gain=54790.1 17244.2 8550.57 4604.81 2051.7 1932.49 1866.58 1864.3 1723.71 1407.41 1105.64 886.37 825.551 642.748 628.089 501.913 482.209 413.246 410.266 351.394 350.912 342.273 341.759 317.182 297.199 252.723 296.847 243.21 232.898 221.502
threshold=166.50000000000003 125.50000000000001 0.043745178453895833 0.88286465247460755 179.50000000000003 153.50000000000003 196.50000000000003 0.47287470158456785 0.29987902051230103 88.500000000000014 87.500000000000014 2020.5000000000002 137.50000000000003 2020.5000000000002 2021.5000000000002 192.50000000000003 2022.5000000000002 2024.5000000000002 2022.5000000000002 2021.5000000000002 95.500000000000014 112.50000000000001 103.50000000000001 0.84918987836508297 2024.5000000000002 0.66230759045175913 2024.5000000000002 185.50000000000003 2024.5000000000002 2021.5000000000002
decision_type=2 2 10 10 2 2 2 8 8 2 2 2 2 2 2 2 2 2 2 2 2 2 2 10 2 10 2 2 2 2
left_child=1 3 6 10 14 7 15 -3 -7 18 -1 -9 25 22 -4 -2 -11 -14 -5 -10 -18 23 -12 -15 -16 -13 -27 -6 -23 -17
right_child=2 5 4 9 27 8 -8 11 19 16 13 12 17 21 24 29 20 -19 -20 -21 -22 28 -24 -25 -26 26 -28 -29 -30 -31
leaf_value=0.040479350279033655 -0.031116070093413734 0.023781792413043134 -0.0035833940150054016 0.047266848599741972 -0.019668907690891607 0.0095125890899705988 -0.063360880734472436 -0.0051200624004089559 -0.015649587954061357 0.024340390865189993 0.017989632315140766 0.021242928374408714 0.0004323770747275313 0.043069130138663113 -0.015149841968475242 -0.054462082523262387 0.048784002810799275 0.0078515464837315765 0.071540501280823038 -0.0049001799402458327 0.034536113890058971 0.016142758306131606 0.0065699342540404392 0.023220282404859651 -0.0084568516183244676 0.0073066684055756032 0.015417802243523585 -0.025958598336594911 0.023923691443358139 -0.039368572624362247
leaf_weight=3532 17959 8806 15353 2331 25951 14689 4310 13079 5465 5809 6831 3105 37806 1449 31448 1963 3606 17606 2134 44370 11870 27926 10858 11602 16024 28321 9689 15841 7895 7497
leaf_count=9 36 15 10 21 27 12 21 25 12 19 14 9 41 16 36 8 18 15 29 43 31 46 20 24 12 33 10 18 10 14
internal_value=7.78762e-05 0.0102407 -0.0207014 0.0239849 -0.0151849 0.00303984 -0.0388904 0.00607466 -0.00252953 0.0384504 0.0186707 0.00465203 0.0059761 0.0175134 -0.0106162 -0.0350439 0.0341674 0.00278966 0.0588682 -0.00607898 0.037856 0.0198782 0.0109799 0.025424 -0.0128906 0.0102706 0.00937425 -0.022053 0.0178577 -0.0425006
internal_weight=415125 278779 136346 95843 104617 182936 31729 118412 64524 25750 70093 109606 96527 66561 62825 27419 21285 55412 4465 49835 15476 48872 17689 13051 47472 41115 38010 41792 35821 9460
internal_count=654 472 182 257 103 215 79 148 67 118 139 133 108 130 58 58 68 56 50 55 49 96 34 40 48 52 43 45 56 22
is_linear=0
shrinkage=0.04


Tree=33
num_leaves=31
num_cat=0
split_feature=0 0 5 5 0 0 5 0 5 0 2 0 2 5 5 2 2 0 5 0 2 0 0 2 5 0 2 0 2 5
split_gain=50518.6 15411.8 8173.09 3569.97 2173.61 2109.55 1831.89 1768.57 1750.24 985.766 939.601 854.851 647.919 561.911 490.511 485.273 471.689 449.791 441.574 423.874 378.101 331.436 316.267 310.199 295.077 349.76 1447.72 331.036 380.057 256.774
threshold=165.50000000000003 121.50000000000001 0.043745178453895833 0.90673200504960294 145.50000000000003 179.50000000000003 0.34996963846118279 194.50000000000003 0.57069209930098297 88.500000000000014 2023.5000000000002 83.500000000000014 2021.5000000000002 0.83711206547268724 0.58969554386603817 2020.5000000000002 2022.5000000000002 163.50000000000003 0.71359679462497183 198.50000000000003 2022.5000000000002 153.50000000000003 178.50000000000003 2024.5000000000002 0.79772013841137912 120.50000000000001 2022.5000000000002 93.500000000000014 2022.5000000000002 0.0080175544388405209
decision_type=2 2 10 10 2 2 8 2 8 2 2 2 2 10 8 2 2 2 10 2 2 2 2 2 8 2 2 2 2 10
left_child=1 3 7 11 8 12 17 22 -3 20 14 -1 -4 24 -10 -8 -11 -6 -16 -9 -5 -17 -2 -14 25 26 -13 -26 -29 -24
right_child=2 4 5 9 6 -7 15 19 10 16 -12 13 23 -15 18 21 -18 -19 -20 -21 -22 -23 29 -25 27 -27 -28 28 -30 -31
leaf_value=0.047843220838203956 -0.022706726978182403 0.032428742227930248 -0.0029420931835804154 0.045376174481627979 0.013783538579454579 -0.021170857182688227 -0.012551599786289388 -0.049017467832663898 0.063834005006602107 0.023341059961887511 0.011365016843205671 0.10817736824251385 -0.014245444207672835 0.024242724902483897 0.00033161897498758301 0.0011528130988864948 0.039548253415898335 0.00023107593360780925 0.008339613963638701 -0.074385163182663125 0.068678880671864936 -0.0045220758939055177 -0.040353158437231404 -0.0076571516301622324 0.026506191918320345 0.018663092869221284 0.014820520266872765 0.010197675829216313 0.019527625119131222 -0.03044474768380339
leaf_weight=1736 5199 4541 16844 2331 15201 41792 7946 7255 213 4009 42426 389 33462 23343 33028 28734 10141 5279 16532 1233 2134 38570 6399 17370 3633 2712 839 18527 11214 12093
leaf_count=5 13 16 11 21 15 45 17 22 2 12 44 14 38 50 46 29 38 4 21 10 29 38 18 13 8 4 1 38 15 17
internal_value=7.47612e-05 0.0101172 -0.0193142 0.0247539 0.00395681 -0.0141047 -0.000316339 -0.0370359 0.00818535 0.0401271 0.00699131 0.0201673 -0.00974115 0.0193752 0.00326321 -0.00320301 0.0349564 0.0102902 0.00300289 -0.0527025 0.0565135 -0.0020993 -0.0314229 -0.0119941 0.0163301 0.0266827 0.0443937 0.0151079 0.0137156 -0.0338735
internal_weight=415125 273478 141647 81008 192470 109468 95730 32179 96740 18615 92199 62393 67676 60657 49773 75250 14150 20480 49560 8488 4465 67304 23691 50832 37314 3940 1228 33374 29741 18492
internal_count=654 467 187 235 232 107 103 80 129 100 113 135 62 130 69 84 50 19 67 32 50 67 48 51 80 19 15 61 53 35
is_linear=0
shrinkage=0.04


Tree=34
num_leaves=31
num_cat=0
split_feature=0 0 4 4 0 0 0 4 4 0 0 2 0 2 2 0 2 2 2 0 2 0 4 4 2 0 4 2 2 2
split_gain=46574.9 14695.5 7258.74 3924.15 1737.46 1640.6 1610.53 1607.22 1462.09 1189.36 944.462 765.718 722.572 549.37 532.747 433.308 415.697 388.6 348.458 310.52 302.636 300.47 293.297 1509.59 274.254 333.11 348.674 251.891 229.464 314.665
threshold=166.50000000000003 125.50000000000001 4.3745178453895841 88.286465247460754 179.50000000000003 153.50000000000003 196.50000000000003 47.287470158456792 29.987902051230098 88.500000000000014 87.500000000000014 2020.5000000000002 136.50000000000003 2020.5000000000002 2021.5000000000002 192.50000000000003 2022.5000000000002 2024.5000000000002 2022.5000000000002 95.500000000000014 2021.5000000000002 103.50000000000001 76.037353230444452 75.736061505448149 2024.5000000000002 106.50000000000001 87.637173255711716 2024.5000000000002 2021.5000000000002 2024.5000000000002
decision_type=2 2 10 10 2 2 2 8 8 2 2 2 2 2 2 2 2 2 2 2 2 2 10 10 2 2 10 2 2 2
left_child=1 3 6 10 14 7 15 -3 -7 18 -1 -9 -13 21 -4 -2 -11 -14 -5 -18 -10 -12 23 -15 25 26 -24 -16 -6 -30
right_child=2 5 4 9 28 8 -8 11 20 16 13 12 17 22 27 -17 19 -19 -20 -21 -22 -23 24 -25 -26 -27 -28 -29 29 -31
